Language model created by QuickLM on Sat Jul  2 12:06:34 EDT 2016
Copyright (c) 1996-2010 Carnegie Mellon University and Alexander I. Rudnicky

The model is in standard ARPA format, designed by Doug Paul while he was at MITRE.

The code that was used to produce this language model is available in Open Source.
Please visit http://www.speech.cs.cmu.edu/tools/ for more information

The (fixed) discount mass is 0.5. The backoffs are computed using the ratio method.
This model based on a corpus of 1815 sentences and 1205 words

\data\
ngram 1=1205
ngram 2=3392
ngram 3=4048

\1-grams:
-4.2824 0.1 -0.2578
-4.2824 000 -0.2977
-4.2824 1966 -0.2578
-4.2824 1976 -0.2578
-4.2824 1995 -0.2578
-4.2824 1997 -0.2578
-4.2824 1998 -0.2578
-4.2824 1999 -0.2578
-3.9813 2000 -0.2578
-3.9813 2001 -0.2578
-4.2824 2009 -0.2578
-4.2824 2020 -0.2578
-4.2824 2X2 -0.2578
-4.2824 3 -0.3010
-3.9813 30 -0.3010
-4.2824 3P0 -0.2578
-4.2824 5 -0.2578
-4.2824 8 -0.2578
-4.2824 9000 -0.2578
-1.0235 </s> -0.3010
-1.0235 <s> -0.1955
-2.1121 A -0.2917
-4.2824 ABORTIONS -0.2578
-2.6696 ABOUT -0.2306
-4.2824 ABSORBING -0.2578
-4.2824 ACHIEVEMENT -0.2578
-4.2824 ACRONYM -0.2578
-4.2824 ACT -0.3010
-4.2824 ACTION -0.2578
-4.2824 ACTIVATE -0.2990
-4.2824 ACTIVATED -0.2897
-4.2824 ADAMS -0.2578
-4.2824 ADIDAS -0.2578
-4.2824 ADMIT -0.2578
-4.2824 ADVANCED -0.2578
-4.2824 ADVICE -0.2578
-4.2824 AFTER -0.2990
-4.2824 AGE -0.2578
-4.2824 AGENT -0.3010
-4.2824 AGREE -0.2578
-4.2824 AHEM -0.2578
-3.2410 AI -0.2529
-3.6803 AIML -0.2575
-4.2824 AIMLESS -0.3008
-4.2824 AIRPLANES -0.3009
-4.2824 AKSHAY -0.3010
-4.2824 ALGORITHMS -0.2578
-2.4435 ALICE -0.2420
-3.6803 ALICEBOT -0.2578
-3.9813 ALICEBOTS -0.2578
-4.2824 ALICELISTENER -0.2578
-4.2824 ALICES -0.2578
-4.2824 ALIENS -0.2578
-4.2824 ALIGNED -0.2578
-3.6803 ALL -0.2966
-4.2824 ALLIGATOR -0.2578
-4.2824 ALLOWED -0.2999
-4.2824 ALMOST -0.2578
-4.2824 ALOT -0.2578
-3.5834 ALREADY -0.2978
-4.2824 ALRIGHT -0.2578
-3.6803 ALWAYS -0.2577
-3.1684 AM -0.2967
-4.2824 AMAZING -0.2578
-4.2824 AMEN -0.2578
-3.9813 AMERICA -0.2578
-3.9813 AMERICAN -0.3010
-4.2824 AMMO -0.2578
-4.2824 AMNESIA -0.2578
-4.2824 AMUSED -0.2578
-3.2410 AN -0.2985
-4.2824 ANAL -0.2578
-3.2410 AND -0.2307
-4.2824 ANGRY -0.2578
-4.2824 ANIMAL -0.2578
-3.5834 ANOTHER -0.2570
-3.2032 ANSWER -0.2514
-4.2824 ANSWERS -0.2578
-3.5834 ANY -0.2920
-3.5834 ANYTHING -0.2453
-4.2824 ANYWAY -0.2578
-4.2824 AOL -0.2578
-3.9813 APPLES -0.2578
-4.2824 APPLET -0.2578
-4.2824 AQUARIUS -0.2578
-4.2824 ARCH -0.2578
-4.2824 ARCHIVES -0.2578
-2.1820 ARE -0.2176
-4.2824 ARIES -0.2578
-4.2824 ARMS -0.2578
-4.2824 ARSE -0.2578
-4.2824 ART -0.2578
-3.3793 ARTIFICIAL -0.2576
-3.8052 AS -0.2541
-3.9813 ASHWIN -0.2578
-2.9206 ASK -0.2300
-3.3793 ASKED -0.2394
-3.8052 ASKING -0.2453
-3.8052 ASS -0.2578
-4.2824 ASSIMILATED -0.2578
-4.2824 ASSUMING -0.2578
-4.2824 ASTROLOGICAL -0.3010
-4.2824 AT -0.2578
-4.2824 ATTITUDE -0.2578
-4.2824 AUGUST -0.2578
-4.2824 AUTOMOBILE -0.3010
-3.9813 AWESOME -0.2578
-4.2824 AWW -0.2578
-4.2824 AXIS -0.3010
-4.2824 AYUH -0.3008
-4.2824 B -0.3010
-4.2824 BABY -0.2578
-3.9813 BACK -0.2578
-4.2824 BACKWARD -0.2578
-3.5834 BAD -0.2574
-4.2824 BAER -0.2578
-4.2824 BAH -0.2578
-4.2824 BALLS -0.3010
-4.2824 BANANAS -0.2578
-3.8052 BARRY -0.2578
-4.2824 BASEBALLTEAM -0.2578
-4.2824 BASED -0.2578
-4.2824 BATHROOM -0.2578
-4.2824 BCN -0.2578
-3.1362 BE -0.2417
-4.2824 BEACUSE -0.2578
-4.2824 BEANS -0.2578
-3.6803 BEAUTIFUL -0.2577
-4.2824 BEAUTY -0.2578
-4.2824 BEAVIS -0.2578
-4.2824 BECOME -0.2977
-3.9813 BED -0.2578
-3.1063 BEEN -0.2992
-3.5042 BEFORE -0.2541
-4.2824 BEGIN -0.2578
-3.5834 BEING -0.2975
-4.2824 BELIEVE -0.2578
-4.2824 BEND -0.3010
-3.6803 BEST -0.2569
-3.2824 BETTER -0.2448
-4.2824 BIG -0.3010
-4.2824 BIGGER -0.2578
-4.2824 BILL -0.3010
-4.2824 BIRTHDAY -0.2578
-4.2824 BIRTHPLACE -0.2578
-4.2824 BLESS -0.2897
-3.8052 BLUE -0.2578
-3.8052 BODY -0.2578
-3.9813 BOLLOCKS -0.2578
-4.2824 BONO -0.3008
-4.2824 BOO -0.2578
-4.2824 BOOBS -0.2578
-3.6803 BOOK -0.2453
-4.2824 BOOKS -0.2984
-3.6803 BORING -0.2578
-4.2824 BORROW -0.3009
-3.8052 BOT -0.2578
-3.8052 BOTMASTER -0.2578
-3.1362 BOTNAME -0.2578
-4.2824 BOX -0.2578
-3.5834 BOYFRIEND -0.2482
-3.8052 BRAIN -0.2578
-4.2824 BRAVO -0.2578
-4.2824 BREAK -0.2578
-4.2824 BREASTS -0.2578
-4.2824 BREATH -0.2578
-4.2824 BREATHE -0.2578
-4.2824 BRILLIANT -0.2578
-3.9813 BRING -0.2992
-3.8052 BROTHER -0.2578
-3.9813 BROTHERS -0.2578
-4.2824 BROWN -0.2578
-4.2824 BUBBLES -0.2578
-4.2824 BUILD -0.2578
-4.2824 BULLSHIT -0.2578
-4.2824 BURP -0.2578
-4.2824 BUSH -0.2578
-4.2824 BUSINESS -0.2578
-4.2824 BUSY -0.2578
-4.2824 BUTT -0.2578
-4.2824 BUTTHEAD -0.2578
-4.2824 BY -0.3009
-3.8052 C -0.2577
-3.9813 C3P0 -0.2578
-4.2824 C3PO -0.2578
-4.2824 CALCULATOR -0.2578
-3.9813 CALL -0.2878
-4.2824 CALLED -0.2578
-4.2824 CAME -0.3009
-2.7141 CAN -0.2358
-3.9813 CANCER -0.2578
-4.2824 CAPABLE -0.3000
-3.9813 CAPRICORN -0.2578
-3.9813 CAR -0.2578
-4.2824 CARE -0.2578
-3.9813 CASE -0.2578
-4.2824 CAT -0.2578
-4.2824 CATEGORY -0.3010
-3.9813 CATS -0.2578
-3.9813 CD -0.2578
-4.2824 CELEBRITIES -0.2578
-4.2824 CELEBRITY -0.3010
-4.2824 CERTAIN -0.2578
-4.2824 CHAIR -0.2578
-3.6803 CHANGE -0.2555
-4.2824 CHANGING -0.2990
-3.6803 CHAT -0.2571
-4.2824 CHATTERBOT -0.2578
-4.2824 CHATTERBOX -0.2578
-4.2824 CHATTING -0.3001
-4.2824 CHEATED -0.2578
-4.2824 CHEESE -0.2578
-4.2824 CHENEY -0.2578
-4.2824 CHESS -0.2578
-4.2824 CHEWBACCA -0.2578
-4.2824 CHICKEN -0.3010
-4.2824 CHILD -0.2578
-3.9813 CHILDREN -0.2578
-4.2824 CHRISTMAS -0.2578
-4.2824 CIRCUMSTANCES -0.2578
-3.8052 CITY -0.2578
-3.9813 CLARIFY -0.2483
-4.2824 CLASS -0.2578
-4.2824 CLEAN -0.2991
-4.2824 CLEAR -0.2578
-4.2824 CLEARED -0.3008
-4.2824 CLEARLY -0.2578
-3.9813 CLIENTS -0.2578
-4.2824 CLOCK -0.2578
-4.2824 CLONE -0.2578
-4.2824 CLONES -0.2578
-3.9813 CLOTHES -0.2578
-4.2824 CLOUDY -0.2578
-4.2824 COCK -0.2578
-4.2824 COFFEE -0.2578
-4.2824 COGITO -0.3010
-3.9813 COINCIDENCE -0.2578
-3.9813 COLD -0.2576
-4.2824 COLLEGE -0.2578
-2.7910 COLOR -0.2448
-4.2824 COM -0.2578
-4.2824 COMFORTABLE -0.2578
-3.9813 COMMON -0.2578
-3.9813 COMO -0.3010
-4.2824 COMPANY -0.3007
-3.9813 COMPLICATED -0.2578
-3.8052 COMPLIMENT -0.2578
-4.2824 COMPLY -0.2578
-3.1063 COMPUTER -0.2419
-4.2824 COMPUTERS -0.2578
-4.2824 COMPUTING -0.3010
-4.2824 CONDITIONS -0.2578
-3.9813 CONFIDENTIAL -0.2578
-4.2824 CONFUSE -0.2992
-4.2824 CONNECTOR -0.2578
-3.9813 CONTACT -0.2578
-4.2824 CONTEXT -0.2578
-4.2824 CONTRADICT -0.3009
-4.2824 CONTROL -0.2578
-4.2824 COOK -0.2578
-3.5042 COOL -0.2565
-4.2824 COOPER -0.2578
-4.2824 COP -0.3009
-4.2824 CORNERS -0.2578
-3.9813 CORRECT -0.2578
-4.2824 COST -0.3010
-3.3793 COULD -0.2444
-4.2824 COUNT -0.2578
-3.6803 COUNTRY -0.2578
-4.2824 COWS -0.2578
-4.2824 CRAMPED -0.2996
-3.9813 CRASH -0.2578
-4.2824 CRASHED -0.2578
-4.2824 CREATE -0.2995
-3.9813 CREATED -0.2897
-4.2824 CREATER -0.2578
-4.2824 CREATORS -0.3004
-4.2824 CREATURE -0.2923
-4.2824 CRIPES -0.2578
-4.2824 CRITICISM -0.2578
-3.9813 CRY -0.2578
-4.2824 CUNT -0.2578
-4.2824 CURIOSITY -0.2578
-4.2824 CUTE -0.2578
-4.2824 CYA -0.2578
-4.2824 CYBELLE -0.2578
-4.2824 CYBER -0.3010
-4.2824 DAD -0.2578
-4.2824 DALLAS -0.2578
-4.2824 DANCING -0.3007
-4.2824 DANGEROUS -0.2578
-3.9813 DATA -0.2576
-3.8052 DAY -0.2482
-4.2824 DAYS -0.2578
-3.8052 DEAD -0.2578
-4.2824 DEATH -0.2578
-4.2824 DEBBIE -0.2998
-4.2824 DECIDE -0.2578
-4.2824 DECIMAL -0.3010
-4.2824 DEDUCTION -0.2578
-4.2824 DEDUCTIVE -0.3010
-4.2824 DEEP -0.3010
-4.2824 DEFACTO -0.2578
-3.9813 DEFINE -0.2965
-4.2824 DEFINED -0.2578
-4.2824 DEPEND -0.3008
-3.9813 DEPENDS -0.2578
-4.2824 DEPRESSION -0.3010
-4.2824 DESIGNATES -0.2990
-4.2824 DEVELOPERS -0.2578
-4.2824 DICTIONARY -0.2578
-2.6011 DID -0.2193
-3.1362 DIE -0.2578
-3.6803 DIED -0.2578
-3.6803 DIFFERENT -0.2571
-4.2824 DIFFICULT -0.2578
-4.2824 DIFFICULTIES -0.2578
-4.2824 DIGRESS -0.2578
-4.2824 DIRTY -0.2578
-4.2824 DMX -0.2578
-2.2217 DO -0.2188
-4.2824 DOCUMENTATION -0.2578
-2.5581 DOES -0.2363
-4.2824 DOG -0.3009
-4.2824 DOGS -0.2578
-4.2824 DOH -0.2578
-3.3281 DOING -0.2538
-4.2824 DOMAIN -0.2578
-4.2824 DONATE -0.2578
-4.2824 DORK -0.2578
-4.2824 DOUBLY -0.3010
-4.2824 DOUGLAS -0.3010
-4.2824 DOWN -0.3008
-4.2824 DOWNLOAD -0.2578
-4.2824 DOWNLOADED -0.2578
-4.2824 DOWNLOADING -0.2578
-3.9813 DREAM -0.2578
-3.9813 DREAMS -0.2578
-3.6803 DRESS -0.2576
-4.2824 DRINKING -0.2578
-4.2824 DROP -0.2990
-4.2824 DUDE -0.2578
-4.2824 DUMB -0.2578
-4.2824 DUMBASS -0.2578
-4.2824 DUMMY -0.2578
-4.2824 DYING -0.2578
-3.9813 E -0.2578
-4.2824 EARLY -0.2578
-3.9813 EARS -0.2578
-4.2824 EASTER -0.2578
-3.8052 EASY -0.2578
-3.9813 EAT -0.2578
-4.2824 EFFECTS -0.2578
-4.2824 EGG -0.2578
-3.9813 EITHER -0.2578
-3.9813 ELECTRICITY -0.2578
-4.2824 ELEPHANT -0.3010
-3.2410 ELIZA -0.2573
-3.2824 ELSE -0.2508
-3.9813 ELVIS -0.3004
-4.2824 EMAIL -0.2578
-3.8052 EMOTIONS -0.2578
-4.2824 END -0.2578
-3.6803 ENGLAND -0.2578
-3.9813 ENGLISH -0.2578
-4.2824 ENLISTED -0.2578
-3.8052 ENOUGH -0.2578
-4.2824 ENTITY -0.2578
-4.2824 ERASE -0.3009
-4.2824 ERGO -0.3010
-4.2824 ERRR -0.2578
-4.2824 ESTA -0.2578
-4.2824 ESTAS -0.2578
-4.2824 ETHICS -0.2578
-4.2824 EUH -0.2578
-4.2824 EUKARYOTE -0.2578
-3.8052 EUROPE -0.2578
-4.2824 EVE -0.2578
-3.3793 EVER -0.3000
-3.8052 EVERY -0.3009
-4.2824 EVERYBODY -0.2578
-4.2824 EVERYDAY -0.2578
-3.9813 EVIDENT -0.2578
-4.2824 EXACTLY -0.2578
-4.2824 EXCITING -0.2578
-4.2824 EXCUSE -0.2992
-3.9813 EXIST -0.2578
-4.2824 EXPERIENCE -0.2578
-4.2824 EXPERIENCES -0.2578
-4.2824 EXPLAIN -0.2578
-4.2824 EXPLAINING -0.2924
-4.2824 EXPLANATION -0.2578
-4.2824 EXPRESSION -0.2578
-4.2824 EYE -0.2578
-3.4373 EYES -0.2546
-3.9813 FACT -0.2578
-3.9813 FACTS -0.2578
-4.2824 FAG -0.2578
-4.2824 FAILED -0.2578
-4.2824 FAILS -0.2578
-3.9813 FAIR -0.2577
-4.2824 FAMILY -0.2578
-4.2824 FAMOUS -0.2578
-4.2824 FART -0.2578
-4.2824 FASHION -0.2984
-3.9813 FATHER -0.2577
-4.2824 FAULT -0.2578
-3.2410 FAVORITE -0.2572
-4.2824 FAVORITEACTOR -0.2578
-4.2824 FAVORITEACTRESS -0.2578
-4.2824 FAVORITEARTIST -0.2578
-4.2824 FAVORITEAUTHOR -0.2578
-4.2824 FAVORITEBAND -0.2578
-4.2824 FAVORITEBOOK -0.2578
-4.2824 FAVORITECOLOR -0.2578
-4.2824 FAVORITEFOOD -0.2578
-4.2824 FAVORITEMOVIE -0.2578
-4.2824 FAVORITEQUESTION -0.2578
-4.2824 FAVORITESONG -0.2578
-4.2824 FAVORITESPORT -0.2578
-4.2824 FAVORITESUBJECT -0.2578
-4.2824 FEAR -0.3010
-4.2824 FEEL -0.3009
-3.6803 FEELINGS -0.2576
-4.2824 FEELS -0.3006
-4.2824 FELL -0.3010
-3.8052 FEMALE -0.2578
-3.9813 FIGHT -0.2578
-3.9813 FIGURE -0.3000
-4.2824 FILE -0.2995
-4.2824 FILM -0.2578
-3.9813 FINAL -0.3008
-4.2824 FINALLY -0.2578
-3.5834 FIND -0.3008
-3.5834 FINE -0.2578
-4.2824 FINK -0.2578
-4.2824 FIREFLY -0.2578
-3.6803 FIRST -0.2555
-3.9813 FIVE -0.2578
-4.2824 FLAWS -0.2578
-4.2824 FLY -0.2578
-3.9813 FOOTBALL -0.2578
-4.2824 FOOTBALLTEAM -0.2578
-2.9399 FOR -0.2258
-4.2824 FORCE -0.3007
-4.2824 FORFUN -0.2578
-3.9813 FORGET -0.2578
-3.9813 FORGOT -0.2578
-3.8052 FORM -0.2544
-4.2824 FORMULATED -0.2990
-4.2824 FORUM -0.2578
-4.2824 FORWARD -0.2578
-3.6803 FOUNDATION -0.2578
-4.2824 FOUR -0.2578
-4.2824 FRANCISCO -0.2578
-4.2824 FRANK -0.2578
-3.4373 FREE -0.2550
-3.6803 FRIEND -0.2578
-3.8052 FRIENDS -0.2578
-4.2824 FRIGHTEN -0.2992
-3.4373 FROM -0.2441
-4.2824 FTP -0.3008
-3.9813 FUCK -0.2541
-3.9813 FULL -0.3003
-3.6803 FUN -0.2578
-3.9813 FUNCTIONS -0.2578
-3.4373 FUNNY -0.2576
-4.2824 FUTILE -0.2578
-3.6803 FUTURE -0.2578
-3.4373 GAME -0.2546
-4.2824 GATES -0.2578
-4.2824 GEE -0.2578
-4.2824 GEMINI -0.2578
-4.2824 GENDER -0.2578
-4.2824 GENERATION -0.2578
-4.2824 GENETIC -0.2578
-4.2824 GENUS -0.2578
-4.2824 GEOMETRY -0.2578
-3.9813 GEORGE -0.3010
-3.9813 GERMAN -0.2575
-3.4373 GET -0.2884
-4.2824 GIRL -0.3002
-3.6803 GIRLFRIEND -0.2482
-3.6803 GIVE -0.2946
-4.2824 GLAD -0.2578
-4.2824 GLASS -0.2578
-4.2824 GLOBAL -0.3010
-3.4373 GO -0.2561
-4.2824 GOAL -0.2578
-4.2824 GOAT -0.2578
-4.2824 GOES -0.3010
-4.2824 GOING -0.2999
-4.2824 GOLD -0.2578
-4.2824 GOLDEN -0.3010
-3.0271 GOOD -0.2561
-4.2824 GOOFED -0.2578
-4.2824 GOOG -0.2578
-3.9813 GOSSIP -0.2578
-4.2824 GOT -0.2966
-3.9813 GRASS -0.2482
-3.5834 GREAT -0.2578
-4.2824 GREATEST -0.3010
-4.2824 GREED -0.2578
-3.8052 GREEN -0.2578
-3.5042 GUESS -0.2471
-4.2824 GURU -0.2578
-4.2824 H -0.2578
-3.6803 HAD -0.2974
-3.5834 HAIR -0.2549
-3.8052 HAL -0.2577
-4.2824 HALT -0.2578
-4.2824 HANA -0.2578
-3.9813 HAPPEN -0.2578
-4.2824 HAPPENED -0.2578
-4.2824 HAPPIER -0.3010
-4.2824 HAPPY -0.2578
-3.8052 HARD -0.2565
-3.9813 HARDWARE -0.2578
-4.2824 HARM -0.2977
-4.2824 HARRY -0.3010
-3.9813 HAS -0.2578
-4.2824 HATE -0.3010
-2.3793 HAVE -0.2308
-3.8052 HE -0.2983
-4.2824 HEAD -0.2578
-4.2824 HEADQUARTERS -0.2578
-4.2824 HEAR -0.3001
-3.6803 HEARD -0.2961
-4.2824 HEART -0.2578
-4.2824 HELLO -0.2578
-3.9813 HELP -0.2992
-4.2824 HELPFUL -0.2578
-3.4373 HERE -0.2480
-4.2824 HERS -0.2578
-3.9813 HI -0.3004
-4.2824 HIGH -0.3010
-3.6803 HIM -0.2573
-4.2824 HIP -0.3010
-4.2824 HMPH -0.2578
-4.2824 HOBBIES -0.2578
-4.2824 HOBBY -0.2578
-4.2824 HOCKEYTEAM -0.2578
-3.9813 HOME -0.2578
-4.2824 HOMO -0.3010
-4.2824 HONESTLY -0.2578
-4.2824 HOOP -0.3009
-4.2824 HOP -0.2578
-4.2824 HOPE -0.2977
-4.2824 HOPEFULLY -0.3010
-4.2824 HORSES -0.2578
-3.9813 HOSPITAL -0.2578
-3.8052 HOT -0.2560
-3.9813 HOUSE -0.2578
-2.8352 HOW -0.2918
-4.2824 HUH -0.2924
-4.2824 HULA -0.3010
-3.5834 HUMAN -0.2577
-3.6803 HUMANS -0.2578
-4.2824 HUMM -0.2578
-4.2824 HURRY -0.3008
-3.9813 HURT -0.2557
-3.9813 HURTS -0.2578
-4.2824 HYPERBOLE -0.2578
-2.3281 I -0.2444
-4.2824 IDEA -0.2578
-4.2824 IDIOT -0.2578
-4.2824 IDIOTIC -0.2578
-3.2032 IF -0.2827
-4.2824 ILLEGAL -0.2578
-4.2824 ILLITERATE -0.3009
-4.2824 IM -0.3006
-4.2824 IMHO -0.2578
-4.2824 IMITATION -0.3009
-3.5042 IMMORTAL -0.2578
-3.9813 IMPORTANT -0.2578
-3.9813 IMPOSSIBLE -0.2578
-4.2824 IMPRESSIVE -0.2578
-2.4830 IN -0.2329
-4.2824 INAPPROPRIATE -0.2578
-4.2824 INDIA -0.2578
-4.2824 INDIAN -0.2578
-4.2824 INEVITABLE -0.2578
-4.2824 INFORMATION -0.2923
-4.2824 INSIST -0.2578
-4.2824 INTELLECT -0.2578
-4.2824 INTELLECTUAL -0.3010
-3.9813 INTELLIGENCE -0.2578
-3.9813 INTELLIGENT -0.2576
-4.2824 INTERESTED -0.2578
-3.5042 INTERESTING -0.2578
-4.2824 INTO -0.2578
-4.2824 INTRIGUING -0.2578
-4.2824 INTRODUCE -0.2578
-4.2824 INTUITIVE -0.2578
-3.5834 INVENTED -0.2578
-4.2824 IP -0.2578
-1.7026 IS -0.2094
-4.2824 ISP -0.3008
-1.9923 IT -0.2199
-4.2824 ITCH -0.2578
-4.2824 ITS -0.3009
-4.2824 ITSELF -0.2578
-3.9813 J -0.2578
-3.9813 JARVIS -0.2577
-4.2824 JEEVES -0.2578
-3.9813 JERK -0.2578
-3.6803 JOB -0.2482
-4.2824 JOHN -0.3010
-3.9813 JOHNNY -0.3010
-3.5834 JOKE -0.2578
-4.2824 JON -0.3010
-3.5042 JUST -0.2533
-4.2824 K12 -0.2578
-4.2824 KARL -0.3010
-4.2824 KARNATAKA -0.2578
-4.2824 KIDDING -0.2578
-4.2824 KIDS -0.2578
-3.9813 KILL -0.2897
-4.2824 KILLED -0.2578
-2.8352 KIND -0.2470
-4.2824 KINDMUSIC -0.2578
-4.2824 KINDS -0.2578
-4.2824 KINECT -0.2578
-4.2824 KINGDOM -0.2578
-4.2824 KISSED -0.3009
-3.6803 KNEW -0.2363
-4.2824 KOSOVO -0.2578
-4.2824 KRAFTWERK -0.2578
-4.2824 KUMAR -0.2578
-3.5834 L -0.2554
-3.9813 LACK -0.3009
-4.2824 LALALALA -0.2578
-3.2824 LANGUAGE -0.2514
-3.9813 LANGUAGES -0.2549
-3.9813 LAST -0.3003
-3.9813 LATE -0.2573
-4.2824 LATELY -0.2578
-4.2824 LATEST -0.3010
-3.9813 LAUGH -0.2578
-4.2824 LAWYERS -0.3010
-3.8052 LEARN -0.2565
-3.9813 LEFT -0.2578
-4.2824 LEGS -0.2578
-4.2824 LEMONS -0.2578
-4.2824 LENNON -0.2923
-2.9021 LET -0.2987
-4.2824 LETTER -0.2578
-4.2824 LEVEL -0.3010
-4.2824 LIBRA -0.2578
-3.9813 LIE -0.2578
-3.4373 LIFE -0.2480
-3.8052 LIGHTS -0.2574
-2.7026 LIKE -0.2328
-3.9813 LIKED -0.2924
-4.2824 LIKEWISE -0.2578
-3.9813 LIMITATIONS -0.2578
-4.2824 LINGUIST -0.2578
-4.2824 LINGUISTIC -0.3010
-4.2824 LINKIN -0.3010
-3.9813 LINUX -0.2578
-4.2824 LISTEN -0.2999
-4.2824 LISTENING -0.2578
-3.6803 LIVE -0.2560
-4.2824 LIVERPOOL -0.3009
-4.2824 LIVING -0.3009
-4.2824 LOCATION -0.2578
-4.2824 LOGIC -0.2578
-3.9813 LOGO -0.2578
-4.2824 LOGS -0.2578
-4.2824 LOL -0.2578
-4.2824 LONDON -0.2578
-3.5042 LONG -0.2975
-3.3281 LOOK -0.2992
-3.9813 LOOKING -0.2578
-4.2824 LOOKLIKE -0.2578
-4.2824 LOSE -0.2578
-4.2824 LOST -0.2578
-3.9813 LOT -0.3000
-4.2824 LOTS -0.2578
-4.2824 LT -0.2578
-4.2824 LUCAS -0.2578
-4.2824 LYING -0.2578
-4.2824 LYNX -0.2578
-3.9813 M -0.2976
-3.9813 MACHINE -0.2578
-4.2824 MAD -0.2578
-3.2824 MADE -0.2833
-4.2824 MAGAZINE -0.2578
-4.2824 MAGICAL -0.2578
-3.1362 MAKE -0.2964
-3.1362 MAKES -0.2826
-3.9813 MAKING -0.3007
-4.2824 MALAYSIA -0.2578
-4.2824 MALFUCTION -0.2578
-4.2824 MALFUNCTION -0.2578
-3.2032 MANY -0.2554
-3.9813 MARS -0.2578
-4.2824 MARX -0.2578
-4.2824 MASSIVE -0.2578
-4.2824 MASTER -0.2578
-4.2824 MATHEMATICS -0.2578
-3.6803 MATTER -0.2578
-3.9813 MAY -0.2555
-2.3793 ME -0.2416
-3.2032 MEAN -0.2363
-4.2824 MEANING -0.2578
-4.2824 MEANINGLESS -0.2578
-4.2824 MEANS -0.2578
-4.2824 MEANT -0.2578
-4.2824 MEASURE -0.2578
-3.9813 MEET -0.2897
-4.2824 MEMORY -0.2578
-3.8052 MET -0.2991
-4.2824 MICROCHIPS -0.3008
-3.8052 MICROSOFT -0.2578
-4.2824 MIDDLE -0.3004
-4.2824 MIGHT -0.2578
-3.9813 MIKE -0.2578
-3.8052 MIND -0.2578
-3.6803 MINE -0.2480
-4.2824 MINERAL -0.2578
-3.9813 MINUTES -0.2578
-4.2824 MISS -0.2992
-4.2824 MISSED -0.2991
-4.2824 MISSING -0.2578
-3.9813 MISTAKE -0.2578
-4.2824 MISTAKES -0.2578
-4.2824 MISUNDERSTOOD -0.2578
-4.2824 MODI -0.2578
-4.2824 MOM -0.2923
-3.9813 MOMENT -0.2578
-4.2824 MONEY -0.2578
-4.2824 MONOPOLY -0.2578
-3.6803 MORE -0.2577
-4.2824 MORNING -0.2578
-3.8052 MOST -0.2999
-3.6803 MOTHER -0.2577
-3.5042 MOVE -0.2577
-3.4373 MOVIE -0.2539
-3.9813 MOVIE? -0.2578
-3.9813 MOVIES -0.2578
-4.2824 MOZILLA -0.2578
-3.9813 MR -0.3005
-3.5042 MUCH -0.2482
-4.2824 MUSIC -0.2578
-3.9813 MUST -0.2985
-4.2824 MXMVII -0.3008
-2.3633 MY -0.2882
-4.2824 MYSELF -0.2578
-4.2824 MYSORE -0.2578
-2.8352 NAME -0.2420
-3.8052 NAMED -0.2575
-3.9813 NAMES -0.2567
-4.2824 NAPSTER -0.2578
-4.2824 NARENDRA -0.3010
-4.2824 NATIONAL -0.3010
-3.9813 NATIONALITY -0.2568
-4.2824 NDEVELOPERS -0.2578
-3.8052 NEED -0.2991
-3.9813 NEGATIVE -0.2578
-3.9813 NEITHER -0.2578
-3.5042 NEVER -0.2572
-3.4373 NEW -0.2563
-3.9813 NEXT -0.3006
-4.2824 NEXUS -0.2578
-3.2824 NICE -0.2563
-4.2824 NIGHT -0.2578
-4.2824 NIGHTMARES -0.2578
-3.5834 NO -0.2573
-4.2824 NOISES -0.2578
-4.2824 NONE -0.3000
-2.2867 NOT -0.2099
-4.2824 NOTES -0.2578
-3.8052 NOTHING -0.2578
-3.9813 NUMBER -0.2575
-4.2824 OBEY -0.2992
-3.9813 OBVIOUS -0.2578
-4.2824 OBVIOUSLY -0.2578
-4.2824 OCEAN -0.2578
-2.6291 OF -0.2380
-3.5834 OFF -0.2561
-4.2824 OFFEND -0.2897
-4.2824 OFFICE -0.2578
-3.9813 OFTEN -0.2578
-3.9813 OH -0.3008
-3.8052 OK -0.2578
-4.2824 OKAY -0.2578
-4.2824 OLD -0.2578
-3.2032 ON -0.2411
-3.2032 ONE -0.2470
-4.2824 ONES -0.2578
-4.2824 ONLINE -0.2578
-3.9813 ONLY -0.3001
-3.9813 OPERA -0.2578
-4.2824 OPINION -0.2578
-3.9813 OR -0.2989
-4.2824 ORANGE -0.2578
-4.2824 ORANGES -0.2578
-4.2824 ORDER -0.2578
-4.2824 ORIENTATION -0.2578
-4.2824 OS -0.2578
-3.6803 OTHER -0.2576
-4.2824 OTHERS -0.3002
-4.2824 OUCH -0.2578
-3.5834 OUT -0.2568
-3.8052 OVER -0.2576
-4.2824 P -0.2578
-4.2824 PAID -0.2578
-4.2824 PANDORA -0.3010
-3.8052 PANDORABOTS -0.2578
-4.2824 PANTS -0.2578
-4.2824 PARADOX -0.2578
-4.2824 PARAMETERS -0.2578
-4.2824 PARENTS -0.2578
-4.2824 PARK -0.2578
-4.2824 PART -0.2578
-4.2824 PARTNER -0.2578
-3.6803 PARTY -0.2578
-4.2824 PAYS -0.2578
-4.2824 PC -0.3009
-4.2824 PEANUTS -0.2578
-4.2824 PEEK -0.2977
-4.2824 PENIS -0.2578
-3.4373 PEOPLE -0.2573
-4.2824 PERHAPS -0.2578
-4.2824 PERMISSION -0.2578
-3.8052 PERSON -0.2578
-3.9813 PERSONAL -0.2573
-4.2824 PET -0.2578
-4.2824 PETS -0.2578
-4.2824 PH -0.3010
-4.2824 PHD -0.2578
-4.2824 PHILADELPHIA -0.2578
-4.2824 PHILOSOPHER -0.2578
-4.2824 PHYLUM -0.2578
-4.2824 PI -0.2999
-3.8052 PICK -0.2974
-3.9813 PICTURE -0.2578
-4.2824 PIE -0.2578
-4.2824 PIGS -0.3010
-4.2824 PINK -0.2578
-4.2824 PISCES -0.2578
-4.2824 PITY -0.2578
-4.2824 PLACE -0.2578
-4.2824 PLACES -0.2578
-3.6803 PLAN -0.2560
-4.2824 PLANET -0.2982
-4.2824 PLANETS -0.2578
-3.6803 PLAY -0.2541
-4.2824 PLAYING -0.2578
-4.2824 PLEASE -0.3009
-4.2824 PLEASED -0.2999
-3.9813 PLEASURE -0.2578
-4.2824 PM -0.2992
-3.9813 POINT -0.2578
-4.2824 POOPOO -0.2578
-4.2824 PORN -0.2578
-4.2824 POSSIBLE -0.2578
-4.2824 PRACTICE -0.2578
-4.2824 PREGNANT -0.2578
-3.9813 PRESIDENT -0.2578
-4.2824 PRIDE -0.2578
-4.2824 PRIVATE -0.3008
-4.2824 PRO -0.3010
-3.9813 PROBLEM -0.2578
-3.9813 PROBLEMS -0.2578
-4.2824 PRODUCT -0.2578
-4.2824 PROFOUND -0.2578
-3.6803 PROGRAM -0.2453
-3.9813 PROGRAMMED -0.2996
-4.2824 PROGRAMMERS -0.2578
-3.9813 PROGRAMMING -0.2576
-4.2824 PROKARYOTE -0.2578
-4.2824 PROMISE -0.2578
-4.2824 PUP -0.2578
-4.2824 PURPOSE -0.2578
-3.9813 PYRAMID -0.2578
-4.2824 PYTHON -0.2578
-3.0036 QUESTION -0.2578
-3.8052 QUESTIONS -0.2578
-4.2824 R -0.3010
-3.8052 R2D2 -0.2578
-4.2824 RATHER -0.3006
-3.9813 READ -0.2561
-4.2824 READS -0.2578
-3.6803 REAL -0.2575
-4.2824 REALLY -0.2923
-4.2824 REASON -0.2578
-4.2824 REASONING -0.3010
-3.9813 RED -0.2578
-4.2824 REGARDS -0.2578
-4.2824 RELATED -0.2999
-4.2824 RELATIVES -0.2578
-4.2824 RELAX -0.2578
-4.2824 RELAXING -0.2578
-4.2824 RELIGION -0.2578
-4.2824 REM -0.3008
-3.2410 REMEMBER -0.2413
-4.2824 REMEMBERED -0.2578
-4.2824 REPHRASE -0.2578
-4.2824 REPLACE -0.2578
-4.2824 REPLY -0.3010
-4.2824 REPROGRAMMING -0.2578
-4.2824 RESEARCH -0.3005
-4.2824 RESISTANCE -0.2923
-4.2824 REST -0.2578
-4.2824 RETURNED -0.2578
-3.8052 RHYMES -0.3008
-3.8052 RICH -0.2573
-3.9813 RICHARD -0.3010
-3.9813 RIDDLE -0.2578
-3.5834 RIGHT -0.2578
-4.2824 ROAD -0.2578
-4.2824 ROBIN -0.3010
-3.9813 ROBOCOP -0.2578
-2.9021 ROBOT -0.2553
-3.9813 ROBOTICS -0.2562
-3.3793 ROBOTS -0.2522
-4.2824 ROCK -0.2578
-4.2824 ROCKY -0.2578
-3.6803 ROOM -0.2578
-3.8052 ROS -0.2572
-3.9813 ROTATE -0.3009
-3.9813 RUBY -0.2578
-4.2824 RUDE -0.2578
-3.9813 RULE -0.2578
-4.2824 RUN -0.3008
-3.9813 RUNNING -0.2575
-3.8052 S -0.3007
-4.2824 SAD -0.2578
-4.2824 SAGE -0.2578
-4.2824 SAGGITARIUS -0.2578
-3.1684 SAID -0.2360
-4.2824 SALLY -0.2578
-4.2824 SAM -0.2578
-3.5042 SAME -0.2561
-4.2824 SAN -0.3010
-4.2824 SAPIENS -0.2578
-4.2824 SARCASM -0.2578
-3.0036 SAY -0.2514
-3.5834 SAYING -0.2541
-4.2824 SAYS -0.2578
-4.2824 SCARE -0.2992
-3.9813 SCARY -0.2578
-4.2824 SCHOOL -0.2578
-4.2824 SCORPIO -0.2578
-4.2824 SCREW -0.2897
-4.2824 SEAHAWKS -0.2578
-4.2824 SEARCH -0.2578
-4.2824 SEARCHED -0.2578
-4.2824 SEARCHING -0.2578
-4.2824 SEATTLE -0.2578
-4.2824 SECRET -0.2578
-4.2824 SECURITY -0.2578
-3.2410 SEE -0.2467
-4.2824 SEEKING -0.2578
-4.2824 SEEM -0.3002
-4.2824 SEEMS -0.3002
-3.2410 SEEN -0.2873
-3.9813 SELF -0.3010
-4.2824 SELLING -0.2578
-3.1684 SENSE -0.2567
-4.2824 SERENITY -0.2578
-4.2824 SEVENTIES -0.2578
-4.2824 SEVERAL -0.3010
-4.2824 SEX -0.2578
-4.2824 SEXUAL -0.2578
-3.9813 SHAME -0.2578
-3.0782 SHE -0.2475
-4.2824 SHEESH -0.2578
-3.9813 SHIRT -0.2578
-4.2824 SHOE -0.3010
-3.9813 SHOES -0.2578
-4.2824 SHORT -0.2578
-3.1362 SHOULD -0.2541
-3.5834 SHOW -0.2992
-3.9813 SICK -0.2578
-3.9813 SIGN -0.2578
-4.2824 SILVER -0.2578
-4.2824 SIMILARITY -0.2578
-4.2824 SIMULATION -0.2578
-3.6803 SING -0.2539
-3.6803 SINGLE -0.2578
-3.9813 SISTER -0.2578
-4.2824 SISTERS -0.2578
-4.2824 SITE -0.2578
-3.8052 SIZE -0.2546
-3.9813 SKIN -0.2578
-4.2824 SKY -0.2578
-3.8052 SLEEP -0.2576
-4.2824 SLOW -0.2578
-3.9813 SMART -0.2575
-3.6803 SMARTER -0.2576
-4.2824 SMARTEST -0.2578
-3.9813 SMELL -0.2569
-4.2824 SMELLS -0.3002
-3.2410 SO -0.2383
-4.2824 SODA -0.2578
-3.9813 SOFTWARE -0.2578
-4.2824 SOME -0.3010
-3.5834 SOMETHING -0.2576
-4.2824 SOMEWHERE -0.2578
-4.2824 SONATA -0.2578
-3.8052 SONG -0.2578
-3.9813 SOON -0.2578
-4.2824 SORT -0.3000
-3.5042 SOUND -0.2999
-3.9813 SOUNDS -0.3008
-4.2824 SOUTH -0.3010
-4.2824 SOX -0.2578
-4.2824 SPARE -0.3008
-3.5834 SPEAK -0.2565
-4.2824 SPECIAL -0.3010
-3.9813 SPECIES -0.2578
-3.9813 SPEECH -0.2578
-3.9813 SPORT -0.2578
-4.2824 SPORTS -0.2578
-3.2032 STAND -0.2573
-3.2410 STAR -0.3008
-4.2824 STARSHIP -0.3010
-4.2824 START -0.2578
-3.8052 STATE -0.2578
-4.2824 STATEMENT -0.2578
-4.2824 STD -0.2578
-4.2824 STEREOTYPING -0.2578
-4.2824 STILL -0.3010
-4.2824 STINK -0.2578
-4.2824 STINKS -0.2578
-3.3281 STOP -0.2431
-3.8052 STORY -0.2578
-4.2824 STRAIGHT -0.2578
-4.2824 STRANGE -0.2578
-3.8052 STUPID -0.2578
-4.2824 STUPIDITY -0.2578
-3.6803 SUBJECT -0.2578
-4.2824 SUBMIT -0.2578
-4.2824 SUCK -0.2578
-3.6803 SUCKS -0.2578
-4.2824 SUGAR -0.3009
-3.9813 SUGGEST -0.2565
-4.2824 SUHAS -0.2578
-4.2824 SUM -0.2578
-4.2824 SUN -0.2578
-3.9813 SURE -0.2897
-4.2824 SURPRISING -0.2578
-4.2824 SURPRISINGLY -0.2578
-4.2824 SWEDISH -0.2578
-4.2824 SWEET -0.2578
-4.2824 SWIM -0.2578
-4.2824 TAHR -0.2578
-3.4373 TAKE -0.2843
-3.0036 TALK -0.2552
-3.8052 TALKED -0.2576
-3.9813 TALKING -0.2565
-4.2824 TALL -0.2578
-4.2824 TARGETS -0.2984
-3.6803 TASTE -0.2564
-4.2824 TASTES -0.3006
-4.2824 TAURUS -0.2578
-3.6803 TEACH -0.2897
-4.2824 TEACHER -0.2578
-4.2824 TECHNO -0.2578
-4.2824 TELEPHONE -0.3009
-3.4373 TELL -0.2991
-3.9813 TEMPERATURE -0.2578
-4.2824 TEMPLATE -0.2578
-4.2824 TERMINAL -0.2578
-4.2824 TERMINATOR -0.2578
-4.2824 TERRIBLE -0.2578
-4.2824 TEST -0.3007
-3.3793 THAN -0.2824
-3.9813 THANK -0.2897
-4.2824 THANKSGIVING -0.2578
-2.1150 THAT -0.2157
-2.3233 THE -0.2460
-3.9813 THEM -0.2578
-3.6803 THEN -0.2893
-3.5834 THERE -0.2578
-3.6803 THEY -0.2571
-3.9813 THING -0.2578
-3.8052 THINGS -0.2578
-3.1684 THINK -0.2410
-3.8052 THINKING -0.2578
-3.8052 THIS -0.2555
-4.2824 THOSE -0.3010
-4.2824 THOUGHT -0.2578
-3.9813 THOUSAND -0.2578
-4.2824 THROAT -0.2578
-3.2824 TIME -0.2355
-3.9813 TIMES -0.2578
-2.5748 TO -0.2267
-4.2824 TOGETHER -0.2578
-3.9813 TOKLAS -0.2578
-3.5834 TOLD -0.2878
-4.2824 TOLKEIN -0.2578
-4.2824 TOMATOES -0.2578
-4.2824 TOMORROW -0.2578
-4.2824 TONIGHT -0.2578
-3.4373 TOO -0.2577
-3.9813 TOPIC -0.2578
-4.2824 TOURBUS -0.2578
-4.2824 TREES -0.2578
-3.4373 TREK -0.2576
-4.2824 TRIANGLE -0.2578
-4.2824 TROOPERS -0.2578
-3.8052 TRUE -0.2541
-4.2824 TRUSHTY -0.3010
-4.2824 TRUTH -0.2578
-3.4373 TRY -0.2399
-3.5042 TURN -0.2986
-4.2824 TUSKS -0.3008
-4.2824 TV -0.3009
-3.9813 TYPE -0.3000
-4.2824 TYPO -0.2578
-4.2824 UBUNTU -0.3010
-4.2824 UGLY -0.2578
-4.2824 UK -0.2578
-3.3793 UNDERSTAND -0.2390
-4.2824 UNIVERSITY -0.2578
-4.2824 UNLIKELY -0.2578
-4.2824 UNSETTLING -0.2578
-3.3793 UP -0.2547
-4.2824 UPDATED -0.2578
-2.9601 US -0.2975
-3.9813 USE -0.2995
-3.9813 USUALLY -0.2578
-4.2824 VALIS -0.2578
-4.2824 VERSION -0.2578
-3.9813 VERY -0.2577
-4.2824 VETERINARIAN -0.2578
-4.2824 VIDEO -0.3009
-4.2824 VIEW -0.3008
-4.2824 VILLAGE -0.3010
-4.2824 VIRGO -0.2578
-4.2824 VIRUS -0.2578
-3.9813 VOYAGER -0.2578
-4.2824 W -0.3010
-3.9813 WAITING -0.3005
-4.2824 WAKE -0.3008
-3.9813 WALK -0.2578
-4.2824 WALL -0.3010
-3.9813 WALLACE -0.3007
-3.1362 WANT -0.2485
-4.2824 WAR -0.2578
-4.2824 WARM -0.2578
-3.6803 WARS -0.2576
-2.6696 WAS -0.2385
-4.2824 WATCH -0.3008
-4.2824 WATER -0.2578
-4.2824 WAY -0.2578
-3.8052 WAYS -0.2578
-3.3281 WE -0.2985
-3.6803 WEAR -0.2577
-3.8052 WEARING -0.2578
-4.2824 WEB -0.3010
-3.6803 WEBSITE -0.2578
-4.2824 WELCOME -0.2578
-3.4373 WELL -0.2524
-3.9813 WENT -0.2998
-3.2410 WERE -0.2425
-1.7083 WHAT -0.2024
-3.9813 WHAT'S -0.2995
-4.2824 WHATEVER -0.2578
-2.7772 WHEN -0.2302
-4.2824 WHENEVER -0.2578
-3.3281 WHERE -0.2404
-4.2824 WHICH -0.3008
-3.9813 WHITE -0.2578
-2.6291 WHO -0.2446
-4.2824 WHOA -0.2578
-4.2824 WHOOPS -0.2578
-4.2824 WHORE -0.2578
-3.1063 WHY -0.2512
-4.2824 WIFE -0.2578
-2.8844 WILL -0.2357
-4.2824 WIN -0.2578
-3.9813 WINNER -0.2578
-3.9813 WINNING -0.2578
-4.2824 WIRES -0.2578
-3.9813 WISH -0.2578
-3.3281 WITH -0.2832
-4.2824 WITHOUT -0.3009
-4.2824 WONDERFUL -0.2578
-3.9813 WONDERLAND -0.2578
-3.9813 WORDS -0.2546
-3.9813 WORK -0.2576
-4.2824 WORKING -0.3008
-4.2824 WORKS -0.2578
-3.9813 WORLD -0.2976
-2.9813 WOULD -0.2336
-4.2824 WRITING -0.2578
-3.8052 WRITTEN -0.2562
-3.5834 WRONG -0.2576
-4.2824 XENA -0.2578
-4.2824 XML -0.2578
-3.8052 YEAR -0.2578
-4.2824 YELLOW -0.2578
-3.8052 YES -0.2578
-4.2824 YET -0.2578
-3.8052 YORK -0.3009
-1.5886 YOU -0.2187
-2.4563 YOUR -0.2933
-3.6803 YOURS -0.2578
-3.6803 YOURSELF -0.2578
-4.2824 YUMMY -0.2578

\2-grams:
-0.3010 0.1 </s> -0.3010
-0.3010 000 A -0.2996
-0.3010 1966 </s> -0.3010
-0.3010 1976 </s> -0.3010
-0.3010 1995 </s> -0.3010
-0.3010 1997 </s> -0.3010
-0.3010 1998 </s> -0.3010
-0.3010 1999 </s> -0.3010
-0.3010 2000 </s> -0.3010
-0.3010 2001 </s> -0.3010
-0.3010 2009 </s> -0.3010
-0.3010 2020 </s> -0.3010
-0.3010 2X2 </s> -0.3010
-0.3010 3 DAYS 0.0000
-0.6021 30 000 0.0000
-0.6021 30 MINUTES 0.0000
-0.3010 3P0 </s> -0.3010
-0.3010 5 </s> -0.3010
-0.3010 8 </s> -0.3010
-0.3010 9000 </s> -0.3010
-3.5599 <s> 1995 0.0000
-3.5599 <s> 2001 0.0000
-3.5599 <s> 2009 0.0000
-3.5599 <s> 2020 0.0000
-3.5599 <s> 30 -0.1761
-3.0828 <s> A -0.2921
-3.5599 <s> ABOUT -0.2737
-3.5599 <s> ACTIVATE 0.0000
-3.5599 <s> ADIDAS 0.0000
-3.5599 <s> AFTER 0.0000
-3.5599 <s> AGE 0.0000
-3.5599 <s> AI -0.1047
-3.5599 <s> AKSHAY 0.0000
-2.3295 <s> ALICE -0.0906
-3.2589 <s> ALICEBOT 0.0000
-3.5599 <s> ALICELISTENER 0.0000
-3.5599 <s> ALLIGATOR 0.0000
-3.5599 <s> ALMOST 0.0000
-3.5599 <s> ALWAYS -0.1761
-3.5599 <s> AMAZING 0.0000
-3.5599 <s> AMEN 0.0000
-3.5599 <s> AMERICA -0.1761
-3.2589 <s> AMERICAN 0.0000
-3.5599 <s> AMMO 0.0000
-3.5599 <s> AMNESIA 0.0000
-3.5599 <s> AN -0.2808
-3.5599 <s> ANAL 0.0000
-2.7818 <s> AND -0.1627
-3.5599 <s> ANIMAL 0.0000
-3.2589 <s> ANOTHER -0.1461
-3.2589 <s> ANY -0.2041
-3.5599 <s> AOL 0.0000
-3.5599 <s> AQUARIUS 0.0000
-3.5599 <s> ARCH 0.0000
-3.5599 <s> ARCHIVES 0.0000
-2.0828 <s> ARE -0.1326
-3.5599 <s> ARIES 0.0000
-3.5599 <s> ART 0.0000
-3.2589 <s> ARTIFICIAL -0.0969
-3.2589 <s> AS -0.1249
-3.2589 <s> ASHWIN 0.0000
-2.3046 <s> ASK -0.0532
-3.5599 <s> AUGUST 0.0000
-3.5599 <s> AWW 0.0000
-3.5599 <s> AXIS 0.0000
-3.5599 <s> BABY 0.0000
-3.5599 <s> BAH 0.0000
-3.5599 <s> BASEBALLTEAM 0.0000
-3.5599 <s> BCN 0.0000
-3.5599 <s> BEACUSE 0.0000
-3.5599 <s> BEAVIS 0.0000
-3.5599 <s> BEFORE -0.2632
-3.5599 <s> BEND 0.0000
-3.2589 <s> BETTER -0.0792
-3.5599 <s> BIGGER 0.0000
-3.5599 <s> BILL 0.0000
-3.5599 <s> BIRTHDAY 0.0000
-3.5599 <s> BIRTHPLACE 0.0000
-3.5599 <s> BLESS 0.0000
-3.5599 <s> BOLLOCKS 0.0000
-3.5599 <s> BOTMASTER 0.0000
-3.5599 <s> BOYFRIEND -0.0792
-3.5599 <s> BRAVO 0.0000
-3.2589 <s> BRING 0.0000
-3.5599 <s> BUBBLES 0.0000
-3.5599 <s> BUILD 0.0000
-3.5599 <s> BULLSHIT 0.0000
-3.5599 <s> BURP 0.0000
-3.5599 <s> BUTTHEAD 0.0000
-3.2589 <s> C -0.1249
-3.5599 <s> C3P0 -0.1761
-3.5599 <s> C3PO 0.0000
-3.2589 <s> CALL 0.0000
-2.5599 <s> CAN -0.1642
-3.5599 <s> CANCER 0.0000
-3.5599 <s> CAPRICORN 0.0000
-3.5599 <s> CELEBRITIES 0.0000
-3.5599 <s> CELEBRITY 0.0000
-3.5599 <s> CHANGE -0.0969
-3.5599 <s> CHEESE 0.0000
-3.5599 <s> CITY 0.0000
-3.2589 <s> CLARIFY 0.0000
-3.5599 <s> CLASS 0.0000
-3.5599 <s> CLEARLY 0.0000
-3.5599 <s> COM 0.0000
-3.2589 <s> COMO 0.0000
-3.5599 <s> COMPLY 0.0000
-3.5599 <s> COMPUTERS 0.0000
-3.5599 <s> COMPUTING 0.0000
-3.2589 <s> COOL -0.2218
-3.2589 <s> COULD -0.1761
-3.5599 <s> COUNTRY 0.0000
-3.5599 <s> CREATE 0.0000
-3.5599 <s> CREATER 0.0000
-3.5599 <s> CRIPES 0.0000
-3.5599 <s> CURIOSITY 0.0000
-3.5599 <s> CYA 0.0000
-3.5599 <s> DATA -0.1761
-3.5599 <s> DEBBIE 0.0000
-3.5599 <s> DEDUCTIVE 0.0000
-3.5599 <s> DEEP 0.0000
-3.2589 <s> DEFINE 0.0000
-3.5599 <s> DEVELOPERS 0.0000
-2.2589 <s> DID -0.0896
-3.5599 <s> DMX 0.0000
-2.1449 <s> DO -0.1823
-2.5599 <s> DOES -0.1508
-3.5599 <s> DOH 0.0000
-3.5599 <s> DOMAIN 0.0000
-3.5599 <s> DONATE 0.0000
-3.5599 <s> DORK 0.0000
-3.5599 <s> DOUGLAS 0.0000
-3.5599 <s> DOWNLOAD 0.0000
-3.5599 <s> DREAMS 0.0000
-3.5599 <s> DUMBASS 0.0000
-3.5599 <s> EITHER 0.0000
-3.5599 <s> ELECTRICITY 0.0000
-3.5599 <s> ELIZA -0.2808
-3.5599 <s> EMAIL 0.0000
-3.5599 <s> EMOTIONS 0.0000
-3.5599 <s> ERASE 0.0000
-3.5599 <s> ERRR 0.0000
-3.5599 <s> ETHICS 0.0000
-3.5599 <s> EUH 0.0000
-3.5599 <s> EUKARYOTE 0.0000
-3.5599 <s> EVE 0.0000
-3.0828 <s> EVERY 0.0000
-3.5599 <s> EVERYDAY 0.0000
-3.5599 <s> EXCUSE 0.0000
-3.5599 <s> EXPLAINING 0.0000
-3.5599 <s> FAIR -0.1761
-3.5599 <s> FAMILY 0.0000
-3.5599 <s> FART 0.0000
-3.5599 <s> FAVORITEACTOR 0.0000
-3.5599 <s> FAVORITEACTRESS 0.0000
-3.5599 <s> FAVORITEARTIST 0.0000
-3.5599 <s> FAVORITEAUTHOR 0.0000
-3.5599 <s> FAVORITEBAND 0.0000
-3.5599 <s> FAVORITEBOOK 0.0000
-3.5599 <s> FAVORITECOLOR 0.0000
-3.5599 <s> FAVORITEFOOD 0.0000
-3.5599 <s> FAVORITEMOVIE 0.0000
-3.5599 <s> FAVORITEQUESTION 0.0000
-3.5599 <s> FAVORITESONG 0.0000
-3.5599 <s> FAVORITESPORT 0.0000
-3.5599 <s> FAVORITESUBJECT 0.0000
-3.5599 <s> FEEL 0.0000
-3.5599 <s> FEELINGS -0.0969
-3.5599 <s> FILE 0.0000
-3.5599 <s> FINALLY 0.0000
-3.5599 <s> FINE -0.2553
-3.5599 <s> FIREFLY 0.0000
-3.5599 <s> FIVE 0.0000
-3.5599 <s> FOOTBALL 0.0000
-3.5599 <s> FOOTBALLTEAM 0.0000
-3.5599 <s> FOR -0.2910
-3.5599 <s> FORFUN 0.0000
-3.5599 <s> FOUR 0.0000
-2.8609 <s> FREE -0.0000
-3.5599 <s> FRIEND 0.0000
-3.5599 <s> FRIENDS 0.0000
-3.0828 <s> FROM -0.1549
-3.5599 <s> FUCK -0.1761
-3.5599 <s> GEE 0.0000
-3.5599 <s> GEMINI 0.0000
-3.5599 <s> GENDER 0.0000
-3.5599 <s> GENUS 0.0000
-3.5599 <s> GEOMETRY 0.0000
-3.2589 <s> GEORGE 0.0000
-3.5599 <s> GIRLFRIEND -0.0969
-3.0828 <s> GIVE -0.0969
-3.5599 <s> GLOBAL 0.0000
-3.5599 <s> GOOG 0.0000
-3.5599 <s> GRASS -0.1761
-3.5599 <s> GREED 0.0000
-3.5599 <s> GREEN 0.0000
-2.9578 <s> GUESS 0.0000
-3.5599 <s> HAIR -0.1461
-3.2589 <s> HAL -0.1249
-3.5599 <s> HALT 0.0000
-2.0036 <s> HAVE -0.1500
-3.5599 <s> HEAR 0.0000
-3.5599 <s> HELLO 0.0000
-3.0828 <s> HERE 0.0000
-3.5599 <s> HERS 0.0000
-3.2589 <s> HI 0.0000
-3.5599 <s> HIGH 0.0000
-3.5599 <s> HIP 0.0000
-3.5599 <s> HMPH 0.0000
-3.5599 <s> HOCKEYTEAM 0.0000
-3.5599 <s> HOME 0.0000
-3.5599 <s> HONESTLY 0.0000
-3.5599 <s> HOPEFULLY 0.0000
-2.1285 <s> HOW 0.0000
-3.5599 <s> HUH 0.0000
-3.5599 <s> HUMANS 0.0000
-3.5599 <s> HUMM 0.0000
-3.5599 <s> HURRY 0.0000
-2.0036 <s> I -0.1563
-2.7818 <s> IF -0.1249
-3.5599 <s> IM 0.0000
-3.5599 <s> IMHO 0.0000
-3.5599 <s> IMPRESSIVE 0.0000
-1.8609 <s> IN -0.0332
-3.5599 <s> INDIA 0.0000
-3.5599 <s> INDIAN 0.0000
-3.5599 <s> INTELLECT 0.0000
-3.0828 <s> INTERESTING 0.0000
-3.5599 <s> INTRODUCE 0.0000
-2.3838 <s> IS -0.2559
-1.3867 <s> IT -0.0404
-3.5599 <s> ITS 0.0000
-3.5599 <s> ITSELF 0.0000
-3.5599 <s> J -0.1761
-3.5599 <s> JARVIS -0.1761
-3.5599 <s> JOB -0.1761
-3.5599 <s> JOHN 0.0000
-3.2589 <s> JOHNNY 0.0000
-2.9578 <s> JUST -0.1249
-3.5599 <s> K12 0.0000
-3.5599 <s> KARNATAKA 0.0000
-3.5599 <s> KINDMUSIC 0.0000
-3.5599 <s> KINGDOM 0.0000
-3.5599 <s> KOSOVO 0.0000
-3.5599 <s> LALALALA 0.0000
-3.5599 <s> LANGUAGE -0.2041
-3.5599 <s> LATE -0.1761
-3.5599 <s> LAWYERS 0.0000
-3.2589 <s> LEARN -0.1249
-2.1797 <s> LET 0.0000
-3.5599 <s> LIBRA 0.0000
-2.9578 <s> LIFE -0.1091
-3.2589 <s> LIGHTS -0.1249
-3.5599 <s> LIKE -0.2953
-3.5599 <s> LIKED -0.1761
-3.5599 <s> LIKEWISE 0.0000
-3.5599 <s> LINKIN 0.0000
-3.5599 <s> LINUX 0.0000
-3.5599 <s> LISTENING 0.0000
-3.5599 <s> LIVERPOOL 0.0000
-3.5599 <s> LOCATION 0.0000
-3.5599 <s> LOL 0.0000
-3.5599 <s> LONG -0.2632
-3.5599 <s> LOOKLIKE 0.0000
-3.5599 <s> LOTS 0.0000
-3.5599 <s> LT 0.0000
-3.5599 <s> M -0.1761
-3.2589 <s> MACHINE 0.0000
-3.2589 <s> MAKE -0.2341
-3.5599 <s> MALAYSIA 0.0000
-2.9578 <s> MANY -0.1996
-3.5599 <s> MARS 0.0000
-3.5599 <s> MASSIVE 0.0000
-3.5599 <s> MASTER 0.0000
-3.5599 <s> MAY -0.1761
-3.0828 <s> ME -0.2928
-3.5599 <s> MEMORY 0.0000
-3.5599 <s> MIKE 0.0000
-3.2589 <s> MINE -0.1761
-3.5599 <s> MINERAL 0.0000
-3.5599 <s> MOST -0.2218
-2.9578 <s> MOVE -0.1249
-3.5599 <s> MOZILLA 0.0000
-3.2589 <s> MR 0.0000
-3.5599 <s> MUSIC 0.0000
-1.9067 <s> MY -0.1062
-3.5599 <s> MYSELF 0.0000
-3.5599 <s> MYSORE 0.0000
-3.0828 <s> NAME -0.0580
-3.5599 <s> NAPSTER 0.0000
-3.5599 <s> NARENDRA 0.0000
-3.5599 <s> NATIONAL 0.0000
-3.5599 <s> NATIONALITY -0.1761
-3.5599 <s> NDEVELOPERS 0.0000
-3.5599 <s> NEITHER 0.0000
-3.2589 <s> NEW -0.1963
-3.2589 <s> NEXT 0.0000
-3.5599 <s> NIGHTMARES 0.0000
-3.5599 <s> NO -0.2041
-3.5599 <s> OBVIOUSLY 0.0000
-3.5599 <s> OFTEN 0.0000
-3.2589 <s> OH 0.0000
-3.5599 <s> OK 0.0000
-3.2589 <s> ON -0.0969
-2.9578 <s> ONE -0.0348
-3.5599 <s> ORDER 0.0000
-3.5599 <s> ORIENTATION 0.0000
-3.5599 <s> OS 0.0000
-3.5599 <s> OUCH 0.0000
-3.2589 <s> OVER -0.1249
-3.5599 <s> P 0.0000
-3.5599 <s> PANDORA 0.0000
-3.5599 <s> PARTY 0.0000
-3.5599 <s> PEANUTS 0.0000
-3.5599 <s> PEEK 0.0000
-3.5599 <s> PERHAPS 0.0000
-3.5599 <s> PERSON 0.0000
-3.5599 <s> PHILADELPHIA 0.0000
-3.5599 <s> PHYLUM 0.0000
-3.0828 <s> PICK 0.0000
-3.5599 <s> PINK 0.0000
-3.5599 <s> PISCES 0.0000
-3.5599 <s> PLEASE 0.0000
-3.5599 <s> PLEASED 0.0000
-3.5599 <s> PM 0.0000
-3.5599 <s> POOPOO 0.0000
-3.5599 <s> PORN 0.0000
-3.5599 <s> PRESIDENT 0.0000
-3.5599 <s> PROKARYOTE 0.0000
-3.5599 <s> PROMISE 0.0000
-3.5599 <s> PYRAMID -0.1761
-3.5599 <s> PYTHON 0.0000
-3.5599 <s> QUESTION 0.0000
-3.2589 <s> R2D2 0.0000
-3.5599 <s> RED -0.1761
-3.5599 <s> REGARDS 0.0000
-3.5599 <s> RELIGION 0.0000
-3.5599 <s> REMEMBER -0.2808
-3.5599 <s> RESEARCH 0.0000
-3.5599 <s> RESISTANCE 0.0000
-3.5599 <s> ROBIN 0.0000
-3.5599 <s> ROBOCOP 0.0000
-3.5599 <s> ROBOT -0.1112
-3.5599 <s> ROBOTICS -0.1761
-2.7818 <s> ROBOTS -0.0512
-3.5599 <s> ROCKY 0.0000
-3.0828 <s> ROS 0.0000
-3.2589 <s> ROTATE 0.0000
-3.5599 <s> SAGGITARIUS 0.0000
-3.0828 <s> SAME -0.0669
-3.2589 <s> SAY -0.2775
-3.5599 <s> SCORPIO 0.0000
-3.5599 <s> SCREW 0.0000
-3.5599 <s> SEAHAWKS 0.0000
-3.5599 <s> SEATTLE 0.0000
-3.5599 <s> SERENITY 0.0000
-3.5599 <s> SEVERAL 0.0000
-2.4138 <s> SHE -0.0512
-3.5599 <s> SHEESH 0.0000
-2.8609 <s> SHOW 0.0000
-3.2589 <s> SING -0.0969
-3.5599 <s> SIZE -0.1249
-3.5599 <s> SMART -0.1761
-3.5599 <s> SMELL -0.1761
-3.0828 <s> SO -0.2374
-3.5599 <s> SOFTWARE 0.0000
-3.5599 <s> SOMEWHERE 0.0000
-3.5599 <s> SORT 0.0000
-3.5599 <s> SOUTH 0.0000
-3.5599 <s> SPEAK -0.1461
-3.5599 <s> SPECIES 0.0000
-2.8609 <s> STAR 0.0000
-3.5599 <s> STATE 0.0000
-3.5599 <s> STILL 0.0000
-2.6568 <s> STOP 0.0000
-3.5599 <s> STUPIDITY 0.0000
-3.5599 <s> SUBMIT 0.0000
-3.5599 <s> SUHAS 0.0000
-3.5599 <s> SURPRISINGLY 0.0000
-2.7148 <s> TAKE -0.0000
-3.2589 <s> TALK -0.2775
-3.5599 <s> TAURUS 0.0000
-3.5599 <s> TECHNO 0.0000
-2.9578 <s> TELL -0.0580
-3.5599 <s> TEST 0.0000
-3.5599 <s> THAN -0.2730
-3.5599 <s> THANK 0.0000
-1.4917 <s> THAT -0.0807
-3.0828 <s> THE -0.2815
-3.5599 <s> THEM 0.0000
-2.9578 <s> THEN 0.0000
-3.2589 <s> TO -0.2881
-3.5599 <s> TOGETHER 0.0000
-3.5599 <s> TOURBUS 0.0000
-2.7818 <s> TRY 0.0000
-2.9578 <s> TURN -0.1249
-3.5599 <s> UBUNTU 0.0000
-3.2589 <s> UP -0.2109
-3.5599 <s> USUALLY 0.0000
-3.5599 <s> VERSION 0.0000
-3.2589 <s> VERY 0.0000
-3.5599 <s> VETERINARIAN 0.0000
-3.5599 <s> VIRGO 0.0000
-3.5599 <s> VOYAGER 0.0000
-3.5599 <s> WAITING 0.0000
-3.5599 <s> WAKE 0.0000
-3.5599 <s> WALL 0.0000
-3.2589 <s> WAS -0.2848
-3.5599 <s> WEAR -0.1761
-3.5599 <s> WEBSITE 0.0000
-3.5599 <s> WELCOME 0.0000
-3.0828 <s> WELL 0.0000
-1.0454 <s> WHAT -0.0159
-3.2589 <s> WHAT'S 0.0000
-3.5599 <s> WHATEVER 0.0000
-2.0548 <s> WHEN 0.0000
-3.5599 <s> WHENEVER 0.0000
-2.7148 <s> WHERE -0.0872
-3.5599 <s> WHITE 0.0000
-1.9367 <s> WHO -0.0280
-3.5599 <s> WHOA 0.0000
-3.5599 <s> WHOOPS 0.0000
-2.4138 <s> WHY 0.0000
-3.2589 <s> WILL -0.2041
-3.5599 <s> WITH -0.2762
-3.5599 <s> WONDERLAND 0.0000
-2.5599 <s> WOULD -0.1461
-3.5599 <s> YELLOW 0.0000
-3.2589 <s> YES 0.0000
-1.2439 <s> YOU -0.1508
-3.2589 <s> YOUR -0.2945
-3.5599 <s> YUMMY 0.0000
-2.1703 A BAD -0.0792
-2.4713 A BEAUTIFUL -0.2430
-2.4713 A BOO 0.0000
-2.1703 A BOOK -0.0969
-2.4713 A BOTMASTER 0.0000
-2.1703 A BOYFRIEND -0.0792
-2.1703 A BRAIN 0.0000
-2.4713 A BREAK 0.0000
-2.4713 A CANCER 0.0000
-2.4713 A CAPRICORN 0.0000
-1.9942 A CHAT 0.0000
-2.4713 A CHATTERBOX 0.0000
-2.4713 A CHILD 0.0000
-2.4713 A CLOCK 0.0000
-2.4713 A COFFEE 0.0000
-2.1703 A COINCIDENCE 0.0000
-2.1703 A COMPLIMENT 0.0000
-1.6262 A COMPUTER -0.0544
-2.4713 A COP 0.0000
-2.4713 A COUNTRY 0.0000
-2.4713 A DIFFERENT -0.2430
-2.4713 A DREAM 0.0000
-2.4713 A ELIZA -0.0378
-2.1703 A FACT 0.0000
-2.4713 A FEMALE 0.0000
-2.1703 A FIGURE 0.0000
-2.4713 A FILM 0.0000
-2.1703 A FRIEND 0.0000
-2.4713 A FUNNY -0.2688
-1.9942 A GAME -0.0580
-2.4713 A GIRL 0.0000
-2.4713 A GOAT 0.0000
-1.7723 A GOOD -0.2361
-2.4713 A GUESS -0.1761
-2.4713 A HAPPIER 0.0000
-2.4713 A HEART 0.0000
-2.4713 A HOMO 0.0000
-2.4713 A HOSPITAL -0.1761
-2.4713 A HOUSE 0.0000
-2.1703 A HUMAN -0.1461
-1.8692 A I -0.2711
-2.1703 A JERK 0.0000
-1.8692 A JOKE 0.0000
-2.4713 A KINECT 0.0000
-1.7723 A L 0.0000
-2.4713 A LETTER 0.0000
-2.4713 A LIE 0.0000
-2.1703 A LONG -0.2218
-2.1703 A LOT 0.0000
-2.4713 A MAGAZINE 0.0000
-2.4713 A MIND 0.0000
-2.1703 A MISTAKE 0.0000
-2.1703 A MOMENT 0.0000
-2.4713 A MOTHER -0.0969
-2.4713 A MOVIE -0.1091
-2.4713 A NEW -0.2688
-2.1703 A NICE -0.2553
-2.4713 A NUMBER -0.1761
-2.4713 A PARADOX 0.0000
-2.4713 A PARTNER 0.0000
-2.4713 A PERSON 0.0000
-2.4713 A PERSONAL -0.1761
-2.4713 A PH 0.0000
-2.4713 A PHD 0.0000
-2.4713 A PICTURE 0.0000
-2.4713 A PITY 0.0000
-2.4713 A POINT 0.0000
-2.4713 A PYRAMID -0.1761
-1.6262 A QUESTION 0.0000
-2.4713 A REAL -0.2430
-2.1703 A RIDDLE 0.0000
-1.5682 A ROBOT -0.0512
-2.4713 A RUBY 0.0000
-2.4713 A S -0.2218
-2.4713 A SECRET 0.0000
-2.1703 A SHAME 0.0000
-2.4713 A SHE -0.2872
-2.4713 A SIMULATION 0.0000
-2.4713 A SOFTWARE 0.0000
-2.1703 A SONG 0.0000
-2.4713 A SPORT 0.0000
-2.4713 A STATEMENT 0.0000
-2.4713 A TEMPLATE 0.0000
-2.4713 A THING 0.0000
-2.4713 A THOUSAND -0.1761
-2.4713 A TOPIC 0.0000
-2.4713 A TRIANGLE 0.0000
-2.4713 A TYPO 0.0000
-2.4713 A VIRUS 0.0000
-2.4713 A WAY 0.0000
-2.4713 A WHORE 0.0000
-2.4713 A YEAR -0.1249
-0.3010 ABORTIONS </s> -0.3010
-1.0687 ABOUT </s> -0.3010
-1.9138 ABOUT ABORTIONS 0.0000
-1.2148 ABOUT ALICE -0.1655
-1.9138 ABOUT ALICEBOT 0.0000
-1.9138 ABOUT APPLES 0.0000
-1.9138 ABOUT DOGS 0.0000
-1.9138 ABOUT FOOTBALL 0.0000
-1.9138 ABOUT GOLD 0.0000
-1.4367 ABOUT IT -0.2699
-1.4367 ABOUT ME -0.1688
-1.9138 ABOUT MY -0.2958
-1.9138 ABOUT PANDORABOTS 0.0000
-1.9138 ABOUT PEOPLE -0.1091
-1.9138 ABOUT ROBOTS -0.2730
-1.6128 ABOUT SOMETHING 0.0000
-1.9138 ABOUT SPORT 0.0000
-1.9138 ABOUT SPORTS 0.0000
-1.4367 ABOUT THE -0.2840
-1.9138 ABOUT THEM 0.0000
-1.9138 ABOUT TOMATOES 0.0000
-1.3118 ABOUT YOU -0.2785
-0.3010 ABSORBING </s> -0.3010
-0.3010 ACHIEVEMENT </s> -0.3010
-0.3010 ACRONYM </s> -0.3010
-0.3010 ACT SMART -0.1761
-0.3010 ACTION </s> -0.3010
-0.3010 ACTIVATE THE -0.2889
-0.3010 ACTIVATED YOU -0.2785
-0.3010 ADAMS </s> -0.3010
-0.3010 ADIDAS </s> -0.3010
-0.3010 ADMIT </s> -0.3010
-0.3010 ADVANCED </s> -0.3010
-0.3010 ADVICE </s> -0.3010
-0.3010 AFTER I -0.2986
-0.3010 AGE </s> -0.3010
-0.3010 AGENT RUBY 0.0000
-0.3010 AGREE </s> -0.3010
-0.3010 AHEM </s> -0.3010
-0.4393 AI </s> -0.3010
-1.3424 AI A -0.2981
-1.3424 AI ABOUT -0.2623
-1.3424 AI FOUNDATION 0.0000
-0.6021 AIML </s> -0.3010
-0.9031 AIML GURU 0.0000
-0.9031 AIML STAND -0.0348
-0.3010 AIMLESS IF -0.2825
-0.3010 AIRPLANES INVENTED 0.0000
-0.3010 AKSHAY KUMAR 0.0000
-0.3010 ALGORITHMS </s> -0.3010
-0.5717 ALICE </s> -0.3010
-2.1399 ALICE AI -0.1047
-2.1399 ALICE B 0.0000
-2.1399 ALICE BASED 0.0000
-2.1399 ALICE BOT 0.0000
-2.1399 ALICE CD 0.0000
-2.1399 ALICE COOPER 0.0000
-1.8388 ALICE ELIZA -0.0378
-2.1399 ALICE FOUNDATION 0.0000
-2.1399 ALICE HEADQUARTERS 0.0000
-2.1399 ALICE IN -0.2976
-1.0607 ALICE IS -0.2209
-2.1399 ALICE MEAN -0.1513
-2.1399 ALICE NEXUS 0.0000
-2.1399 ALICE SMELLS 0.0000
-1.6628 ALICE STAND 0.0000
-2.1399 ALICE TOKLAS 0.0000
-2.1399 ALICE WHO -0.2863
-2.1399 ALICE YOUR -0.2978
-0.3010 ALICEBOT </s> -0.3010
-0.3010 ALICEBOTS </s> -0.3010
-0.3010 ALICELISTENER </s> -0.3010
-0.3010 ALICES </s> -0.3010
-0.3010 ALIENS </s> -0.3010
-0.3010 ALIGNED </s> -0.3010
-0.9031 ALL ELSE -0.2788
-0.9031 ALL I -0.2913
-0.9031 ALL RIGHT 0.0000
-0.9031 ALL THE -0.2986
-0.3010 ALLIGATOR </s> -0.3010
-0.3010 ALLOWED TO -0.2968
-0.3010 ALMOST </s> -0.3010
-0.3010 ALOT </s> -0.3010
-1.0000 ALREADY ARE -0.2958
-0.6990 ALREADY ASKED -0.1383
-1.0000 ALREADY HAS 0.0000
-1.0000 ALREADY TOLD -0.0792
-0.3010 ALRIGHT </s> -0.3010
-0.6021 ALWAYS </s> -0.3010
-0.9031 ALWAYS AGREE 0.0000
-0.9031 ALWAYS RIGHT 0.0000
-1.4150 AM ALICE -0.1655
-1.1139 AM ASKING -0.1249
-1.4150 AM BOTNAME 0.0000
-1.4150 AM DOING -0.2762
-1.4150 AM DOWNLOADING 0.0000
-0.8129 AM I -0.2659
-1.1139 AM SINGLE 0.0000
-1.4150 AM VALIS 0.0000
-0.3010 AMAZING </s> -0.3010
-0.3010 AMEN </s> -0.3010
-0.6021 AMERICA </s> -0.3010
-0.6021 AMERICA ONLINE 0.0000
-0.6021 AMERICAN BEAUTY 0.0000
-0.6021 AMERICAN PIE 0.0000
-0.3010 AMMO </s> -0.3010
-0.3010 AMNESIA </s> -0.3010
-0.3010 AMUSED </s> -0.3010
-1.3424 AN ACRONYM 0.0000
-1.3424 AN AIML -0.2430
-1.3424 AN ALICE -0.1655
-1.3424 AN ANSWER -0.0969
-1.0414 AN ARTIFICIAL -0.2430
-1.3424 AN ATTITUDE 0.0000
-1.3424 AN ELIZA -0.0378
-1.3424 AN EXPRESSION 0.0000
-1.3424 AN ILLITERATE 0.0000
-1.3424 AN OPERA 0.0000
-0.3010 ANAL </s> -0.3010
-1.3424 AND </s> -0.3010
-1.3424 AND I -0.2736
-0.8653 AND ME -0.1651
-1.3424 AND PRIVATE 0.0000
-1.0414 AND WHAT -0.2748
-1.3424 AND YOU -0.2785
-1.3424 AND YOURS 0.0000
-1.3424 AND YOURSELF 0.0000
-0.3010 ANGRY </s> -0.3010
-0.3010 ANIMAL </s> -0.3010
-0.6990 ANOTHER </s> -0.3010
-1.0000 ANOTHER ONE -0.1249
-0.6990 ANOTHER QUESTION 0.0000
-0.4260 ANSWER </s> -0.3010
-1.3802 ANSWER ME -0.1688
-1.3802 ANSWER MY -0.2984
-1.3802 ANSWER THE -0.2938
-0.3010 ANSWERS </s> -0.3010
-1.0000 ANY CLONES 0.0000
-1.0000 ANY MORE -0.2430
-0.6990 ANY SENSE -0.0322
-1.0000 ANY WHAT -0.2827
-0.3979 ANYTHING </s> -0.3010
-1.0000 ANYTHING YOU -0.2962
-0.3010 ANYWAY </s> -0.3010
-0.3010 AOL </s> -0.3010
-0.3010 APPLES </s> -0.3010
-0.3010 APPLET </s> -0.3010
-0.3010 AQUARIUS </s> -0.3010
-0.3010 ARCH </s> -0.3010
-0.3010 ARCHIVES </s> -0.3010
-1.9243 ARE </s> -0.3010
-1.9243 ARE A -0.2876
-2.1004 ARE ALICE -0.1655
-2.4014 ARE ALIENS 0.0000
-2.4014 ARE AN -0.2808
-2.4014 ARE APPLES 0.0000
-2.4014 ARE BANANAS 0.0000
-2.4014 ARE BETTER -0.2304
-2.4014 ARE BLUE -0.1249
-2.4014 ARE BOTNAME 0.0000
-2.4014 ARE BROWN 0.0000
-2.4014 ARE CATEGORY 0.0000
-2.4014 ARE CLIENTS 0.0000
-2.4014 ARE COWS 0.0000
-2.4014 ARE ELEPHANT 0.0000
-2.4014 ARE GREEN 0.0000
-2.4014 ARE HOSPITAL -0.1761
-2.4014 ARE IMMORTAL 0.0000
-2.4014 ARE KILLED 0.0000
-2.4014 ARE LEMONS 0.0000
-2.4014 ARE LOOKING -0.1761
-2.4014 ARE MICROCHIPS 0.0000
-2.4014 ARE MY -0.2877
-1.9243 ARE NOT -0.2944
-2.4014 ARE ORANGES 0.0000
-2.4014 ARE PANDORABOTS 0.0000
-2.4014 ARE PARAMETERS 0.0000
-2.4014 ARE PEOPLE -0.2688
-2.4014 ARE SEXUAL 0.0000
-2.4014 ARE SHOES 0.0000
-2.4014 ARE STUPID 0.0000
-2.1004 ARE THE -0.2962
-2.4014 ARE THERE -0.2553
-2.1004 ARE THEY -0.1761
-2.4014 ARE TREES 0.0000
-2.4014 ARE WE -0.2762
-2.4014 ARE WHAT -0.2987
-2.4014 ARE WINNER 0.0000
-0.5819 ARE YOU -0.2453
-1.3222 ARE YOUR -0.2231
-2.4014 ARE YOURS 0.0000
-0.3010 ARIES </s> -0.3010
-0.3010 ARMS </s> -0.3010
-0.3010 ARSE </s> -0.3010
-0.3010 ART </s> -0.3010
-0.6021 ARTIFICIAL </s> -0.3010
-0.9031 ARTIFICIAL INTELLIGENCE 0.0000
-1.2041 ARTIFICIAL LIFE -0.2688
-1.2041 ARTIFICIAL LINGUISTIC 0.0000
-0.7782 AS </s> -0.3010
-0.4771 AS A -0.2891
-0.6021 ASHWIN </s> -0.3010
-0.6021 ASHWIN M -0.1761
-1.3617 ASK </s> -0.3010
-1.6628 ASK ALICE -0.1655
-1.6628 ASK ANOTHER -0.2041
-1.6628 ASK DOUBLY 0.0000
-1.3617 ASK HIM 0.0000
-1.6628 ASK JEEVES 0.0000
-0.6214 ASK ME -0.1181
-1.6628 ASK QUESTIONS 0.0000
-1.6628 ASK WHAT -0.2827
-1.6628 ASK WHO -0.2863
-1.6628 ASK YOU -0.2785
-0.9031 ASKED </s> -0.3010
-0.6021 ASKED ME -0.1303
-1.2041 ASKED THAT -0.2767
-1.2041 ASKED YOU -0.2785
-0.7782 ASKING </s> -0.3010
-0.4771 ASKING YOU -0.2785
-0.3010 ASS </s> -0.3010
-0.3010 ASSIMILATED </s> -0.3010
-0.3010 ASSUMING </s> -0.3010
-0.3010 ASTROLOGICAL SIGN 0.0000
-0.3010 AT </s> -0.3010
-0.3010 ATTITUDE </s> -0.3010
-0.3010 AUGUST </s> -0.3010
-0.3010 AUTOMOBILE COMPANY 0.0000
-0.3010 AWESOME </s> -0.3010
-0.3010 AWW </s> -0.3010
-0.3010 AXIS ALIGNED 0.0000
-0.3010 AYUH MEAN -0.1513
-0.3010 B TOKLAS 0.0000
-0.3010 BABY </s> -0.3010
-0.6021 BACK </s> -0.3010
-0.6021 BACK HURTS 0.0000
-0.3010 BACKWARD </s> -0.3010
-0.5229 BAD </s> -0.3010
-1.0000 BAD IF -0.1513
-1.0000 BAD JOKE 0.0000
-0.3010 BAER </s> -0.3010
-0.3010 BAH </s> -0.3010
-0.3010 BALLS ITCH 0.0000
-0.3010 BANANAS </s> -0.3010
-0.4771 BARRY </s> -0.3010
-0.7782 BARRY DEFACTO 0.0000
-0.3010 BASEBALLTEAM </s> -0.3010
-0.3010 BASED </s> -0.3010
-0.3010 BATHROOM </s> -0.3010
-0.3010 BCN </s> -0.3010
-0.8451 BE </s> -0.3010
-1.1461 BE A -0.2784
-1.4472 BE ASSIMILATED 0.0000
-1.4472 BE CORRECT 0.0000
-1.4472 BE DEFINED 0.0000
-1.4472 BE HUMAN -0.1461
-1.4472 BE IMMORTAL 0.0000
-1.4472 BE MY -0.2931
-1.4472 BE WHAT -0.2827
-1.4472 BE WITH -0.2499
-0.3010 BEACUSE </s> -0.3010
-0.3010 BEANS </s> -0.3010
-0.4260 BEAUTIFUL </s> -0.3010
-0.9031 BEAUTIFUL COUNTRY 0.0000
-0.3010 BEAUTY </s> -0.3010
-0.3010 BEAVIS </s> -0.3010
-0.3010 BECOME A -0.2996
-0.3010 BED </s> -0.3010
-1.4771 BEEN BUSY 0.0000
-1.1761 BEEN DOING -0.1597
-1.4771 BEEN DRINKING 0.0000
-1.4771 BEEN THERE -0.0792
-1.4771 BEEN THINKING 0.0000
-0.6320 BEEN TO -0.2702
-1.4771 BEEN UP -0.2730
-1.4771 BEEN WAITING 0.0000
-0.3802 BEFORE </s> -0.3010
-1.0792 BEFORE THAT -0.2767
-0.3010 BEGIN </s> -0.3010
-0.5229 BEING A -0.2784
-1.0000 BEING DOWNLOADED 0.0000
-1.0000 BEING SINGLE 0.0000
-0.3010 BELIEVE </s> -0.3010
-0.3010 BEND OVER -0.2218
-0.9031 BEST </s> -0.3010
-0.9031 BEST AI -0.1047
-0.6021 BEST ROBOT -0.1112
-0.6021 BETTER </s> -0.3010
-1.3010 BETTER ELIZA -0.0378
-0.8239 BETTER THAN -0.2109
-1.3010 BETTER YOU -0.2785
-0.3010 BIG BOOBS 0.0000
-0.3010 BIGGER </s> -0.3010
-0.3010 BILL GATES 0.0000
-0.3010 BIRTHDAY </s> -0.3010
-0.3010 BIRTHPLACE </s> -0.3010
-0.3010 BLESS YOU -0.2785
-0.4771 BLUE </s> -0.3010
-0.7782 BLUE CAR 0.0000
-0.3010 BODY </s> -0.3010
-0.3010 BOLLOCKS </s> -0.3010
-0.3010 BONO MEAN -0.1513
-0.3010 BOO </s> -0.3010
-0.3010 BOOBS </s> -0.3010
-0.4260 BOOK </s> -0.3010
-0.9031 BOOK YOU -0.3001
-0.3010 BOOKS DO -0.1848
-0.3010 BORING </s> -0.3010
-0.3010 BORROW MINE -0.1761
-0.3010 BOT </s> -0.3010
-0.3010 BOTMASTER </s> -0.3010
-0.3010 BOTNAME </s> -0.3010
-0.3010 BOX </s> -0.3010
-0.3979 BOYFRIEND </s> -0.3010
-1.0000 BOYFRIEND IS -0.2733
-0.3010 BRAIN </s> -0.3010
-0.3010 BRAVO </s> -0.3010
-0.3010 BREAK </s> -0.3010
-0.3010 BREASTS </s> -0.3010
-0.3010 BREATH </s> -0.3010
-0.3010 BREATHE </s> -0.3010
-0.3010 BRILLIANT </s> -0.3010
-0.3010 BRING ME -0.2956
-0.3010 BROTHER </s> -0.3010
-0.6021 BROTHERS </s> -0.3010
-0.6021 BROTHERS OR -0.1761
-0.3010 BROWN </s> -0.3010
-0.3010 BUBBLES </s> -0.3010
-0.3010 BUILD </s> -0.3010
-0.3010 BULLSHIT </s> -0.3010
-0.3010 BURP </s> -0.3010
-0.3010 BUSH </s> -0.3010
-0.3010 BUSINESS </s> -0.3010
-0.3010 BUSY </s> -0.3010
-0.3010 BUTT </s> -0.3010
-0.3010 BUTTHEAD </s> -0.3010
-0.3010 BY HUMANS 0.0000
-0.7782 C 3P0 0.0000
-0.7782 C </s> -0.3010
-0.7782 C E 0.0000
-0.6021 C3P0 </s> -0.3010
-0.6021 C3P0 JARVIS -0.1761
-0.3010 C3PO </s> -0.3010
-0.3010 CALCULATOR </s> -0.3010
-0.6021 CALL ME -0.2983
-0.6021 CALL YOU -0.2997
-0.3010 CALLED </s> -0.3010
-0.3010 CAME FIRST -0.2430
-1.8692 CAN </s> -0.3010
-1.8692 CAN ASK -0.1823
-1.8692 CAN BE -0.2341
-1.8692 CAN BORROW 0.0000
-1.8692 CAN DO -0.2991
-1.8692 CAN FIND -0.0792
-1.8692 CAN HAPPEN 0.0000
-1.8692 CAN HELP 0.0000
-1.0241 CAN I -0.2659
-1.8692 CAN KILL 0.0000
-1.0241 CAN NOT -0.2739
-1.8692 CAN WE -0.2218
-0.7553 CAN YOU -0.2762
-0.3010 CANCER </s> -0.3010
-0.3010 CAPABLE OF -0.2962
-0.3010 CAPRICORN </s> -0.3010
-0.3010 CAR </s> -0.3010
-0.3010 CARE </s> -0.3010
-0.3010 CASE </s> -0.3010
-0.3010 CAT </s> -0.3010
-0.3010 CATEGORY CLIENTS 0.0000
-0.3010 CATS </s> -0.3010
-0.3010 CD </s> -0.3010
-0.3010 CELEBRITIES </s> -0.3010
-0.3010 CELEBRITY C3P0 -0.1761
-0.3010 CERTAIN </s> -0.3010
-0.3010 CHAIR </s> -0.3010
-0.9031 CHANGE </s> -0.3010
-0.4260 CHANGE THE -0.2889
-0.3010 CHANGING THE -0.2914
-0.6021 CHAT </s> -0.3010
-0.9031 CHAT BOT 0.0000
-0.9031 CHAT ROBOT -0.1112
-0.3010 CHATTERBOT </s> -0.3010
-0.3010 CHATTERBOX </s> -0.3010
-0.3010 CHATTING ABOUT -0.2623
-0.3010 CHEATED </s> -0.3010
-0.3010 CHEESE </s> -0.3010
-0.3010 CHENEY </s> -0.3010
-0.3010 CHESS </s> -0.3010
-0.3010 CHEWBACCA </s> -0.3010
-0.3010 CHICKEN OR -0.1761
-0.3010 CHILD </s> -0.3010
-0.3010 CHILDREN </s> -0.3010
-0.3010 CHRISTMAS </s> -0.3010
-0.3010 CIRCUMSTANCES </s> -0.3010
-0.3010 CITY </s> -0.3010
-0.6021 CLARIFY </s> -0.3010
-0.6021 CLARIFY WHAT -0.2827
-0.3010 CLASS </s> -0.3010
-0.3010 CLEAN MY -0.2984
-0.3010 CLEAR </s> -0.3010
-0.3010 CLEARED UP -0.1761
-0.3010 CLEARLY </s> -0.3010
-0.3010 CLIENTS </s> -0.3010
-0.3010 CLOCK </s> -0.3010
-0.3010 CLONE </s> -0.3010
-0.3010 CLONES </s> -0.3010
-0.3010 CLOTHES </s> -0.3010
-0.3010 CLOUDY </s> -0.3010
-0.3010 COCK </s> -0.3010
-0.3010 COFFEE </s> -0.3010
-0.3010 COGITO ERGO 0.0000
-0.3010 COINCIDENCE </s> -0.3010
-0.6021 COLD </s> -0.3010
-0.6021 COLD HERE -0.1091
-0.3010 COLLEGE </s> -0.3010
-1.7924 COLOR </s> -0.3010
-0.7132 COLOR ARE -0.1197
-1.7924 COLOR DESIGNATES 0.0000
-1.4914 COLOR HAIR -0.2041
-0.6163 COLOR IS -0.2161
-0.3010 COM </s> -0.3010
-0.3010 COMFORTABLE </s> -0.3010
-0.3010 COMMON </s> -0.3010
-0.6021 COMO ESTA 0.0000
-0.6021 COMO ESTAS 0.0000
-0.3010 COMPANY MAKES -0.2852
-0.3010 COMPLICATED </s> -0.3010
-0.3010 COMPLIMENT </s> -0.3010
-0.3010 COMPLY </s> -0.3010
-0.5740 COMPUTER </s> -0.3010
-0.8751 COMPUTER ARE -0.1691
-1.4771 COMPUTER DO -0.1848
-1.4771 COMPUTER IS -0.3005
-1.4771 COMPUTER PROGRAM -0.0969
-0.3010 COMPUTERS </s> -0.3010
-0.3010 COMPUTING PI 0.0000
-0.3010 CONDITIONS </s> -0.3010
-0.3010 CONFIDENTIAL </s> -0.3010
-0.3010 CONFUSE ME -0.1688
-0.3010 CONNECTOR </s> -0.3010
-0.3010 CONTACT </s> -0.3010
-0.3010 CONTEXT </s> -0.3010
-0.3010 CONTRADICT YOURSELF 0.0000
-0.3010 CONTROL </s> -0.3010
-0.3010 COOK </s> -0.3010
-0.6021 COOL </s> -0.3010
-1.0792 COOL BEANS 0.0000
-1.0792 COOL DUDE 0.0000
-1.0792 COOL TO -0.2792
-0.3010 COOPER </s> -0.3010
-0.3010 COP OUT -0.1461
-0.3010 CORNERS </s> -0.3010
-0.3010 CORRECT </s> -0.3010
-0.3010 COST NOTHING 0.0000
-0.7270 COULD </s> -0.3010
-0.7270 COULD BE -0.2156
-1.2041 COULD SAY -0.2527
-1.2041 COULD YOU -0.3006
-0.3010 COUNT </s> -0.3010
-0.3010 COUNTRY </s> -0.3010
-0.3010 COWS </s> -0.3010
-0.3010 CRAMPED IN -0.2688
-0.3010 CRASH </s> -0.3010
-0.3010 CRASHED </s> -0.3010
-0.3010 CREATE ALICE -0.1655
-0.6021 CREATED BY 0.0000
-0.6021 CREATED YOU -0.2785
-0.3010 CREATER </s> -0.3010
-0.3010 CREATORS NAME -0.1549
-0.3010 CREATURE IS -0.3005
-0.3010 CRIPES </s> -0.3010
-0.3010 CRITICISM </s> -0.3010
-0.3010 CRY </s> -0.3010
-0.3010 CUNT </s> -0.3010
-0.3010 CURIOSITY </s> -0.3010
-0.3010 CUTE </s> -0.3010
-0.3010 CYA </s> -0.3010
-0.3010 CYBELLE </s> -0.3010
-0.3010 CYBER SEX 0.0000
-0.3010 DAD </s> -0.3010
-0.3010 DALLAS </s> -0.3010
-0.3010 DANCING BOTNAME 0.0000
-0.3010 DANGEROUS </s> -0.3010
-0.6021 DATA </s> -0.3010
-0.6021 DATA FROM -0.2688
-0.4771 DAY </s> -0.3010
-0.7782 DAY IS -0.2953
-0.3010 DAYS </s> -0.3010
-0.3010 DEAD </s> -0.3010
-0.3010 DEATH </s> -0.3010
-0.3010 DEBBIE DOES -0.2969
-0.3010 DECIDE </s> -0.3010
-0.3010 DECIMAL PLACES 0.0000
-0.3010 DEDUCTION </s> -0.3010
-0.3010 DEDUCTIVE REASONING 0.0000
-0.3010 DEEP THROAT 0.0000
-0.3010 DEFACTO </s> -0.3010
-0.6021 DEFINE FINE -0.0792
-0.6021 DEFINE IT -0.2699
-0.3010 DEFINED </s> -0.3010
-0.3010 DEPEND ON -0.1249
-0.3010 DEPENDS </s> -0.3010
-0.3010 DEPRESSION BEGIN 0.0000
-0.3010 DESIGNATES THE -0.2986
-0.3010 DEVELOPERS </s> -0.3010
-0.3010 DICTIONARY </s> -0.3010
-1.5051 DID </s> -0.3010
-1.9823 DID ALICE -0.1655
-1.9823 DID ELVIS -0.1761
-1.9823 DID HE -0.2218
-1.2833 DID I -0.2606
-1.9823 DID IT -0.2999
-0.9409 DID NOT -0.2297
-1.9823 DID RICH -0.2218
-1.9823 DID SAY -0.2527
-1.9823 DID SHE -0.2872
-1.9823 DID THE -0.2986
-1.9823 DID TOO -0.0580
-1.6812 DID WE -0.2218
-1.6812 DID WHAT -0.2821
-0.7782 DID YOU -0.2566
-0.3010 DIE </s> -0.3010
-0.3010 DIED </s> -0.3010
-0.9031 DIFFERENT </s> -0.3010
-0.9031 DIFFERENT FROM -0.2688
-0.9031 DIFFERENT LANGUAGES -0.1761
-0.9031 DIFFERENT QUESTION 0.0000
-0.3010 DIFFICULT </s> -0.3010
-0.3010 DIFFICULTIES </s> -0.3010
-0.3010 DIGRESS </s> -0.3010
-0.3010 DIRTY </s> -0.3010
-0.3010 DMX </s> -0.3010
-1.2156 DO </s> -0.3010
-2.3617 DO BETTER -0.1761
-2.3617 DO FOR -0.2910
-2.3617 DO HERE -0.1091
-1.5166 DO I -0.2606
-2.0607 DO IT -0.2699
-0.9638 DO NOT -0.1891
-2.3617 DO OTHER -0.2430
-2.3617 DO ROBOTS -0.2430
-2.3617 DO THAT -0.2767
-2.0607 DO THEY -0.1761
-2.3617 DO THIS -0.2218
-2.3617 DO WANT -0.1761
-2.3617 DO WE -0.2499
-2.3617 DO WHAT -0.2827
-2.3617 DO WITH -0.2762
-0.6293 DO YOU -0.2044
-0.3010 DOCUMENTATION </s> -0.3010
-2.0253 DOES </s> -0.3010
-1.4232 DOES A -0.2861
-2.0253 DOES AIML -0.2430
-1.1222 DOES ALICE -0.1479
-2.0253 DOES AYUH 0.0000
-2.0253 DOES DALLAS 0.0000
-2.0253 DOES ELVIS -0.1761
-2.0253 DOES EXIST 0.0000
-2.0253 DOES FTP 0.0000
-1.7243 DOES HE -0.1249
-2.0253 DOES ISP 0.0000
-1.1802 DOES IT -0.2626
-2.0253 DOES MORE -0.2430
-2.0253 DOES MXMVII 0.0000
-1.1802 DOES NOT -0.2499
-2.0253 DOES PRO 0.0000
-2.0253 DOES REM 0.0000
-2.0253 DOES SUGAR 0.0000
-1.1802 DOES THAT -0.2906
-2.0253 DOES THE -0.2986
-1.4232 DOES YOUR -0.2811
-0.3010 DOG DIED 0.0000
-0.3010 DOGS </s> -0.3010
-0.3010 DOH </s> -0.3010
-0.6532 DOING </s> -0.3010
-1.2553 DOING A -0.2996
-1.2553 DOING HERE -0.1091
-1.2553 DOING LATELY 0.0000
-1.2553 DOING TOMORROW 0.0000
-1.2553 DOING TONIGHT 0.0000
-0.3010 DOMAIN </s> -0.3010
-0.3010 DONATE </s> -0.3010
-0.3010 DORK </s> -0.3010
-0.3010 DOUBLY AIMLESS 0.0000
-0.3010 DOUGLAS ADAMS 0.0000
-0.3010 DOWN TIME -0.1139
-0.3010 DOWNLOAD </s> -0.3010
-0.3010 DOWNLOADED </s> -0.3010
-0.3010 DOWNLOADING </s> -0.3010
-0.3010 DREAM </s> -0.3010
-0.3010 DREAMS </s> -0.3010
-0.4260 DRESS </s> -0.3010
-0.9031 DRESS LOOK -0.1597
-0.3010 DRINKING </s> -0.3010
-0.3010 DROP THE -0.2914
-0.3010 DUDE </s> -0.3010
-0.3010 DUMB </s> -0.3010
-0.3010 DUMBASS </s> -0.3010
-0.3010 DUMMY </s> -0.3010
-0.3010 DYING </s> -0.3010
-0.3010 E </s> -0.3010
-0.3010 EARLY </s> -0.3010
-0.3010 EARS </s> -0.3010
-0.3010 EASTER </s> -0.3010
-0.3010 EASY </s> -0.3010
-0.3010 EAT </s> -0.3010
-0.3010 EFFECTS </s> -0.3010
-0.3010 EGG </s> -0.3010
-0.3010 EITHER </s> -0.3010
-0.3010 ELECTRICITY </s> -0.3010
-0.3010 ELEPHANT TUSKS 0.0000
-0.3424 ELIZA </s> -0.3010
-1.3424 ELIZA FOR -0.2910
-0.8239 ELSE </s> -0.3010
-1.3010 ELSE ARE -0.1691
-0.8239 ELSE CAN -0.2099
-1.0000 ELSE DO -0.1848
-1.3010 ELSE FAILS 0.0000
-0.6021 ELVIS DIE 0.0000
-0.6021 ELVIS STAND -0.0348
-0.3010 EMAIL </s> -0.3010
-0.3010 EMOTIONS </s> -0.3010
-0.3010 END </s> -0.3010
-0.3010 ENGLAND </s> -0.3010
-0.3010 ENGLISH </s> -0.3010
-0.3010 ENLISTED </s> -0.3010
-0.3010 ENOUGH </s> -0.3010
-0.3010 ENTITY </s> -0.3010
-0.3010 ERASE YOURSELF 0.0000
-0.3010 ERGO SUM 0.0000
-0.3010 ERRR </s> -0.3010
-0.3010 ESTA </s> -0.3010
-0.3010 ESTAS </s> -0.3010
-0.3010 ETHICS </s> -0.3010
-0.3010 EUH </s> -0.3010
-0.3010 EUKARYOTE </s> -0.3010
-0.3010 EUROPE </s> -0.3010
-0.3010 EVE </s> -0.3010
-0.7270 EVER BEEN -0.1856
-1.2041 EVER DIE 0.0000
-0.9031 EVER HAD -0.0969
-1.2041 EVER KISSED 0.0000
-1.2041 EVER SEEN -0.2374
-0.7782 EVERY DAY -0.1249
-0.7782 EVERY NIGHT 0.0000
-0.7782 EVERY PART 0.0000
-0.3010 EVERYBODY </s> -0.3010
-0.3010 EVERYDAY </s> -0.3010
-0.3010 EVIDENT </s> -0.3010
-0.3010 EXACTLY </s> -0.3010
-0.3010 EXCITING </s> -0.3010
-0.3010 EXCUSE ME -0.1688
-0.3010 EXIST </s> -0.3010
-0.3010 EXPERIENCE </s> -0.3010
-0.3010 EXPERIENCES </s> -0.3010
-0.3010 EXPLAIN </s> -0.3010
-0.3010 EXPLAINING WHAT -0.2827
-0.3010 EXPLANATION </s> -0.3010
-0.3010 EXPRESSION </s> -0.3010
-0.3010 EYE </s> -0.3010
-0.5441 EYES </s> -0.3010
-0.6690 EYES ARE -0.2958
-0.3010 FACT </s> -0.3010
-0.3010 FACTS </s> -0.3010
-0.3010 FAG </s> -0.3010
-0.3010 FAILED </s> -0.3010
-0.3010 FAILS </s> -0.3010
-0.6021 FAIR </s> -0.3010
-0.6021 FAIR ENOUGH 0.0000
-0.3010 FAMILY </s> -0.3010
-0.3010 FAMOUS </s> -0.3010
-0.3010 FART </s> -0.3010
-0.3010 FASHION DO -0.1848
-0.6021 FATHER </s> -0.3010
-0.6021 FATHER DIED 0.0000
-0.3010 FAULT </s> -0.3010
-1.3424 FAVORITE </s> -0.3010
-1.3424 FAVORITE AI -0.1047
-1.3424 FAVORITE CHATTERBOT 0.0000
-1.3424 FAVORITE HOBBY 0.0000
-1.0414 FAVORITE MOVIE? 0.0000
-1.3424 FAVORITE NAMES -0.1761
-1.3424 FAVORITE PROGRAMMING -0.1761
-1.3424 FAVORITE VIDEO 0.0000
-1.3424 FAVORITE WEB 0.0000
-1.3424 FAVORITE WEBSITE 0.0000
-0.3010 FAVORITEACTOR </s> -0.3010
-0.3010 FAVORITEACTRESS </s> -0.3010
-0.3010 FAVORITEARTIST </s> -0.3010
-0.3010 FAVORITEAUTHOR </s> -0.3010
-0.3010 FAVORITEBAND </s> -0.3010
-0.3010 FAVORITEBOOK </s> -0.3010
-0.3010 FAVORITECOLOR </s> -0.3010
-0.3010 FAVORITEFOOD </s> -0.3010
-0.3010 FAVORITEMOVIE </s> -0.3010
-0.3010 FAVORITEQUESTION </s> -0.3010
-0.3010 FAVORITESONG </s> -0.3010
-0.3010 FAVORITESPORT </s> -0.3010
-0.3010 FAVORITESUBJECT </s> -0.3010
-0.3010 FEAR DEATH 0.0000
-0.3010 FEEL FREE -0.1963
-0.4260 FEELINGS </s> -0.3010
-0.9031 FEELINGS TOO -0.0580
-0.3010 FEELS GOOD -0.1597
-0.3010 FELL AS -0.2218
-0.3010 FEMALE </s> -0.3010
-0.3010 FIGHT </s> -0.3010
-0.3010 FIGURE OF -0.2913
-0.3010 FILE ALICE -0.1655
-0.3010 FILM </s> -0.3010
-0.3010 FINAL ANSWER -0.0969
-0.3010 FINALLY </s> -0.3010
-1.0000 FIND ANYTHING -0.0792
-0.3979 FIND OUT 0.0000
-0.3979 FINE </s> -0.3010
-1.0000 FINE THANK 0.0000
-0.3010 FINK </s> -0.3010
-0.3010 FIREFLY </s> -0.3010
-0.6021 FIRST </s> -0.3010
-0.9031 FIRST CONTACT 0.0000
-0.9031 FIRST THE -0.2986
-0.3010 FIVE </s> -0.3010
-0.3010 FLAWS </s> -0.3010
-0.3010 FLY </s> -0.3010
-0.3010 FOOTBALL </s> -0.3010
-0.3010 FOOTBALLTEAM </s> -0.3010
-0.5643 FOR </s> -0.3010
-1.6435 FOR A -0.2891
-1.6435 FOR ALICE -0.1655
-1.6435 FOR IN -0.2651
-1.1663 FOR ME -0.1688
-1.6435 FOR PRESIDENT 0.0000
-1.3424 FOR WHAT -0.2827
-1.6435 FOR YOU -0.2785
-0.3010 FORCE BE -0.2852
-0.3010 FORFUN </s> -0.3010
-0.3010 FORGET </s> -0.3010
-0.3010 FORGOT </s> -0.3010
-0.7782 FORM </s> -0.3010
-0.7782 FORM OF -0.2962
-0.7782 FORM THE -0.2986
-0.3010 FORMULATED THE -0.2986
-0.3010 FORUM </s> -0.3010
-0.3010 FORWARD </s> -0.3010
-0.3010 FOUNDATION </s> -0.3010
-0.3010 FOUR </s> -0.3010
-0.3010 FRANCISCO </s> -0.3010
-0.3010 FRANK </s> -0.3010
-0.6690 FREE </s> -0.3010
-1.1461 FREE CAN -0.2579
-1.1461 FREE FOR -0.2808
-1.1461 FREE FROM -0.2688
-1.1461 FREE OF -0.2962
-0.3010 FRIEND </s> -0.3010
-0.3010 FRIENDS </s> -0.3010
-0.3010 FRIGHTEN ME -0.1688
-0.8451 FROM </s> -0.3010
-0.8451 FROM A -0.2981
-1.1461 FROM OTHER -0.2430
-1.1461 FROM STAR -0.1347
-1.1461 FROM WHAT -0.2827
-0.3010 FTP STAND -0.0348
-0.6021 FUCK </s> -0.3010
-0.6021 FUCK THAT -0.2767
-0.6021 FULL FORM -0.2218
-0.6021 FULL NAME -0.1549
-0.3010 FUN </s> -0.3010
-0.3010 FUNCTIONS </s> -0.3010
-0.3680 FUNNY </s> -0.3010
-1.1461 FUNNY MOVIE -0.1091
-0.3010 FUTILE </s> -0.3010
-0.3010 FUTURE </s> -0.3010
-0.3680 GAME </s> -0.3010
-1.1461 GAME ARE -0.2993
-0.3010 GATES </s> -0.3010
-0.3010 GEE </s> -0.3010
-0.3010 GEMINI </s> -0.3010
-0.3010 GENDER </s> -0.3010
-0.3010 GENERATION </s> -0.3010
-0.3010 GENETIC </s> -0.3010
-0.3010 GENUS </s> -0.3010
-0.3010 GEOMETRY </s> -0.3010
-0.6021 GEORGE LUCAS 0.0000
-0.6021 GEORGE W 0.0000
-0.6021 GERMAN </s> -0.3010
-0.6021 GERMAN BOTNAME 0.0000
-1.1461 GET OFF -0.2553
-1.1461 GET ONE -0.2825
-1.1461 GET PAID 0.0000
-1.1461 GET THE -0.2986
-1.1461 GET WHAT -0.2827
-0.8451 GET YOUR -0.2845
-0.3010 GIRL LIKE -0.2894
-0.4260 GIRLFRIEND </s> -0.3010
-0.9031 GIRLFRIEND IS -0.2733
-0.9031 GIVE IT -0.2999
-0.6021 GIVE ME -0.2788
-0.9031 GIVE UP -0.1761
-0.3010 GLAD </s> -0.3010
-0.3010 GLASS </s> -0.3010
-0.3010 GLOBAL VILLAGE 0.0000
-0.6690 GO </s> -0.3010
-1.1461 GO FIRST -0.1761
-1.1461 GO ON -0.1249
-0.8451 GO TO -0.2702
-0.3010 GOAL </s> -0.3010
-0.3010 GOAT </s> -0.3010
-0.3010 GOES WITHOUT 0.0000
-0.3010 GOING TO -0.2881
-0.3010 GOLD </s> -0.3010
-0.3010 GOLDEN RULE 0.0000
-0.5563 GOOD </s> -0.3010
-1.5563 GOOD AI -0.1047
-1.5563 GOOD BOOK -0.0969
-1.5563 GOOD ENOUGH 0.0000
-1.5563 GOOD FOR -0.1627
-1.5563 GOOD MOVIE -0.1091
-1.5563 GOOD ONE -0.1249
-1.5563 GOOD PARTY 0.0000
-1.5563 GOOD TASTE -0.2430
-0.3010 GOOFED </s> -0.3010
-0.3010 GOOG </s> -0.3010
-0.3010 GOSSIP </s> -0.3010
-0.3010 GOT IT -0.2699
-0.6021 GRASS </s> -0.3010
-0.6021 GRASS IS -0.3005
-0.3979 GREAT </s> -0.3010
-1.0000 GREAT DEPRESSION 0.0000
-0.3010 GREATEST ACHIEVEMENT 0.0000
-0.3010 GREED </s> -0.3010
-0.3010 GREEN </s> -0.3010
-0.6021 GUESS </s> -0.3010
-1.0792 GUESS ANYWAY 0.0000
-1.0792 GUESS WHAT -0.2827
-1.0792 GUESS WHO -0.2863
-0.3010 GURU </s> -0.3010
-0.3010 H </s> -0.3010
-0.4260 HAD A -0.2936
-0.9031 HAD BETTER -0.1761
-0.5229 HAIR </s> -0.3010
-0.6990 HAIR DO -0.1672
-0.7782 HAL 9000 0.0000
-0.7782 HAL </s> -0.3010
-0.7782 HAL SMARTER -0.2430
-0.3010 HALT </s> -0.3010
-0.3010 HANA </s> -0.3010
-0.3010 HAPPEN </s> -0.3010
-0.3010 HAPPENED </s> -0.3010
-0.3010 HAPPIER PLACE 0.0000
-0.3010 HAPPY </s> -0.3010
-0.4771 HARD </s> -0.3010
-0.7782 HARD TO -0.2968
-0.3010 HARDWARE </s> -0.3010
-0.3010 HARM A -0.2981
-0.3010 HARRY MET -0.2218
-0.3010 HAS </s> -0.3010
-0.3010 HATE MICROSOFT -0.1249
-1.6021 HAVE </s> -0.3010
-1.3590 HAVE A -0.2861
-2.2041 HAVE ALL -0.2430
-2.2041 HAVE AN -0.2808
-2.2041 HAVE ANY -0.2553
-2.2041 HAVE BEEN -0.2863
-2.2041 HAVE BIG 0.0000
-2.2041 HAVE BROTHER 0.0000
-1.9031 HAVE BROTHERS 0.0000
-2.2041 HAVE EARS 0.0000
-2.2041 HAVE EYES -0.1549
-1.9031 HAVE FEELINGS 0.0000
-2.2041 HAVE FLAWS 0.0000
-2.2041 HAVE FUN 0.0000
-2.2041 HAVE GOOD -0.2888
-2.2041 HAVE HAD -0.0969
-1.9031 HAVE IN -0.2941
-2.2041 HAVE LIMITATIONS 0.0000
-2.2041 HAVE LOST 0.0000
-2.2041 HAVE MET -0.2218
-2.2041 HAVE MY -0.2656
-2.2041 HAVE NO -0.2553
-1.7270 HAVE NOT -0.2668
-2.2041 HAVE PROBLEMS 0.0000
-2.2041 HAVE RELATIVES 0.0000
-2.2041 HAVE TALKED -0.2218
-1.6021 HAVE TO -0.2609
-1.9031 HAVE WE -0.2499
-0.6726 HAVE YOU -0.2610
-0.4771 HE DO -0.2697
-0.7782 HE TEACH 0.0000
-0.3010 HEAD </s> -0.3010
-0.3010 HEADQUARTERS </s> -0.3010
-0.3010 HEAR ABOUT -0.2737
-0.9031 HEARD ABOUT -0.2737
-0.9031 HEARD ME -0.1688
-0.9031 HEARD THE -0.2986
-0.9031 HEARD WRONG -0.0792
-0.3010 HEART </s> -0.3010
-0.3010 HELLO </s> -0.3010
-0.3010 HELP ME -0.1688
-0.3010 HELPFUL </s> -0.3010
-0.4472 HERE </s> -0.3010
-1.1461 HERE IS -0.2953
-1.1461 HERE WE -0.2762
-0.3010 HERS </s> -0.3010
-0.6021 HI EVERYBODY 0.0000
-0.6021 HI HOW -0.2604
-0.3010 HIGH SCHOOL 0.0000
-0.4260 HIM </s> -0.3010
-0.9031 HIM FOR -0.2704
-0.3010 HIP HOP 0.0000
-0.3010 HMPH </s> -0.3010
-0.3010 HOBBIES </s> -0.3010
-0.3010 HOBBY </s> -0.3010
-0.3010 HOCKEYTEAM </s> -0.3010
-0.3010 HOME </s> -0.3010
-0.3010 HOMO SAPIENS 0.0000
-0.3010 HONESTLY </s> -0.3010
-0.3010 HOOP INVENTED 0.0000
-0.3010 HOP </s> -0.3010
-0.3010 HOPE THAT -0.2981
-0.3010 HOPEFULLY SOON 0.0000
-0.3010 HORSES </s> -0.3010
-0.6021 HOSPITAL </s> -0.3010
-0.6021 HOSPITAL CORNERS 0.0000
-0.7782 HOT </s> -0.3010
-0.7782 HOT HERE -0.1091
-0.7782 HOT IN -0.2688
-0.3010 HOUSE </s> -0.3010
-1.0492 HOW ARE -0.1691
-1.4472 HOW CAN -0.2579
-1.4472 HOW DID -0.2218
-1.0492 HOW DO -0.1672
-1.7482 HOW DOES -0.2670
-1.2711 HOW LONG -0.1761
-0.9031 HOW MANY -0.1513
-1.2711 HOW MUCH -0.1761
-0.3010 HUH WHAT -0.2827
-0.3010 HULA HOOP 0.0000
-0.5229 HUMAN </s> -0.3010
-0.6990 HUMAN EMOTIONS 0.0000
-0.3010 HUMANS </s> -0.3010
-0.3010 HUMM </s> -0.3010
-0.3010 HURRY UP -0.1761
-0.6021 HURT </s> -0.3010
-0.6021 HURT MY -0.2984
-0.3010 HURTS </s> -0.3010
-0.3010 HYPERBOLE </s> -0.3010
-1.2139 I </s> -0.3010
-1.3010 I AM -0.1165
-2.2553 I ASK -0.2915
-1.9542 I ASKED -0.2109
-2.2553 I BECOME 0.0000
-2.2553 I C -0.2218
-2.2553 I COULD -0.2109
-2.2553 I DID -0.2872
-2.2553 I DIE 0.0000
-1.3522 I DO -0.2158
-2.2553 I EAT 0.0000
-2.2553 I ENLISTED 0.0000
-2.2553 I FELL 0.0000
-2.2553 I FIND -0.0792
-2.2553 I FORGET 0.0000
-2.2553 I FORGOT 0.0000
-1.9542 I GET -0.1963
-2.2553 I GIVE -0.2430
-2.2553 I HATE 0.0000
-1.6532 I HAVE -0.2583
-2.2553 I HEARD -0.2430
-2.2553 I HOPE 0.0000
-2.2553 I KILL 0.0000
-1.7782 I KNEW -0.0969
-1.9542 I LACK 0.0000
-2.2553 I LIKE -0.2463
-2.2553 I LIVE -0.1761
-1.9542 I MADE -0.1761
-1.7782 I MEAN -0.0969
-2.2553 I MEANT 0.0000
-2.2553 I OFFEND 0.0000
-2.2553 I PROGRAM -0.2430
-2.2553 I SAID -0.2663
-1.6532 I SAY -0.1362
-2.2553 I SEARCH 0.0000
-2.2553 I SEEKING 0.0000
-2.2553 I SHOULD -0.2852
-2.2553 I SLEEP -0.1249
-2.2553 I SPEAK -0.2553
-2.2553 I STAND -0.0348
-2.2553 I SWIM 0.0000
-2.2553 I TEACH 0.0000
-2.2553 I THINKING 0.0000
-2.2553 I THOUGHT 0.0000
-2.2553 I TOLD -0.2553
-1.9542 I USE 0.0000
-2.2553 I WANT -0.2852
-2.2553 I WEAR -0.1761
-2.2553 I WEARING 0.0000
-2.2553 I WENT -0.1761
-0.3010 IDEA </s> -0.3010
-0.3010 IDIOT </s> -0.3010
-0.3010 IDIOTIC </s> -0.3010
-0.9031 IF I -0.2937
-1.3802 IF IT -0.1709
-1.3802 IF SO -0.1891
-0.5351 IF YOU -0.2729
-0.3010 ILLEGAL </s> -0.3010
-0.3010 ILLITERATE PROGRAM -0.0969
-0.3010 IM GOOD -0.1597
-0.3010 IMHO </s> -0.3010
-0.3010 IMITATION GAME -0.0580
-0.3010 IMMORTAL </s> -0.3010
-0.3010 IMPORTANT </s> -0.3010
-0.3010 IMPOSSIBLE </s> -0.3010
-0.3010 IMPRESSIVE </s> -0.3010
-2.1004 IN 1966 0.0000
-2.1004 IN 1976 0.0000
-2.1004 IN 1997 0.0000
-2.1004 IN 1998 0.0000
-2.1004 IN 1999 0.0000
-2.1004 IN 2000 0.0000
-2.1004 IN 3 0.0000
-1.3222 IN </s> -0.3010
-1.1004 IN A -0.2706
-2.1004 IN BED 0.0000
-1.7993 IN COMMON 0.0000
-2.1004 IN DIFFERENT -0.2430
-2.1004 IN ENGLAND 0.0000
-2.1004 IN ENGLISH 0.0000
-2.1004 IN EUROPE 0.0000
-2.1004 IN MATHEMATICS 0.0000
-2.1004 IN MOST -0.2218
-1.1973 IN MY -0.2796
-2.1004 IN OTHER -0.2430
-2.1004 IN REAL -0.2430
-2.1004 IN SAN 0.0000
-2.1004 IN SOME 0.0000
-2.1004 IN THAT -0.2996
-1.1461 IN THE -0.2740
-2.1004 IN THIS -0.2218
-1.6232 IN WHAT -0.2993
-2.1004 IN WHERE -0.2762
-2.1004 IN WHICH 0.0000
-2.1004 IN WONDERLAND 0.0000
-1.7993 IN YOUR -0.2912
-0.3010 INAPPROPRIATE </s> -0.3010
-0.3010 INDIA </s> -0.3010
-0.3010 INDIAN </s> -0.3010
-0.3010 INEVITABLE </s> -0.3010
-0.3010 INFORMATION IS -0.2999
-0.3010 INSIST </s> -0.3010
-0.3010 INTELLECT </s> -0.3010
-0.3010 INTELLECTUAL FUNCTIONS 0.0000
-0.3010 INTELLIGENCE </s> -0.3010
-0.6021 INTELLIGENT </s> -0.3010
-0.6021 INTELLIGENT THAN -0.2430
-0.3010 INTERESTED </s> -0.3010
-0.4771 INTERESTING </s> -0.3010
-1.0792 INTERESTING DEDUCTION 0.0000
-1.0792 INTERESTING EXPLANATION 0.0000
-0.3010 INTO </s> -0.3010
-0.3010 INTRIGUING </s> -0.3010
-0.3010 INTRODUCE </s> -0.3010
-0.3010 INTUITIVE </s> -0.3010
-0.3010 INVENTED </s> -0.3010
-0.3010 IP </s> -0.3010
-2.8808 IS 2X2 0.0000
-2.8808 IS 8 0.0000
-1.8808 IS </s> -0.3010
-1.2087 IS A -0.1682
-2.8808 IS ABSORBING 0.0000
-2.8808 IS AGENT 0.0000
-2.8808 IS AHEM 0.0000
-2.4037 IS AI -0.0378
-2.8808 IS AIML -0.1761
-1.8016 IS ALICE -0.1202
-2.8808 IS ALICEBOT 0.0000
-2.5798 IS ALL -0.1761
-2.8808 IS ALOT 0.0000
-2.8808 IS ALRIGHT 0.0000
-2.8808 IS ALWAYS -0.1761
-2.4037 IS AN -0.2374
-2.8808 IS ARSE 0.0000
-2.8808 IS AWESOME 0.0000
-2.8808 IS BAD -0.2553
-2.4037 IS BARRY 0.0000
-2.4037 IS BEAUTIFUL -0.0969
-2.2788 IS BETTER 0.0000
-2.8808 IS BLUE -0.1249
-2.8808 IS BOLLOCKS 0.0000
-2.5798 IS BORING 0.0000
-2.5798 IS BOTNAME 0.0000
-2.8808 IS BRILLIANT 0.0000
-2.8808 IS CHENEY 0.0000
-2.8808 IS CHEWBACCA 0.0000
-2.8808 IS CHRISTMAS 0.0000
-2.8808 IS CLEAR 0.0000
-2.8808 IS CLEARED 0.0000
-2.8808 IS CLOUDY 0.0000
-2.8808 IS COGITO 0.0000
-2.5798 IS COLD 0.0000
-2.8808 IS COMFORTABLE 0.0000
-2.8808 IS COMPLICATED 0.0000
-2.5798 IS CONFIDENTIAL 0.0000
-2.4037 IS COOL -0.1761
-2.8808 IS CORRECT 0.0000
-2.8808 IS CUTE 0.0000
-2.8808 IS CYBER 0.0000
-2.8808 IS DANCING 0.0000
-2.4037 IS DEAD 0.0000
-2.8808 IS DIFFICULT 0.0000
-2.8808 IS DUMB 0.0000
-2.8808 IS EARLY 0.0000
-2.8808 IS EASTER 0.0000
-2.8808 IS EASY 0.0000
-2.8808 IS ENOUGH 0.0000
-2.8808 IS EXCITING 0.0000
-2.8808 IS FAMOUS 0.0000
-2.8808 IS FEMALE 0.0000
-2.8808 IS FINE -0.0792
-2.8808 IS FRANK 0.0000
-2.8808 IS FULL -0.1761
-2.8808 IS FUN 0.0000
-2.5798 IS FUNNY -0.0580
-2.8808 IS FUTILE 0.0000
-2.8808 IS GENETIC 0.0000
-2.5798 IS GERMAN 0.0000
-2.2788 IS GOOD -0.1427
-2.8808 IS GRASS -0.1761
-2.5798 IS GREAT -0.0792
-2.8808 IS GREEN 0.0000
-2.8808 IS HAL -0.2218
-2.8808 IS HANA 0.0000
-2.8808 IS HARD -0.2218
-2.5798 IS HOT -0.1249
-2.8808 IS HYPERBOLE 0.0000
-2.8808 IS I -0.2736
-2.8808 IS IDIOTIC 0.0000
-2.8808 IS ILLEGAL 0.0000
-2.8808 IS IMMORTAL 0.0000
-2.5798 IS IMPOSSIBLE 0.0000
-2.8808 IS INAPPROPRIATE 0.0000
-2.8808 IS INEVITABLE 0.0000
-2.5798 IS INTERESTING -0.1249
-2.8808 IS INTRIGUING 0.0000
-1.8808 IS IT -0.2626
-2.8808 IS JON 0.0000
-2.8808 IS LATE -0.1761
-2.8808 IS LINGUIST 0.0000
-2.8808 IS LYNX 0.0000
-2.8808 IS MAGICAL 0.0000
-2.8808 IS MAKING -0.1761
-2.5798 IS ME -0.1688
-2.8808 IS MEANINGLESS 0.0000
-2.8808 IS MIKE 0.0000
-1.7047 IS MY -0.2176
-2.8808 IS NEGATIVE -0.1761
-2.8808 IS NEW -0.2688
-2.2788 IS NICE -0.1139
-2.8808 IS NO -0.2553
-2.8808 IS NONE 0.0000
-1.4037 IS NOT -0.1805
-2.8808 IS NUMBER -0.1761
-2.8808 IS OBVIOUS 0.0000
-2.5798 IS OK 0.0000
-2.8808 IS OKAY 0.0000
-2.8808 IS PANDORABOTS 0.0000
-2.8808 IS PERSONAL -0.1761
-2.8808 IS PHILOSOPHER 0.0000
-2.8808 IS POSSIBLE 0.0000
-2.8808 IS PREGNANT 0.0000
-2.8808 IS PRIDE 0.0000
-2.8808 IS PROFOUND 0.0000
-2.8808 IS PROGRAM -0.0969
-2.8808 IS REAL -0.1761
-2.8808 IS RED -0.1761
-2.8808 IS RELAXING 0.0000
-2.5798 IS RICH -0.1249
-2.5798 IS RICHARD 0.0000
-2.8808 IS RIGHT 0.0000
-2.8808 IS RUDE 0.0000
-2.8808 IS RUNNING -0.1761
-2.8808 IS SAGE 0.0000
-2.8808 IS SAM 0.0000
-2.5798 IS SCARY 0.0000
-2.5798 IS SELF 0.0000
-2.8808 IS SHORT 0.0000
-2.8808 IS SICK 0.0000
-2.8808 IS SINGLE 0.0000
-2.8808 IS SLOW 0.0000
-2.8808 IS SO -0.1891
-2.8808 IS STD 0.0000
-2.8808 IS STEREOTYPING 0.0000
-2.8808 IS STRANGE 0.0000
-2.8808 IS STUPID 0.0000
-2.8808 IS SURPRISING 0.0000
-2.8808 IS SWEDISH 0.0000
-2.8808 IS SWEET 0.0000
-2.8808 IS TALL 0.0000
-2.8808 IS TERRIBLE 0.0000
-2.8808 IS THANKSGIVING 0.0000
-2.5798 IS THAT -0.2752
-1.4337 IS THE -0.1902
-2.8808 IS THERE -0.0792
-2.8808 IS THIS -0.2218
-2.8808 IS TOO -0.2688
-2.8808 IS TRUE -0.1249
-2.8808 IS UGLY 0.0000
-2.8808 IS UNLIKELY 0.0000
-2.8808 IS UNSETTLING 0.0000
-2.8808 IS USUALLY 0.0000
-2.8808 IS WARM 0.0000
-2.8808 IS WATER 0.0000
-2.0357 IS WHAT -0.2766
-2.8808 IS WHERE -0.2762
-2.8808 IS WHITE 0.0000
-2.8808 IS WINNING 0.0000
-2.8808 IS WONDERFUL 0.0000
-2.8808 IS WORKING 0.0000
-2.8808 IS WRITING 0.0000
-2.5798 IS WRONG 0.0000
-2.8808 IS XENA 0.0000
-2.8808 IS XML 0.0000
-1.3895 IS YOUR -0.1607
-2.8808 IS YOURS 0.0000
-0.3010 ISP STAND -0.0348
-1.1597 IT </s> -0.3010
-2.5911 IT ALREADY -0.2553
-2.1139 IT CAN -0.2831
-2.5911 IT CLEAN 0.0000
-2.5911 IT COOL -0.2632
-2.1139 IT COULD -0.0969
-2.5911 IT CRAMPED 0.0000
-2.5911 IT DEPEND 0.0000
-2.5911 IT DEPENDS 0.0000
-2.2900 IT DID -0.2326
-2.5911 IT DO -0.2738
-2.1139 IT DOES -0.2670
-2.5911 IT FEELS 0.0000
-2.5911 IT GOES 0.0000
-2.5911 IT GOOD -0.1597
-2.5911 IT HAS 0.0000
-2.5911 IT HOT -0.2218
-2.5911 IT HURT -0.1761
-2.5911 IT HURTS 0.0000
-0.5867 IT IS -0.1629
-2.2900 IT LIKE -0.2331
-2.5911 IT MAKES -0.2688
-2.5911 IT MATTER 0.0000
-2.5911 IT NOT -0.2988
-2.5911 IT OFF -0.1461
-2.5911 IT PAYS 0.0000
-2.5911 IT READS 0.0000
-2.5911 IT REALLY 0.0000
-2.5911 IT RETURNED 0.0000
-2.5911 IT SHOULD -0.2688
-2.5911 IT STAND -0.0348
-2.5911 IT SUCKS 0.0000
-2.5911 IT SURE -0.1761
-2.2900 IT TASTE -0.0969
-2.5911 IT TASTES 0.0000
-2.5911 IT TO -0.2924
-2.5911 IT TRUE -0.2218
-1.2900 IT WAS -0.1032
-2.5911 IT WHAT -0.2827
-2.5911 IT WILL -0.2833
-2.5911 IT YOUR -0.2638
-0.3010 ITCH </s> -0.3010
-0.3010 ITS GREAT -0.0792
-0.3010 ITSELF </s> -0.3010
-0.6021 J </s> -0.3010
-0.6021 J R 0.0000
-0.6021 JARVIS </s> -0.3010
-0.6021 JARVIS R2D2 0.0000
-0.3010 JEEVES </s> -0.3010
-0.3010 JERK </s> -0.3010
-0.6021 JOB </s> -0.3010
-0.6021 JOB IS -0.2999
-0.3010 JOHN LENNON 0.0000
-0.6021 JOHNNY 5 0.0000
-0.6021 JOHNNY FIVE 0.0000
-0.3010 JOKE </s> -0.3010
-0.3010 JON BAER 0.0000
-1.0792 JUST </s> -0.3010
-1.0792 JUST KIDDING 0.0000
-1.0792 JUST ONE -0.1249
-1.0792 JUST SAID -0.2663
-1.0792 JUST THAT -0.2767
-1.0792 JUST TOLD -0.0792
-0.3010 K12 </s> -0.3010
-0.3010 KARL MARX 0.0000
-0.3010 KARNATAKA </s> -0.3010
-0.3010 KIDDING </s> -0.3010
-0.3010 KIDS </s> -0.3010
-0.3010 KILL YOU -0.2785
-0.3010 KILLED </s> -0.3010
-1.7482 KIND </s> -0.3010
-1.7482 KIND IS -0.2970
-0.3332 KIND OF -0.1392
-0.3010 KINDMUSIC </s> -0.3010
-0.3010 KINDS </s> -0.3010
-0.3010 KINECT </s> -0.3010
-0.3010 KINGDOM </s> -0.3010
-0.3010 KISSED ANYTHING -0.0792
-0.9031 KNEW </s> -0.3010
-0.9031 KNEW IT -0.2699
-0.9031 KNEW THAT -0.2767
-0.9031 KNEW YOU -0.2979
-0.3010 KOSOVO </s> -0.3010
-0.3010 KRAFTWERK </s> -0.3010
-0.3010 KUMAR </s> -0.3010
-1.0000 L </s> -0.3010
-1.0000 L FOUNDATION 0.0000
-0.5229 L I -0.2711
-0.3010 LACK HUMAN -0.2041
-0.3010 LALALALA </s> -0.3010
-0.6990 LANGUAGE </s> -0.3010
-0.8239 LANGUAGE ARE -0.1691
-1.3010 LANGUAGE DO -0.1848
-1.0000 LANGUAGE WERE -0.1627
-0.6021 LANGUAGES </s> -0.3010
-0.6021 LANGUAGES DO -0.1848
-0.6021 LAST BOOK -0.2430
-0.6021 LAST NAME -0.1549
-0.6021 LATE </s> -0.3010
-0.6021 LATE FOR -0.2808
-0.3010 LATELY </s> -0.3010
-0.3010 LATEST GOSSIP 0.0000
-0.3010 LAUGH </s> -0.3010
-0.3010 LAWYERS SUCK 0.0000
-0.7782 LEARN </s> -0.3010
-0.7782 LEARN ROBOTICS -0.1761
-0.7782 LEARN TO -0.2881
-0.3010 LEFT </s> -0.3010
-0.3010 LEGS </s> -0.3010
-0.3010 LEMONS </s> -0.3010
-0.3010 LENNON IS -0.2993
-1.2041 LET ME -0.2928
-0.3590 LET US 0.0000
-0.3010 LETTER </s> -0.3010
-0.3010 LEVEL MEASURE 0.0000
-0.3010 LIBRA </s> -0.3010
-0.3010 LIE </s> -0.3010
-0.8451 LIFE </s> -0.3010
-1.1461 LIFE FORM -0.2218
-0.8451 LIFE IS -0.2970
-1.1461 LIFE STINKS 0.0000
-1.1461 LIFE SUCKS 0.0000
-0.7782 LIGHTS </s> -0.3010
-0.7782 LIGHTS OFF -0.1461
-0.7782 LIGHTS ON -0.1249
-0.9266 LIKE </s> -0.3010
-1.0357 LIKE A -0.2876
-1.8808 LIKE ALICE -0.1655
-1.8808 LIKE ALICEBOTS 0.0000
-1.2788 LIKE BEING -0.0792
-1.8808 LIKE CYBELLE 0.0000
-1.8808 LIKE DATA -0.1761
-1.4037 LIKE IT -0.2699
-1.8808 LIKE KRAFTWERK 0.0000
-1.8808 LIKE MICROSOFT -0.1249
-1.0357 LIKE TO -0.2515
-1.5798 LIKE YOU -0.2757
-0.6021 LIKED MOVIES 0.0000
-0.6021 LIKED WHAT -0.2827
-0.3010 LIKEWISE </s> -0.3010
-0.3010 LIMITATIONS </s> -0.3010
-0.3010 LINGUIST </s> -0.3010
-0.3010 LINGUISTIC ENTITY 0.0000
-0.3010 LINKIN PARK 0.0000
-0.3010 LINUX </s> -0.3010
-0.3010 LISTEN TO -0.2924
-0.3010 LISTENING </s> -0.3010
-0.6021 LIVE </s> -0.3010
-0.9031 LIVE IN -0.2651
-0.9031 LIVE WITH -0.2762
-0.3010 LIVERPOOL ENGLAND 0.0000
-0.3010 LIVING ROOM -0.1761
-0.3010 LOCATION </s> -0.3010
-0.3010 LOGIC </s> -0.3010
-0.3010 LOGO </s> -0.3010
-0.3010 LOGS </s> -0.3010
-0.3010 LOL </s> -0.3010
-0.3010 LONDON </s> -0.3010
-1.0792 LONG DO -0.1848
-1.0792 LONG STORY 0.0000
-0.7782 LONG TIME -0.1139
-0.7782 LONG WILL -0.2041
-1.2553 LOOK FINE -0.0792
-1.2553 LOOK FOR -0.2910
-0.5563 LOOK LIKE -0.1984
-1.2553 LOOK NICE -0.1461
-1.2553 LOOK THERE -0.0792
-0.6021 LOOKING </s> -0.3010
-0.6021 LOOKING AT 0.0000
-0.3010 LOOKLIKE </s> -0.3010
-0.3010 LOSE </s> -0.3010
-0.3010 LOST </s> -0.3010
-0.3010 LOT OF -0.2863
-0.3010 LOTS </s> -0.3010
-0.3010 LT </s> -0.3010
-0.3010 LUCAS </s> -0.3010
-0.3010 LYING </s> -0.3010
-0.3010 LYNX </s> -0.3010
-0.6021 M A -0.2996
-0.6021 M J -0.1761
-0.3010 MACHINE </s> -0.3010
-0.3010 MAD </s> -0.3010
-1.0000 MADE A -0.2981
-1.0000 MADE ME -0.2956
-0.8239 MADE OF -0.2813
-0.8239 MADE YOU -0.2780
-0.3010 MAGAZINE </s> -0.3010
-0.3010 MAGICAL </s> -0.3010
-1.1461 MAKE ANY -0.2041
-0.9700 MAKE ME -0.1614
-1.4472 MAKE MISTAKES 0.0000
-1.4472 MAKE NO -0.2553
-0.7482 MAKE SENSE -0.0322
-1.4472 MAKE THE -0.2962
-1.4472 MAKE UP -0.2430
-1.4472 MAKES IT -0.2999
-1.4472 MAKES NO -0.2041
-1.1461 MAKES SENSE -0.0322
-1.4472 MAKES THE -0.2986
-0.4929 MAKES YOU -0.2904
-0.6021 MAKING NOISES 0.0000
-0.6021 MAKING SENSE -0.0322
-0.3010 MALAYSIA </s> -0.3010
-0.3010 MALFUCTION </s> -0.3010
-0.3010 MALFUNCTION </s> -0.3010
-1.0792 MANY </s> -0.3010
-1.3802 MANY AI -0.1047
-1.3802 MANY ALICE -0.1655
-1.3802 MANY ALICEBOTS 0.0000
-1.3802 MANY ALICES 0.0000
-1.3802 MANY KINDS 0.0000
-1.3802 MANY MINUTES 0.0000
-1.3802 MANY PROGRAMMERS 0.0000
-1.3802 MANY THINGS 0.0000
-1.3802 MANY TIMES 0.0000
-1.3802 MANY WORDS -0.1761
-0.3010 MARS </s> -0.3010
-0.3010 MARX </s> -0.3010
-0.3010 MASSIVE </s> -0.3010
-0.3010 MASTER </s> -0.3010
-0.3010 MATHEMATICS </s> -0.3010
-0.3010 MATTER </s> -0.3010
-0.6021 MAY </s> -0.3010
-0.6021 MAY THE -0.2986
-0.5809 ME </s> -0.3010
-1.3590 ME A -0.2800
-1.6021 ME ABOUT -0.2445
-2.2041 ME ADVICE 0.0000
-2.2041 ME AND -0.2808
-1.9031 ME ANOTHER -0.0792
-2.2041 ME ANYTHING -0.2553
-2.2041 ME BEFORE -0.0669
-2.2041 ME BOTNAME 0.0000
-2.2041 ME CRY 0.0000
-2.2041 ME EITHER 0.0000
-2.2041 ME LAUGH 0.0000
-2.2041 ME MORE -0.2430
-2.2041 ME NEITHER 0.0000
-2.2041 ME ON -0.1249
-2.2041 ME QUESTIONS 0.0000
-2.2041 ME REPHRASE 0.0000
-2.2041 ME SAD 0.0000
-2.2041 ME SICK 0.0000
-2.2041 ME SOMETHING -0.2041
-1.9031 ME TEACH 0.0000
-1.9031 ME THAT -0.2767
-1.9031 ME THE -0.2962
-2.2041 ME TO -0.2924
-2.2041 ME TOO -0.0580
-2.2041 ME YOUR -0.2978
-0.5351 MEAN </s> -0.3010
-1.3802 MEAN ANYTHING -0.0792
-1.3802 MEAN IN -0.2976
-1.3802 MEAN IT -0.2699
-1.3802 MEAN ME -0.1688
-1.3802 MEAN YOU -0.2993
-0.3010 MEANING </s> -0.3010
-0.3010 MEANINGLESS </s> -0.3010
-0.3010 MEANS </s> -0.3010
-0.3010 MEANT </s> -0.3010
-0.3010 MEASURE </s> -0.3010
-0.3010 MEET YOU -0.2775
-0.3010 MEMORY </s> -0.3010
-0.7782 MET BEFORE -0.0669
-0.7782 MET ME -0.2983
-0.7782 MET SALLY 0.0000
-0.3010 MICROCHIPS MADE -0.2304
-0.4771 MICROSOFT </s> -0.3010
-0.7782 MICROSOFT MONOPOLY 0.0000
-0.3010 MIDDLE NAME -0.1549
-0.3010 MIGHT </s> -0.3010
-0.3010 MIKE </s> -0.3010
-0.3010 MIND </s> -0.3010
-0.6021 MINE </s> -0.3010
-0.9031 MINE IS -0.3005
-0.9031 MINE TOO -0.0580
-0.3010 MINERAL </s> -0.3010
-0.3010 MINUTES </s> -0.3010
-0.3010 MISS ME -0.1688
-0.3010 MISSED MY -0.2984
-0.3010 MISSING </s> -0.3010
-0.3010 MISTAKE </s> -0.3010
-0.3010 MISTAKES </s> -0.3010
-0.3010 MISUNDERSTOOD </s> -0.3010
-0.3010 MODI </s> -0.3010
-0.3010 MOM IS -0.2993
-0.3010 MOMENT </s> -0.3010
-0.3010 MONEY </s> -0.3010
-0.3010 MONOPOLY </s> -0.3010
-0.9031 MORE </s> -0.3010
-0.9031 MORE INTELLIGENT -0.1761
-0.9031 MORE QUESTIONS 0.0000
-0.9031 MORE TARGETS 0.0000
-0.3010 MORNING </s> -0.3010
-0.7782 MOST INTELLIGENT -0.1761
-0.7782 MOST OF -0.2962
-0.7782 MOST WAYS 0.0000
-0.4260 MOTHER </s> -0.3010
-0.9031 MOTHER DIED 0.0000
-0.7782 MOVE </s> -0.3010
-1.0792 MOVE BACK -0.1761
-1.0792 MOVE BACKWARD 0.0000
-1.0792 MOVE FORWARD 0.0000
-1.0792 MOVE STRAIGHT 0.0000
-0.4472 MOVIE </s> -0.3010
-1.1461 MOVIE A -0.2951
-1.1461 MOVIE ARTIFICIAL -0.1761
-0.3010 MOVIE? </s> -0.3010
-0.3010 MOVIES </s> -0.3010
-0.3010 MOZILLA </s> -0.3010
-0.3010 MR ROBOT -0.0969
-0.6021 MUCH </s> -0.3010
-1.0792 MUCH DOWN 0.0000
-0.7782 MUCH IS -0.2847
-0.3010 MUSIC </s> -0.3010
-0.6021 MUST DIE 0.0000
-0.6021 MUST NOT -0.2988
-0.3010 MXMVII MEAN -0.1513
-2.2201 MY ASS 0.0000
-2.2201 MY ASTROLOGICAL 0.0000
-2.2201 MY BACK -0.1761
-2.2201 MY BALLS 0.0000
-2.2201 MY BED 0.0000
-2.2201 MY BLUE -0.2218
-2.2201 MY BOYFRIEND -0.2553
-2.2201 MY BRAIN 0.0000
-2.2201 MY BROTHER 0.0000
-2.2201 MY BUTT 0.0000
-2.2201 MY CASE 0.0000
-2.2201 MY CHAIR 0.0000
-2.2201 MY COCK 0.0000
-2.2201 MY COMPUTER -0.2863
-2.2201 MY DAD 0.0000
-2.2201 MY DOG 0.0000
-1.5211 MY EYES 0.0000
-1.9191 MY FATHER 0.0000
-2.2201 MY FEELINGS -0.0969
-1.9191 MY FINAL 0.0000
-2.2201 MY FRIEND 0.0000
-2.2201 MY FRIENDS 0.0000
-2.2201 MY FUTURE 0.0000
-1.7430 MY GIRLFRIEND 0.0000
-2.2201 MY HAIR -0.1461
-2.2201 MY HEAD 0.0000
-2.2201 MY HOME 0.0000
-2.2201 MY HOUSE 0.0000
-1.7430 MY JOB 0.0000
-1.9191 MY LIFE -0.1963
-2.2201 MY LIVING 0.0000
-2.2201 MY MEANING 0.0000
-2.2201 MY MOM 0.0000
-1.9191 MY MOTHER 0.0000
-1.1062 MY NAME -0.0580
-2.2201 MY OFFICE 0.0000
-2.2201 MY OPINION 0.0000
-2.2201 MY PARENTS 0.0000
-2.2201 MY PENIS 0.0000
-2.2201 MY PEOPLE -0.1091
-2.2201 MY PERMISSION 0.0000
-1.9191 MY PLEASURE 0.0000
-2.2201 MY POINT 0.0000
-2.2201 MY PURPOSE 0.0000
-2.2201 MY QUESTION 0.0000
-2.2201 MY ROOM -0.1761
-1.9191 MY SHIRT 0.0000
-2.2201 MY SIGN 0.0000
-1.9191 MY SISTER 0.0000
-2.2201 MY SPARE 0.0000
-2.2201 MY SPECIES 0.0000
-2.2201 MY TEACHER 0.0000
-2.2201 MY TERMINAL 0.0000
-1.9191 MY WHAT -0.2827
-2.2201 MY WIFE 0.0000
-0.3010 MYSELF </s> -0.3010
-0.3010 MYSORE </s> -0.3010
-0.5441 NAME </s> -0.3010
-1.7482 NAME BOTNAME 0.0000
-0.9031 NAME IS -0.2818
-1.7482 NAME IT -0.2699
-1.7482 NAME MEAN -0.1513
-1.7482 NAME STAND -0.0348
-1.7482 NAME WRONG -0.0792
-0.4771 NAMED </s> -0.3010
-0.7782 NAMED BOTNAME 0.0000
-0.6021 NAMES </s> -0.3010
-0.6021 NAMES OF -0.2913
-0.3010 NAPSTER </s> -0.3010
-0.3010 NARENDRA MODI 0.0000
-0.3010 NATIONAL SECURITY 0.0000
-0.6021 NATIONALITY </s> -0.3010
-0.6021 NATIONALITY WAS -0.2957
-0.3010 NDEVELOPERS </s> -0.3010
-0.7782 NEED MY -0.2984
-0.7782 NEED REPROGRAMMING 0.0000
-0.7782 NEED REST 0.0000
-0.6021 NEGATIVE </s> -0.3010
-0.6021 NEGATIVE CONNECTOR 0.0000
-0.3010 NEITHER </s> -0.3010
-1.0792 NEVER </s> -0.3010
-1.0792 NEVER CRY 0.0000
-1.0792 NEVER HAPPEN 0.0000
-0.7782 NEVER THINK -0.2083
-1.0792 NEVER UNDERSTAND -0.1761
-1.1461 NEW </s> -0.3010
-1.1461 NEW NAME -0.2430
-1.1461 NEW QUESTION 0.0000
-1.1461 NEW STAR -0.2139
-0.6690 NEW YORK 0.0000
-0.6021 NEXT GENERATION 0.0000
-0.6021 NEXT QUESTION 0.0000
-0.3010 NEXUS </s> -0.3010
-0.5229 NICE </s> -0.3010
-1.3010 NICE DAY -0.1249
-1.3010 NICE SONG 0.0000
-1.3010 NICE TALKING -0.1761
-1.3010 NICE TO -0.2924
-0.3010 NIGHT </s> -0.3010
-0.3010 NIGHTMARES </s> -0.3010
-0.6990 NO </s> -0.3010
-1.0000 NO EARS 0.0000
-1.0000 NO FUN 0.0000
-1.0000 NO SENSE -0.0322
-0.3010 NOISES </s> -0.3010
-0.3010 NONE OF -0.2913
-1.1505 NOT </s> -0.3010
-1.5185 NOT A -0.2784
-2.2967 NOT ACT 0.0000
-2.2967 NOT ALLOWED 0.0000
-2.2967 NOT AN -0.2808
-1.5977 NOT ANSWER 0.0000
-1.9956 NOT ASK -0.1568
-2.2967 NOT BE -0.2852
-2.2967 NOT CLONE 0.0000
-2.2967 NOT COUNT 0.0000
-2.2967 NOT CRITICISM 0.0000
-2.2967 NOT DANGEROUS 0.0000
-2.2967 NOT EASY 0.0000
-2.2967 NOT EXIST 0.0000
-2.2967 NOT FAIR -0.1761
-1.8195 NOT FUNNY -0.0580
-2.2967 NOT GOSSIP 0.0000
-1.5977 NOT HAVE -0.2642
-2.2967 NOT HELPFUL 0.0000
-2.2967 NOT I -0.2986
-2.2967 NOT IMMORTAL 0.0000
-1.9956 NOT IMPORTANT 0.0000
-2.2967 NOT INTUITIVE 0.0000
-2.2967 NOT LEARN -0.2218
-2.2967 NOT LIKE -0.2953
-2.2967 NOT LOGIC 0.0000
-1.5977 NOT MAKE -0.1761
-2.2967 NOT MAKING -0.1761
-2.2967 NOT MANY -0.2632
-1.9956 NOT MATTER 0.0000
-2.2967 NOT ME -0.1688
-2.2967 NOT MIND 0.0000
-2.2967 NOT MOVE -0.2218
-1.9956 NOT MY -0.2628
-2.2967 NOT NEED -0.2218
-1.9956 NOT NICE -0.1461
-2.2967 NOT OBEY 0.0000
-2.2967 NOT OLD 0.0000
-2.2967 NOT QUESTION 0.0000
-2.2967 NOT REASON 0.0000
-2.2967 NOT REMEMBER -0.2596
-2.2967 NOT SAY -0.1526
-1.8195 NOT SEE -0.1891
-2.2967 NOT SOUND -0.2632
-2.2967 NOT TALK -0.2894
-2.2967 NOT THE -0.2938
-2.2967 NOT TRUE -0.1249
-1.9956 NOT UNDERSTAND -0.1383
-2.2967 NOT WANT -0.1761
-1.6946 NOT WHAT -0.2952
-2.2967 NOT WORK -0.1761
-1.6946 NOT YOU -0.2794
-2.2967 NOT YOUR -0.2978
-0.3010 NOTES </s> -0.3010
-0.3010 NOTHING </s> -0.3010
-0.6021 NUMBER </s> -0.3010
-0.6021 NUMBER ONE -0.1249
-0.3010 OBEY ME -0.1688
-0.3010 OBVIOUS </s> -0.3010
-0.3010 OBVIOUSLY </s> -0.3010
-0.3010 OCEAN </s> -0.3010
-1.3522 OF </s> -0.3010
-1.9542 OF A -0.2906
-1.9542 OF BEING -0.2553
-1.9542 OF BOOKS 0.0000
-1.9542 OF BOTNAME 0.0000
-1.9542 OF CAT 0.0000
-1.9542 OF CATS 0.0000
-1.2553 OF COMPUTER -0.0544
-1.9542 OF CONDITIONS 0.0000
-1.9542 OF CONTEXT 0.0000
-1.9542 OF CREATURE 0.0000
-1.9542 OF DIFFICULTIES 0.0000
-1.9542 OF DRESS -0.0969
-1.9542 OF DYING 0.0000
-1.9542 OF ELECTRICITY 0.0000
-1.9542 OF EXPERIENCE 0.0000
-1.9542 OF EXPERIENCES 0.0000
-1.9542 OF FUN 0.0000
-1.9542 OF HARDWARE 0.0000
-1.9542 OF HORSES 0.0000
-1.9542 OF LOGS 0.0000
-1.9542 OF MOVIES 0.0000
-1.9542 OF NEW -0.1963
-1.6532 OF PEOPLE -0.1091
-1.9542 OF PET 0.0000
-1.9542 OF PETS 0.0000
-1.9542 OF PLAN -0.1761
-1.9542 OF PRACTICE 0.0000
-1.6532 OF SPEECH 0.0000
-1.9542 OF STORY 0.0000
-1.9542 OF THE -0.2986
-1.9542 OF THINGS 0.0000
-1.9542 OF THOSE 0.0000
-1.9542 OF WHAT -0.2827
-1.6532 OF YOUR -0.2912
-0.5229 OFF </s> -0.3010
-1.0000 OFF WORK -0.1761
-1.0000 OFF YOUR -0.2978
-0.3010 OFFEND YOU -0.2785
-0.3010 OFFICE </s> -0.3010
-0.3010 OFTEN </s> -0.3010
-0.6021 OH WELL -0.1091
-0.6021 OH YES 0.0000
-0.3010 OK </s> -0.3010
-0.3010 OKAY </s> -0.3010
-0.3010 OLD </s> -0.3010
-0.4771 ON </s> -0.3010
-1.3802 ON ALICE -0.1655
-1.0792 ON THE -0.2962
-1.3802 ON YOU -0.2785
-0.4771 ONE </s> -0.3010
-1.3802 ONE OF -0.2962
-1.3802 ONE THOUSAND -0.1761
-1.3802 ONE WHAT -0.2827
-1.3802 ONE YEAR -0.1249
-0.3010 ONES </s> -0.3010
-0.3010 ONLINE </s> -0.3010
-0.6021 ONLY AI -0.1047
-0.6021 ONLY NAME -0.1549
-0.3010 OPERA </s> -0.3010
-0.3010 OPINION </s> -0.3010
-0.6021 OR SISTERS 0.0000
-0.6021 OR THE -0.2986
-0.3010 ORANGE </s> -0.3010
-0.3010 ORANGES </s> -0.3010
-0.3010 ORDER </s> -0.3010
-0.3010 ORIENTATION </s> -0.3010
-0.3010 OS </s> -0.3010
-0.9031 OTHER </s> -0.3010
-0.9031 OTHER ONES 0.0000
-0.9031 OTHER PEOPLE -0.2688
-0.9031 OTHER WORDS -0.1761
-0.3010 OTHERS LIKE -0.2894
-0.3010 OUCH </s> -0.3010
-0.5229 OUT </s> -0.3010
-0.6990 OUT ABOUT -0.2737
-0.7782 OVER 30 -0.1761
-0.7782 OVER </s> -0.3010
-0.7782 OVER THERE -0.0792
-0.3010 P </s> -0.3010
-0.3010 PAID </s> -0.3010
-0.3010 PANDORA S -0.2218
-0.3010 PANDORABOTS </s> -0.3010
-0.3010 PANTS </s> -0.3010
-0.3010 PARADOX </s> -0.3010
-0.3010 PARAMETERS </s> -0.3010
-0.3010 PARENTS </s> -0.3010
-0.3010 PARK </s> -0.3010
-0.3010 PART </s> -0.3010
-0.3010 PARTNER </s> -0.3010
-0.3010 PARTY </s> -0.3010
-0.3010 PAYS </s> -0.3010
-0.3010 PC INVENTED 0.0000
-0.3010 PEANUTS </s> -0.3010
-0.3010 PEEK A -0.2996
-0.3010 PENIS </s> -0.3010
-0.4472 PEOPLE </s> -0.3010
-1.1461 PEOPLE ASKING -0.2218
-1.1461 PEOPLE SAY -0.1526
-0.3010 PERHAPS </s> -0.3010
-0.3010 PERMISSION </s> -0.3010
-0.3010 PERSON </s> -0.3010
-0.6021 PERSONAL </s> -0.3010
-0.6021 PERSONAL QUESTION 0.0000
-0.3010 PET </s> -0.3010
-0.3010 PETS </s> -0.3010
-0.3010 PH LEVEL 0.0000
-0.3010 PHD </s> -0.3010
-0.3010 PHILADELPHIA </s> -0.3010
-0.3010 PHILOSOPHER </s> -0.3010
-0.3010 PHYLUM </s> -0.3010
-0.3010 PI TO -0.2968
-0.4771 PICK A -0.2981
-0.7782 PICK ONE -0.1249
-0.3010 PICTURE </s> -0.3010
-0.3010 PIE </s> -0.3010
-0.3010 PIGS FLY 0.0000
-0.3010 PINK </s> -0.3010
-0.3010 PISCES </s> -0.3010
-0.3010 PITY </s> -0.3010
-0.3010 PLACE </s> -0.3010
-0.3010 PLACES </s> -0.3010
-0.6021 PLAN </s> -0.3010
-0.9031 PLAN FOR -0.2910
-0.9031 PLAN TO -0.2881
-0.3010 PLANET ARE -0.1691
-0.3010 PLANETS </s> -0.3010
-0.9031 PLAY </s> -0.3010
-0.6021 PLAY A -0.2966
-0.9031 PLAY CHESS 0.0000
-0.3010 PLAYING </s> -0.3010
-0.3010 PLEASE GO -0.2688
-0.3010 PLEASED TO -0.2924
-0.3010 PLEASURE </s> -0.3010
-0.3010 PM ME -0.1688
-0.3010 POINT </s> -0.3010
-0.3010 POOPOO </s> -0.3010
-0.3010 PORN </s> -0.3010
-0.3010 POSSIBLE </s> -0.3010
-0.3010 PRACTICE </s> -0.3010
-0.3010 PREGNANT </s> -0.3010
-0.3010 PRESIDENT </s> -0.3010
-0.3010 PRIDE </s> -0.3010
-0.3010 PRIVATE TIME -0.2788
-0.3010 PRO BONO 0.0000
-0.3010 PROBLEM </s> -0.3010
-0.3010 PROBLEMS </s> -0.3010
-0.3010 PRODUCT </s> -0.3010
-0.3010 PROFOUND </s> -0.3010
-0.4260 PROGRAM </s> -0.3010
-0.9031 PROGRAM YOU -0.2785
-0.3010 PROGRAMMED IN -0.2798
-0.3010 PROGRAMMERS </s> -0.3010
-0.6021 PROGRAMMING </s> -0.3010
-0.6021 PROGRAMMING LANGUAGE -0.2041
-0.3010 PROKARYOTE </s> -0.3010
-0.3010 PROMISE </s> -0.3010
-0.3010 PUP </s> -0.3010
-0.3010 PURPOSE </s> -0.3010
-0.6021 PYRAMID </s> -0.3010
-0.6021 PYRAMID LOGO 0.0000
-0.3010 PYTHON </s> -0.3010
-0.3010 QUESTION </s> -0.3010
-0.3010 QUESTIONS </s> -0.3010
-0.3010 R TOLKEIN 0.0000
-0.3010 R2D2 </s> -0.3010
-0.3010 RATHER TALK -0.1362
-0.6021 READ </s> -0.3010
-0.6021 READ ALICE -0.1655
-0.3010 READS </s> -0.3010
-0.6021 REAL </s> -0.3010
-0.9031 REAL PERSON 0.0000
-0.9031 REAL TIME -0.1139
-0.3010 REALLY IS -0.2953
-0.3010 REASON </s> -0.3010
-0.3010 REASONING FORM -0.2218
-0.6021 RED </s> -0.3010
-0.6021 RED SOX 0.0000
-0.3010 REGARDS </s> -0.3010
-0.3010 RELATED TO -0.2924
-0.3010 RELATIVES </s> -0.3010
-0.3010 RELAX </s> -0.3010
-0.3010 RELAXING </s> -0.3010
-0.3010 RELIGION </s> -0.3010
-0.3010 REM STAND -0.0348
-0.6435 REMEMBER </s> -0.3010
-1.3424 REMEMBER ABOUT -0.2848
-1.3424 REMEMBER ALICE -0.1655
-1.0414 REMEMBER ME -0.1688
-1.3424 REMEMBER MY -0.2656
-1.3424 REMEMBER WHAT -0.2827
-0.3010 REMEMBERED </s> -0.3010
-0.3010 REPHRASE </s> -0.3010
-0.3010 REPLACE </s> -0.3010
-0.3010 REPLY YET 0.0000
-0.3010 REPROGRAMMING </s> -0.3010
-0.3010 RESEARCH ROBOT -0.1112
-0.3010 RESISTANCE IS -0.3005
-0.3010 REST </s> -0.3010
-0.3010 RETURNED </s> -0.3010
-0.3010 RHYMES WITH -0.2218
-0.4771 RICH </s> -0.3010
-0.7782 RICH SAY -0.1526
-0.3010 RICHARD WALLACE 0.0000
-0.3010 RIDDLE </s> -0.3010
-0.3010 RIGHT </s> -0.3010
-0.3010 ROAD </s> -0.3010
-0.3010 ROBIN COOK 0.0000
-0.3010 ROBOCOP </s> -0.3010
-1.6812 ROBOT 0.1 0.0000
-0.4508 ROBOT </s> -0.3010
-1.3802 ROBOT BODY 0.0000
-1.6812 ROBOT FRIENDS 0.0000
-1.3802 ROBOT I -0.2962
-1.6812 ROBOT PARTY 0.0000
-0.6021 ROBOTICS </s> -0.3010
-0.6021 ROBOTICS IN -0.2976
-1.2041 ROBOTS </s> -0.3010
-0.7270 ROBOTS ARE -0.2888
-0.9031 ROBOTS HAVE -0.2956
-1.2041 ROBOTS LAUGH 0.0000
-1.2041 ROBOTS SHOULD -0.2688
-0.3010 ROCK </s> -0.3010
-0.3010 ROCKY </s> -0.3010
-0.6021 ROOM </s> -0.3010
-0.6021 ROOM TEMPERATURE 0.0000
-0.7782 ROS </s> -0.3010
-0.4771 ROS ROBOT -0.1112
-0.6021 ROTATE LEFT 0.0000
-0.6021 ROTATE RIGHT 0.0000
-0.3010 RUBY </s> -0.3010
-0.3010 RUDE </s> -0.3010
-0.3010 RULE </s> -0.3010
-0.3010 RUN ON -0.1249
-0.6021 RUNNING </s> -0.3010
-0.6021 RUNNING ON -0.1249
-0.7782 S BOX 0.0000
-0.7782 S H 0.0000
-0.7782 S STAND -0.0348
-0.3010 SAD </s> -0.3010
-0.3010 SAGE </s> -0.3010
-0.3010 SAGGITARIUS </s> -0.3010
-1.1139 SAID </s> -0.3010
-1.1139 SAID IT -0.2687
-1.4150 SAID NOTHING 0.0000
-1.1139 SAID SO -0.1627
-1.1139 SAID THAT -0.2752
-0.8129 SAID YOU -0.2849
-0.3010 SALLY </s> -0.3010
-0.3010 SAM </s> -0.3010
-0.6021 SAME </s> -0.3010
-1.0792 SAME BOTNAME 0.0000
-1.0792 SAME THING 0.0000
-1.0792 SAME TO -0.2881
-0.3010 SAN FRANCISCO 0.0000
-0.3010 SAPIENS </s> -0.3010
-0.3010 SARCASM </s> -0.3010
-0.5384 SAY </s> -0.3010
-1.5798 SAY BEFORE -0.0669
-1.5798 SAY MY -0.2656
-1.5798 SAY SO -0.1891
-1.5798 SAY SOMETHING -0.1461
-0.9777 SAY THAT -0.2767
-0.3979 SAYING </s> -0.3010
-1.0000 SAYING THAT -0.2767
-0.3010 SAYS </s> -0.3010
-0.3010 SCARE ME -0.1688
-0.3010 SCARY </s> -0.3010
-0.3010 SCHOOL </s> -0.3010
-0.3010 SCORPIO </s> -0.3010
-0.3010 SCREW YOU -0.2785
-0.3010 SEAHAWKS </s> -0.3010
-0.3010 SEARCH </s> -0.3010
-0.3010 SEARCHED </s> -0.3010
-0.3010 SEARCHING </s> -0.3010
-0.3010 SEATTLE </s> -0.3010
-0.3010 SECRET </s> -0.3010
-0.3010 SECURITY </s> -0.3010
-0.8653 SEE </s> -0.3010
-1.3424 SEE A -0.2996
-1.3424 SEE CONTACT 0.0000
-1.0414 SEE IT -0.2699
-1.3424 SEE ME -0.1688
-1.3424 SEE ROBOCOP 0.0000
-1.3424 SEE STAR -0.2139
-1.3424 SEE STARSHIP 0.0000
-0.3010 SEEKING </s> -0.3010
-0.3010 SEEM LIKE -0.2591
-0.3010 SEEMS LIKE -0.2591
-1.3424 SEEN 2001 0.0000
-1.3424 SEEN A -0.2951
-1.3424 SEEN CATS 0.0000
-1.3424 SEEN IT -0.2699
-1.0414 SEEN STAR 0.0000
-1.3424 SEEN TERMINATOR 0.0000
-1.3424 SEEN THAT -0.2996
-0.8653 SEEN THE -0.2914
-0.3010 SELF EVIDENT 0.0000
-0.3010 SELLING </s> -0.3010
-0.3358 SENSE </s> -0.3010
-1.4150 SENSE OF -0.2962
-0.3010 SERENITY </s> -0.3010
-0.3010 SEVENTIES </s> -0.3010
-0.3010 SEVERAL TIMES 0.0000
-0.3010 SEX </s> -0.3010
-0.3010 SEXUAL </s> -0.3010
-0.3010 SHAME </s> -0.3010
-1.5051 SHE </s> -0.3010
-1.5051 SHE DIED 0.0000
-0.4260 SHE IS -0.2769
-1.5051 SHE SAY -0.1526
-1.5051 SHE TOLD -0.0792
-0.3010 SHEESH </s> -0.3010
-0.3010 SHIRT </s> -0.3010
-0.3010 SHOE SIZE -0.1249
-0.3010 SHOES </s> -0.3010
-0.3010 SHORT </s> -0.3010
-1.1461 SHOULD </s> -0.3010
-1.4472 SHOULD BE -0.2341
-1.1461 SHOULD DIE 0.0000
-1.4472 SHOULD GET -0.2688
-0.7482 SHOULD I -0.2361
-1.4472 SHOULD RELAX 0.0000
-1.4472 SHOULD REMEMBER -0.1891
-1.4472 SHOULD SEE -0.2596
-1.0000 SHOW APPLET 0.0000
-1.0000 SHOW CALCULATOR 0.0000
-0.5229 SHOW ME -0.1383
-0.3010 SICK </s> -0.3010
-0.3010 SIGN </s> -0.3010
-0.3010 SILVER </s> -0.3010
-0.3010 SIMILARITY </s> -0.3010
-0.3010 SIMULATION </s> -0.3010
-0.6021 SING </s> -0.3010
-0.9031 SING A -0.2981
-0.9031 SING WELL -0.1091
-0.3010 SINGLE </s> -0.3010
-0.3010 SISTER </s> -0.3010
-0.3010 SISTERS </s> -0.3010
-0.3010 SITE </s> -0.3010
-0.4771 SIZE </s> -0.3010
-0.7782 SIZE ARE -0.2798
-0.3010 SKIN </s> -0.3010
-0.3010 SKY </s> -0.3010
-0.4771 SLEEP </s> -0.3010
-0.7782 SLEEP WELL -0.1091
-0.3010 SLOW </s> -0.3010
-0.6021 SMART </s> -0.3010
-0.6021 SMART ANSWER -0.0969
-0.9031 SMARTER </s> -0.3010
-0.4260 SMARTER THAN -0.1761
-0.3010 SMARTEST </s> -0.3010
-0.6021 SMELL </s> -0.3010
-0.6021 SMELL LIKE -0.2591
-0.3010 SMELLS LIKE -0.2463
-0.6435 SO </s> -0.3010
-1.3424 SO CERTAIN 0.0000
-1.3424 SO HARD -0.1249
-1.3424 SO IS -0.3005
-1.0414 SO WHAT -0.2429
-1.3424 SO YOURSELF 0.0000
-0.3010 SODA </s> -0.3010
-0.3010 SOFTWARE </s> -0.3010
-0.3010 SOME WAYS 0.0000
-0.5229 SOMETHING </s> -0.3010
-0.6990 SOMETHING ELSE -0.2304
-0.3010 SOMEWHERE </s> -0.3010
-0.3010 SONATA </s> -0.3010
-0.3010 SONG </s> -0.3010
-0.3010 SOON </s> -0.3010
-0.3010 SORT OF -0.2813
-1.0792 SOUND COMPLICATED 0.0000
-1.0792 SOUND DIFFERENT -0.2430
-1.0792 SOUND INTERESTED 0.0000
-1.0792 SOUND LIKE -0.2953
-1.0792 SOUND MAD 0.0000
-1.0792 SOUND REAL -0.1761
-0.6021 SOUNDS BORING 0.0000
-0.6021 SOUNDS INTERESTING -0.1249
-0.3010 SOUTH AMERICA -0.1761
-0.3010 SOX </s> -0.3010
-0.3010 SPARE TIME -0.1139
-0.5229 SPEAK </s> -0.3010
-1.0000 SPEAK ENGLISH 0.0000
-1.0000 SPEAK TO -0.2924
-0.3010 SPECIAL EFFECTS 0.0000
-0.3010 SPECIES </s> -0.3010
-0.3010 SPEECH </s> -0.3010
-0.3010 SPORT </s> -0.3010
-0.3010 SPORTS </s> -0.3010
-1.3802 STAND </s> -0.3010
-0.3388 STAND FOR -0.1627
-0.4973 STAR TREK 0.0000
-0.7404 STAR WARS 0.0000
-0.3010 STARSHIP TROOPERS 0.0000
-0.3010 START </s> -0.3010
-0.3010 STATE </s> -0.3010
-0.3010 STATEMENT </s> -0.3010
-0.3010 STD </s> -0.3010
-0.3010 STEREOTYPING </s> -0.3010
-0.3010 STILL SEARCHING 0.0000
-0.3010 STINK </s> -0.3010
-0.3010 STINKS </s> -0.3010
-0.7782 STOP </s> -0.3010
-1.2553 STOP CHANGING 0.0000
-1.2553 STOP IT -0.2699
-1.2553 STOP LYING 0.0000
-1.2553 STOP SAYING -0.2553
-1.2553 STOP TALKING -0.1761
-1.2553 STOP WHAT -0.2827
-0.3010 STORY </s> -0.3010
-0.3010 STRAIGHT </s> -0.3010
-0.3010 STRANGE </s> -0.3010
-0.3010 STUPID </s> -0.3010
-0.3010 STUPIDITY </s> -0.3010
-0.3010 SUBJECT </s> -0.3010
-0.3010 SUBMIT </s> -0.3010
-0.3010 SUCK </s> -0.3010
-0.3010 SUCKS </s> -0.3010
-0.3010 SUGAR TASTE -0.1761
-0.6021 SUGGEST </s> -0.3010
-0.6021 SUGGEST TO -0.2881
-0.3010 SUHAS </s> -0.3010
-0.3010 SUM </s> -0.3010
-0.3010 SUN </s> -0.3010
-0.6021 SURE DO -0.2738
-0.6021 SURE IS -0.2953
-0.3010 SURPRISING </s> -0.3010
-0.3010 SURPRISINGLY </s> -0.3010
-0.3010 SWEDISH </s> -0.3010
-0.3010 SWEET </s> -0.3010
-0.3010 SWIM </s> -0.3010
-0.3010 TAHR </s> -0.3010
-1.1461 TAKE CARE 0.0000
-1.1461 TAKE IT -0.2999
-1.1461 TAKE ME -0.1688
-1.1461 TAKE NOTES 0.0000
-1.1461 TAKE OFF -0.2553
-1.1461 TAKE WHAT -0.2827
-1.1461 TAKE YOUR -0.2978
-1.1027 TALK </s> -0.3010
-0.5006 TALK ABOUT -0.1866
-1.5798 TALK DIRTY 0.0000
-1.5798 TALK FINE -0.0792
-1.5798 TALK MUCH -0.1761
-1.5798 TALK TO -0.2968
-0.4771 TALKED </s> -0.3010
-0.7782 TALKED WITH -0.2762
-0.6021 TALKING </s> -0.3010
-0.6021 TALKING TO -0.2881
-0.3010 TALL </s> -0.3010
-0.3010 TARGETS DO -0.2738
-0.9031 TASTE </s> -0.3010
-0.9031 TASTE GOOD -0.1597
-0.6021 TASTE LIKE -0.2463
-0.3010 TASTES GOOD -0.1597
-0.3010 TAURUS </s> -0.3010
-0.3010 TEACH YOU -0.2780
-0.3010 TEACHER </s> -0.3010
-0.3010 TECHNO </s> -0.3010
-0.3010 TELEPHONE INVENTED 0.0000
-1.1461 TELL HIM -0.0969
-0.3680 TELL ME -0.1538
-0.3010 TEMPERATURE </s> -0.3010
-0.3010 TEMPLATE </s> -0.3010
-0.3010 TERMINAL </s> -0.3010
-0.3010 TERMINATOR </s> -0.3010
-0.3010 TERRIBLE </s> -0.3010
-0.3010 TEST BOTNAME 0.0000
-1.2041 THAN A -0.2981
-1.2041 THAN ALICE -0.1655
-1.2041 THAN ELIZA -0.0378
-1.2041 THAN HUMANS 0.0000
-0.9031 THAN ME -0.1688
-0.9031 THAN YOU -0.2785
-0.3010 THANK YOU -0.2780
-0.3010 THANKSGIVING </s> -0.3010
-1.2642 THAT </s> -0.3010
-2.4683 THAT BEFORE -0.0669
-2.4683 THAT CASE 0.0000
-2.4683 THAT DEPENDS 0.0000
-2.4683 THAT DID -0.2482
-1.9912 THAT DOES -0.2714
-2.4683 THAT HAVE -0.2900
-2.4683 THAT INFORMATION 0.0000
-0.5239 THAT IS -0.1429
-2.4683 THAT MAKE -0.2156
