Language model created by QuickLM on Sat May 14 07:47:13 EDT 2016
Copyright (c) 1996-2010 Carnegie Mellon University and Alexander I. Rudnicky

The model is in standard ARPA format, designed by Doug Paul while he was at MITRE.

The code that was used to produce this language model is available in Open Source.
Please visit http://www.speech.cs.cmu.edu/tools/ for more information

The (fixed) discount mass is 0.5. The backoffs are computed using the ratio method.
This model based on a corpus of 27 sentences and 48 words

\data\
ngram 1=48
ngram 2=79
ngram 3=68

\1-grams:
-0.9700 </s> -0.3010
-0.9700 <s> -0.2499
-2.4014 A -0.2993
-2.1004 ARE -0.2958
-2.4014 ASHWIN -0.2993
-2.4014 BACK -0.2518
-2.4014 BACKWARD -0.2518
-2.4014 BE -0.2993
-2.1004 BRING -0.2976
-2.4014 DAY -0.2958
-2.4014 FORCE -0.2993
-2.4014 FORWARD -0.2518
-2.4014 GLASS -0.2518
-2.4014 HALT -0.2518
-2.4014 HOW -0.2976
-1.9243 IS -0.2888
-2.1004 IT -0.2518
-2.4014 J -0.2518
-2.4014 JARVIS -0.2518
-2.1004 LEFT -0.2518
-1.9243 LIGHTS -0.2460
-2.4014 M -0.2993
-2.4014 MAY -0.2923
-2.1004 ME -0.2923
-1.7993 MOVE -0.2941
-2.4014 MY -0.2993
-2.4014 NAME -0.2518
-2.4014 OFF -0.2518
-2.1004 ON -0.2421
-2.1004 RIGHT -0.2518
-2.4014 ROOM -0.2993
-2.1004 ROTATE -0.2941
-2.1004 SAY -0.2976
-2.4014 SING -0.2993
-2.4014 SODA -0.2518
-2.4014 SOMETHING -0.2518
-2.4014 SONG -0.2518
-2.4014 STOP -0.2518
-2.4014 STRAIGHT -0.2518
-2.4014 SUHAS -0.2518
-2.4014 TEMPERATURE -0.2518
-1.7024 THE -0.2888
-2.4014 TIME -0.2958
-1.9243 TURN -0.2906
-1.9243 WHAT -0.2923
-2.4014 WHO -0.2976
-2.4014 WITH -0.2958
-1.9243 YOU -0.2518

\2-grams:
-1.7324 <s> ASHWIN 0.0000
-1.4314 <s> BRING 0.0000
-1.7324 <s> HALT 0.0000
-1.7324 <s> HOW 0.0000
-1.7324 <s> JARVIS 0.0000
-1.4314 <s> LIGHTS -0.1249
-1.7324 <s> MAY 0.0000
-1.1303 <s> MOVE 0.0000
-1.4314 <s> ROTATE 0.0000
-1.4314 <s> SAY 0.0000
-1.7324 <s> SING 0.0000
-1.7324 <s> STOP 0.0000
-1.7324 <s> SUHAS 0.0000
-1.2553 <s> TURN 0.0000
-1.2553 <s> WHAT 0.0000
-1.7324 <s> WHO 0.0000
-0.3010 A SONG 0.0000
-0.3010 ARE YOU 0.0000
-0.3010 ASHWIN M 0.0000
-0.3010 BACK </s> -0.3010
-0.3010 BACKWARD </s> -0.3010
-0.3010 BE WITH 0.0000
-0.3010 BRING ME 0.0000
-0.3010 DAY IS -0.1249
-0.3010 FORCE BE 0.0000
-0.3010 FORWARD </s> -0.3010
-0.3010 GLASS </s> -0.3010
-0.3010 HALT </s> -0.3010
-0.3010 HOW ARE 0.0000
-0.4771 IS IT 0.0000
-0.7782 IS THE -0.2553
-0.3010 IT </s> -0.3010
-0.3010 J </s> -0.3010
-0.3010 JARVIS </s> -0.3010
-0.3010 LEFT </s> -0.3010
-0.7782 LIGHTS </s> -0.3010
-0.7782 LIGHTS OFF 0.0000
-0.7782 LIGHTS ON -0.1761
-0.3010 M J 0.0000
-0.3010 MAY THE -0.2553
-0.3010 ME THE -0.2041
-0.9031 MOVE BACK 0.0000
-0.9031 MOVE BACKWARD 0.0000
-0.9031 MOVE FORWARD 0.0000
-0.9031 MOVE STRAIGHT 0.0000
-0.3010 MY NAME 0.0000
-0.3010 NAME </s> -0.3010
-0.3010 OFF </s> -0.3010
-0.6021 ON </s> -0.3010
-0.6021 ON THE -0.2553
-0.3010 RIGHT </s> -0.3010
-0.3010 ROOM TEMPERATURE 0.0000
-0.6021 ROTATE LEFT 0.0000
-0.6021 ROTATE RIGHT 0.0000
-0.6021 SAY MY 0.0000
-0.6021 SAY SOMETHING 0.0000
-0.3010 SING A 0.0000
-0.3010 SODA </s> -0.3010
-0.3010 SOMETHING </s> -0.3010
-0.3010 SONG </s> -0.3010
-0.3010 STOP </s> -0.3010
-0.3010 STRAIGHT </s> -0.3010
-0.3010 SUHAS </s> -0.3010
-0.3010 TEMPERATURE </s> -0.3010
-1.0000 THE FORCE 0.0000
-1.0000 THE GLASS 0.0000
-1.0000 THE LIGHTS -0.2218
-1.0000 THE ROOM 0.0000
-1.0000 THE SODA 0.0000
-0.3010 TIME IS -0.1249
-0.7782 TURN LEFT 0.0000
-0.7782 TURN ON -0.1761
-0.7782 TURN RIGHT 0.0000
-0.7782 WHAT DAY 0.0000
-0.7782 WHAT IS -0.2218
-0.7782 WHAT TIME 0.0000
-0.3010 WHO ARE 0.0000
-0.3010 WITH YOU 0.0000
-0.3010 YOU </s> -0.3010

\3-grams:
-0.3010 <s> ASHWIN M
-0.3010 <s> BRING ME
-0.3010 <s> HALT </s>
-0.3010 <s> HOW ARE
-0.3010 <s> JARVIS </s>
-0.6021 <s> LIGHTS OFF
-0.6021 <s> LIGHTS ON
-0.3010 <s> MAY THE
-0.9031 <s> MOVE BACK
-0.9031 <s> MOVE BACKWARD
-0.9031 <s> MOVE FORWARD
-0.9031 <s> MOVE STRAIGHT
-0.6021 <s> ROTATE LEFT
-0.6021 <s> ROTATE RIGHT
-0.6021 <s> SAY MY
-0.6021 <s> SAY SOMETHING
-0.3010 <s> SING A
-0.3010 <s> STOP </s>
-0.3010 <s> SUHAS </s>
-0.7782 <s> TURN LEFT
-0.7782 <s> TURN ON
-0.7782 <s> TURN RIGHT
-0.7782 <s> WHAT DAY
-0.7782 <s> WHAT IS
-0.7782 <s> WHAT TIME
-0.3010 <s> WHO ARE
-0.3010 A SONG </s>
-0.3010 ARE YOU </s>
-0.3010 ASHWIN M J
-0.3010 BE WITH YOU
-0.3010 BRING ME THE
-0.3010 DAY IS IT
-0.3010 FORCE BE WITH
-0.3010 HOW ARE YOU
-0.3010 IS IT </s>
-0.3010 IS THE ROOM
-0.3010 LIGHTS OFF </s>
-0.3010 LIGHTS ON </s>
-0.3010 M J </s>
-0.3010 MAY THE FORCE
-0.6021 ME THE GLASS
-0.6021 ME THE SODA
-0.3010 MOVE BACK </s>
-0.3010 MOVE BACKWARD </s>
-0.3010 MOVE FORWARD </s>
-0.3010 MOVE STRAIGHT </s>
-0.3010 MY NAME </s>
-0.3010 ON THE LIGHTS
-0.3010 ROOM TEMPERATURE </s>
-0.3010 ROTATE LEFT </s>
-0.3010 ROTATE RIGHT </s>
-0.3010 SAY MY NAME
-0.3010 SAY SOMETHING </s>
-0.3010 SING A SONG
-0.3010 THE FORCE BE
-0.3010 THE GLASS </s>
-0.3010 THE LIGHTS </s>
-0.3010 THE ROOM TEMPERATURE
-0.3010 THE SODA </s>
-0.3010 TIME IS IT
-0.3010 TURN LEFT </s>
-0.3010 TURN ON THE
-0.3010 TURN RIGHT </s>
-0.3010 WHAT DAY IS
-0.3010 WHAT IS THE
-0.3010 WHAT TIME IS
-0.3010 WHO ARE YOU
-0.3010 WITH YOU </s>

\end\
