Language model created by QuickLM on Thu Feb 18 00:16:24 EST 2016
Copyright (c) 1996-2010 Carnegie Mellon University and Alexander I. Rudnicky

The model is in standard ARPA format, designed by Doug Paul while he was at MITRE.

The code that was used to produce this language model is available in Open Source.
Please visit http://www.speech.cs.cmu.edu/tools/ for more information

The (fixed) discount mass is 0.5. The backoffs are computed using the ratio method.
This model based on a corpus of 116 sentences and 108 words

\data\
ngram 1=108
ngram 2=210
ngram 3=202

\1-grams:
-1.0045 </s> -0.3010
-1.0045 <s> -0.2541
-3.0689 ABORT -0.2558
-3.0689 AKSHAY -0.2558
-2.7679 ARE -0.2999
-3.0689 ARMCHAIR -0.2558
-3.0689 ASHWIN -0.2558
-2.5918 BACK -0.2549
-2.5918 BACKWARD -0.2558
-3.0689 BATH -0.2999
-3.0689 BEDROOM -0.2558
-2.7679 BEER -0.2558
-2.7679 BISCUITS -0.2558
-1.7679 BRING -0.2848
-3.0689 CANCEL -0.2558
-2.7679 CHEESE -0.2558
-2.7679 CHIPS -0.2558
-2.3700 COME -0.2947
-3.0689 CONTINUE -0.3003
-2.7679 CORNFLAKES -0.2558
-3.0689 COUCH -0.2558
-2.2908 CUP -0.2558
-2.7679 DINING -0.2992
-3.0689 DISTANCE -0.2558
-2.7679 DOOR -0.2558
-2.7679 DOWN -0.2558
-3.0689 FASTER -0.2558
-3.0689 FOLLOW -0.2848
-2.7679 FOOD -0.2558
-2.7679 FOR -0.2798
-2.5918 FORWARD -0.2558
-3.0689 FREEZE -0.2558
-3.0689 FRONT -0.3003
-3.0689 FULL -0.2995
-1.7679 GET -0.2848
-2.7679 GLASS -0.2558
-2.0275 GO -0.2917
-3.0689 GOOD -0.3007
-2.7679 GREEN -0.3003
-3.0689 HALF -0.2995
-2.7679 HALT -0.2558
-2.7679 HEAD -0.3003
-2.7679 HELP -0.2377
-3.0689 HOW -0.3003
-2.1658 IS -0.2798
-3.0689 JARVIS -0.2558
-3.0689 JOB -0.2558
-3.0689 KILL -0.2558
-2.7679 KITCHEN -0.2549
-2.3700 LEFT -0.2558
-2.7679 LEMON -0.2995
-2.7679 LEMONADE -0.2558
-2.5918 LIGHTS -0.2541
-3.0689 LISTENING -0.2558
-3.0689 LIVING -0.2999
-1.4355 ME -0.2321
-3.0689 MEASURE -0.3007
-2.7679 METAL -0.2988
-2.7679 MILK -0.2558
-2.7679 MILO -0.2558
-2.3700 MOVE -0.2939
-2.7679 MY -0.3003
-2.7679 NAME -0.2558
-3.0689 NO -0.2558
-3.0689 NOW -0.2558
-2.7679 OFF -0.2558
-2.7679 ON -0.2321
-2.7679 ORIGINAL -0.2995
-3.0689 PANIC -0.2558
-2.7679 PAPER -0.2988
-3.0689 PAUSE -0.3003
-2.4669 PRINGLES -0.2558
-3.0689 QUARTER -0.2995
-2.7679 RED -0.2988
-2.3700 RIGHT -0.2558
-2.5918 ROOM -0.2558
-2.7679 ROTATE -0.2973
-3.0689 SAY -0.3003
-2.7679 SEA -0.3003
-2.7679 SEVEN -0.2999
-3.0689 SHUT -0.3003
-3.0689 SIDEBOARD -0.2558
-3.0689 SLOW -0.3003
-3.0689 SLOWER -0.2558
-3.0689 SOFA -0.2558
-2.7679 SPEECH -0.2558
-2.4669 SPEED -0.2545
-2.7679 SPOONS -0.2558
-2.4669 STOP -0.2549
-3.0689 STOVE -0.2558
-3.0689 STRAIGHT -0.2558
-3.0689 SUHAS -0.2558
-2.7679 TABLE -0.2558
-2.7679 TEA -0.2558
-3.0689 THANK -0.2999
-1.3207 THE -0.2782
-2.1658 THIS -0.2981
-2.3700 TO -0.2798
-3.0689 TOILET -0.2558
-2.4669 TURN -0.2958
-2.5918 UP -0.2558
-2.7679 WATER -0.2558
-3.0689 WHATS -0.3003
-3.0689 WHO -0.3003
-3.0689 WITH -0.2848
-3.0689 YES -0.2558
-2.7679 YOGURT -0.2558
-2.5918 YOU -0.2558

\2-grams:
-2.3655 <s> ABORT 0.0000
-2.3655 <s> AKSHAY 0.0000
-2.3655 <s> ASHWIN 0.0000
-1.0645 <s> BRING 0.0000
-2.3655 <s> CANCEL 0.0000
-1.6665 <s> COME 0.0000
-2.3655 <s> CONTINUE 0.0000
-2.3655 <s> FASTER 0.0000
-2.3655 <s> FOLLOW 0.0000
-2.3655 <s> FREEZE 0.0000
-2.3655 <s> FULL 0.0000
-1.0645 <s> GET 0.0000
-1.3241 <s> GO 0.0000
-2.3655 <s> GOOD 0.0000
-2.3655 <s> HALF 0.0000
-2.0645 <s> HALT 0.0000
-2.0645 <s> HEAD 0.0000
-2.0645 <s> HELP 0.0000
-2.3655 <s> HOW 0.0000
-2.3655 <s> JARVIS 0.0000
-2.3655 <s> KILL 0.0000
-2.0645 <s> LIGHTS -0.1249
-2.3655 <s> MEASURE 0.0000
-1.6665 <s> MOVE 0.0000
-2.3655 <s> NO 0.0000
-2.3655 <s> PANIC 0.0000
-2.3655 <s> PAUSE 0.0000
-2.3655 <s> QUARTER 0.0000
-2.0645 <s> ROTATE 0.0000
-2.3655 <s> SAY 0.0000
-2.3655 <s> SHUT 0.0000
-2.3655 <s> SLOW 0.0000
-2.3655 <s> SLOWER 0.0000
-2.3655 <s> SPEED -0.2430
-1.7634 <s> STOP 0.0000
-2.3655 <s> SUHAS 0.0000
-2.3655 <s> THANK 0.0000
-1.4624 <s> THIS 0.0000
-1.7634 <s> TURN 0.0000
-2.3655 <s> WHATS 0.0000
-2.3655 <s> WHO 0.0000
-2.3655 <s> YES 0.0000
-0.3010 ABORT </s> -0.3010
-0.3010 AKSHAY </s> -0.3010
-0.3010 ARE YOU 0.0000
-0.3010 ARMCHAIR </s> -0.3010
-0.3010 ASHWIN </s> -0.3010
-0.4771 BACK </s> -0.3010
-0.7782 BACK DOOR 0.0000
-0.3010 BACKWARD </s> -0.3010
-0.3010 BATH ROOM 0.0000
-0.3010 BEDROOM </s> -0.3010
-0.3010 BEER </s> -0.3010
-0.3010 BISCUITS </s> -0.3010
-0.3010 BRING ME -0.0293
-0.3010 CANCEL </s> -0.3010
-0.3010 CHEESE </s> -0.3010
-0.3010 CHIPS </s> -0.3010
-1.0000 COME BACKWARD 0.0000
-1.0000 COME FORWARD 0.0000
-1.0000 COME LEFT 0.0000
-1.0000 COME RIGHT 0.0000
-1.0000 COME WITH 0.0000
-0.3010 CONTINUE SPEECH 0.0000
-0.3010 CORNFLAKES </s> -0.3010
-0.3010 COUCH </s> -0.3010
-0.3010 CUP </s> -0.3010
-0.6021 DINING ROOM 0.0000
-0.6021 DINING TABLE 0.0000
-0.3010 DISTANCE </s> -0.3010
-0.3010 DOOR </s> -0.3010
-0.3010 DOWN </s> -0.3010
-0.3010 FASTER </s> -0.3010
-0.3010 FOLLOW ME -0.2856
-0.3010 FOOD </s> -0.3010
-0.3010 FOR THE -0.2932
-0.3010 FORWARD </s> -0.3010
-0.3010 FREEZE </s> -0.3010
-0.3010 FRONT DOOR 0.0000
-0.3010 FULL SPEED -0.0969
-0.3010 GET ME -0.0293
-0.3010 GLASS </s> -0.3010
-1.3424 GO BACK -0.1249
-1.3424 GO BACKWARD 0.0000
-1.3424 GO FORWARD 0.0000
-1.3424 GO LEFT 0.0000
-1.3424 GO RIGHT 0.0000
-1.3424 GO STRAIGHT 0.0000
-0.6435 GO TO 0.0000
-0.3010 GOOD JOB 0.0000
-0.3010 GREEN TEA 0.0000
-0.3010 HALF SPEED -0.0969
-0.3010 HALT </s> -0.3010
-0.3010 HEAD FOR 0.0000
-0.6021 HELP </s> -0.3010
-0.6021 HELP ME -0.2856
-0.3010 HOW ARE 0.0000
-0.3010 IS THE -0.2604
-0.3010 JARVIS </s> -0.3010
-0.3010 JOB </s> -0.3010
-0.3010 KILL </s> -0.3010
-0.6021 KITCHEN </s> -0.3010
-0.6021 KITCHEN TABLE 0.0000
-0.3010 LEFT </s> -0.3010
-0.3010 LEMON PRINGLES 0.0000
-0.3010 LEMONADE </s> -0.3010
-0.7782 LIGHTS </s> -0.3010
-0.7782 LIGHTS OFF 0.0000
-0.7782 LIGHTS ON -0.1761
-0.3010 LISTENING </s> -0.3010
-0.3010 LIVING ROOM 0.0000
-1.4574 ME </s> -0.3010
-0.3324 ME THE -0.1091
-0.3010 MEASURE DISTANCE 0.0000
-0.3010 METAL CUP 0.0000
-0.3010 MILK </s> -0.3010
-0.3010 MILO </s> -0.3010
-1.0000 MOVE BACK -0.1249
-1.0000 MOVE BACKWARD 0.0000
-1.0000 MOVE FORWARD 0.0000
-1.0000 MOVE LEFT 0.0000
-1.0000 MOVE RIGHT 0.0000
-0.3010 MY NAME 0.0000
-0.3010 NAME </s> -0.3010
-0.3010 NO </s> -0.3010
-0.3010 NOW </s> -0.3010
-0.3010 OFF </s> -0.3010
-0.6021 ON </s> -0.3010
-0.6021 ON THE -0.2971
-0.3010 ORIGINAL PRINGLES 0.0000
-0.3010 PANIC </s> -0.3010
-0.3010 PAPER CUP 0.0000
-0.3010 PAUSE SPEECH 0.0000
-0.3010 PRINGLES </s> -0.3010
-0.3010 QUARTER SPEED -0.0969
-0.3010 RED CUP 0.0000
-0.3010 RIGHT </s> -0.3010
-0.3010 ROOM </s> -0.3010
-0.6021 ROTATE LEFT 0.0000
-0.6021 ROTATE RIGHT 0.0000
-0.3010 SAY MY 0.0000
-0.3010 SEA FOOD 0.0000
-0.3010 SEVEN UP 0.0000
-0.3010 SHUT DOWN 0.0000
-0.3010 SIDEBOARD </s> -0.3010
-0.3010 SLOW DOWN 0.0000
-0.3010 SLOWER </s> -0.3010
-0.3010 SOFA </s> -0.3010
-0.3010 SPEECH </s> -0.3010
-0.4260 SPEED </s> -0.3010
-0.9031 SPEED UP 0.0000
-0.3010 SPOONS </s> -0.3010
-0.6021 STOP </s> -0.3010
-0.9031 STOP LISTENING 0.0000
-0.9031 STOP NOW 0.0000
-0.3010 STOVE </s> -0.3010
-0.3010 STRAIGHT </s> -0.3010
-0.3010 SUHAS </s> -0.3010
-0.3010 TABLE </s> -0.3010
-0.3010 TEA </s> -0.3010
-0.3010 THANK YOU 0.0000
-2.0492 THE ARMCHAIR 0.0000
-2.0492 THE BACK -0.2218
-2.0492 THE BATH 0.0000
-2.0492 THE BEDROOM 0.0000
-1.7482 THE BEER 0.0000
-1.7482 THE BISCUITS 0.0000
-1.7482 THE CHEESE 0.0000
-1.7482 THE CHIPS 0.0000
-1.7482 THE CORNFLAKES 0.0000
-2.0492 THE COUCH 0.0000
-1.7482 THE DINING 0.0000
-2.0492 THE FRONT 0.0000
-1.7482 THE GLASS 0.0000
-1.7482 THE GREEN 0.0000
-1.7482 THE KITCHEN 0.0000
-1.7482 THE LEMON 0.0000
-1.7482 THE LEMONADE 0.0000
-2.0492 THE LIGHTS -0.2218
-2.0492 THE LIVING 0.0000
-1.7482 THE METAL 0.0000
-1.7482 THE MILK 0.0000
-1.7482 THE MILO 0.0000
-1.7482 THE ORIGINAL 0.0000
-1.7482 THE PAPER 0.0000
-1.7482 THE RED 0.0000
-1.7482 THE SEA 0.0000
-1.7482 THE SEVEN 0.0000
-2.0492 THE SIDEBOARD 0.0000
-2.0492 THE SOFA 0.0000
-1.7482 THE SPOONS 0.0000
-2.0492 THE STOVE 0.0000
-2.0492 THE TOILET 0.0000
-1.7482 THE WATER 0.0000
-1.7482 THE YOGURT 0.0000
-0.3010 THIS IS 0.0000
-0.3010 TO THE -0.2730
-0.3010 TOILET </s> -0.3010
-0.9031 TURN LEFT 0.0000
-0.9031 TURN OFF 0.0000
-0.9031 TURN ON -0.1761
-0.9031 TURN RIGHT 0.0000
-0.3010 UP </s> -0.3010
-0.3010 WATER </s> -0.3010
-0.3010 WHATS MY 0.0000
-0.3010 WHO ARE 0.0000
-0.3010 WITH ME -0.2856
-0.3010 YES </s> -0.3010
-0.3010 YOGURT </s> -0.3010
-0.3010 YOU </s> -0.3010

\3-grams:
-0.3010 <s> ABORT </s>
-0.3010 <s> AKSHAY </s>
-0.3010 <s> ASHWIN </s>
-0.3010 <s> BRING ME
-0.3010 <s> CANCEL </s>
-1.0000 <s> COME BACKWARD
-1.0000 <s> COME FORWARD
-1.0000 <s> COME LEFT
-1.0000 <s> COME RIGHT
-1.0000 <s> COME WITH
-0.3010 <s> CONTINUE SPEECH
-0.3010 <s> FASTER </s>
-0.3010 <s> FOLLOW ME
-0.3010 <s> FREEZE </s>
-0.3010 <s> FULL SPEED
-0.3010 <s> GET ME
-1.3424 <s> GO BACK
-1.3424 <s> GO BACKWARD
-1.3424 <s> GO FORWARD
-1.3424 <s> GO LEFT
-1.3424 <s> GO RIGHT
-1.3424 <s> GO STRAIGHT
-0.6435 <s> GO TO
-0.3010 <s> GOOD JOB
-0.3010 <s> HALF SPEED
-0.3010 <s> HALT </s>
-0.3010 <s> HEAD FOR
-0.6021 <s> HELP </s>
-0.6021 <s> HELP ME
-0.3010 <s> HOW ARE
-0.3010 <s> JARVIS </s>
-0.3010 <s> KILL </s>
-0.6021 <s> LIGHTS OFF
-0.6021 <s> LIGHTS ON
-0.3010 <s> MEASURE DISTANCE
-1.0000 <s> MOVE BACK
-1.0000 <s> MOVE BACKWARD
-1.0000 <s> MOVE FORWARD
-1.0000 <s> MOVE LEFT
-1.0000 <s> MOVE RIGHT
-0.3010 <s> NO </s>
-0.3010 <s> PANIC </s>
-0.3010 <s> PAUSE SPEECH
-0.3010 <s> QUARTER SPEED
-0.6021 <s> ROTATE LEFT
-0.6021 <s> ROTATE RIGHT
-0.3010 <s> SAY MY
-0.3010 <s> SHUT DOWN
-0.3010 <s> SLOW DOWN
-0.3010 <s> SLOWER </s>
-0.3010 <s> SPEED UP
-0.6021 <s> STOP </s>
-0.9031 <s> STOP LISTENING
-0.9031 <s> STOP NOW
-0.3010 <s> SUHAS </s>
-0.3010 <s> THANK YOU
-0.3010 <s> THIS IS
-0.9031 <s> TURN LEFT
-0.9031 <s> TURN OFF
-0.9031 <s> TURN ON
-0.9031 <s> TURN RIGHT
-0.3010 <s> WHATS MY
-0.3010 <s> WHO ARE
-0.3010 <s> YES </s>
-0.3010 ARE YOU </s>
-0.3010 BACK DOOR </s>
-0.3010 BATH ROOM </s>
-0.3010 BRING ME THE
-0.3010 COME BACKWARD </s>
-0.3010 COME FORWARD </s>
-0.3010 COME LEFT </s>
-0.3010 COME RIGHT </s>
-0.3010 COME WITH ME
-0.3010 CONTINUE SPEECH </s>
-0.3010 DINING ROOM </s>
-0.3010 DINING TABLE </s>
-0.3010 FOLLOW ME </s>
-0.6021 FOR THE BACK
-0.6021 FOR THE FRONT
-0.3010 FRONT DOOR </s>
-0.3010 FULL SPEED </s>
-0.3010 GET ME THE
-0.3010 GO BACK </s>
-0.3010 GO BACKWARD </s>
-0.3010 GO FORWARD </s>
-0.3010 GO LEFT </s>
-0.3010 GO RIGHT </s>
-0.3010 GO STRAIGHT </s>
-0.3010 GO TO THE
-0.3010 GOOD JOB </s>
-0.3010 GREEN TEA </s>
-0.3010 HALF SPEED </s>
-0.3010 HEAD FOR THE
-0.3010 HELP ME </s>
-0.3010 HOW ARE YOU
-1.2041 IS THE ARMCHAIR
-1.2041 IS THE COUCH
-1.2041 IS THE DINING
-1.2041 IS THE KITCHEN
-1.2041 IS THE SIDEBOARD
-1.2041 IS THE SOFA
-1.2041 IS THE STOVE
-1.2041 IS THE TOILET
-0.3010 KITCHEN TABLE </s>
-0.3010 LEMON PRINGLES </s>
-0.3010 LIGHTS OFF </s>
-0.3010 LIGHTS ON </s>
-0.3010 LIVING ROOM </s>
-1.6021 ME THE BEER
-1.6021 ME THE BISCUITS
-1.6021 ME THE CHEESE
-1.6021 ME THE CHIPS
-1.6021 ME THE CORNFLAKES
-1.6021 ME THE GLASS
-1.6021 ME THE GREEN
-1.6021 ME THE LEMON
-1.6021 ME THE LEMONADE
-1.6021 ME THE METAL
-1.6021 ME THE MILK
-1.6021 ME THE MILO
-1.6021 ME THE ORIGINAL
-1.6021 ME THE PAPER
-1.6021 ME THE RED
-1.6021 ME THE SEA
-1.6021 ME THE SEVEN
-1.6021 ME THE SPOONS
-1.6021 ME THE WATER
-1.6021 ME THE YOGURT
-0.3010 MEASURE DISTANCE </s>
-0.3010 METAL CUP </s>
-0.3010 MOVE BACK </s>
-0.3010 MOVE BACKWARD </s>
-0.3010 MOVE FORWARD </s>
-0.3010 MOVE LEFT </s>
-0.3010 MOVE RIGHT </s>
-0.3010 MY NAME </s>
-0.3010 ON THE LIGHTS
-0.3010 ORIGINAL PRINGLES </s>
-0.3010 PAPER CUP </s>
-0.3010 PAUSE SPEECH </s>
-0.3010 QUARTER SPEED </s>
-0.3010 RED CUP </s>
-0.3010 ROTATE LEFT </s>
-0.3010 ROTATE RIGHT </s>
-0.3010 SAY MY NAME
-0.3010 SEA FOOD </s>
-0.3010 SEVEN UP </s>
-0.3010 SHUT DOWN </s>
-0.3010 SLOW DOWN </s>
-0.3010 SPEED UP </s>
-0.3010 STOP LISTENING </s>
-0.3010 STOP NOW </s>
-0.3010 THANK YOU </s>
-0.3010 THE ARMCHAIR </s>
-0.3010 THE BACK DOOR
-0.3010 THE BATH ROOM
-0.3010 THE BEDROOM </s>
-0.3010 THE BEER </s>
-0.3010 THE BISCUITS </s>
-0.3010 THE CHEESE </s>
-0.3010 THE CHIPS </s>
-0.3010 THE CORNFLAKES </s>
-0.3010 THE COUCH </s>
-0.6021 THE DINING ROOM
-0.6021 THE DINING TABLE
-0.3010 THE FRONT DOOR
-0.3010 THE GLASS </s>
-0.3010 THE GREEN TEA
-0.6021 THE KITCHEN </s>
-0.6021 THE KITCHEN TABLE
-0.3010 THE LEMON PRINGLES
-0.3010 THE LEMONADE </s>
-0.3010 THE LIGHTS </s>
-0.3010 THE LIVING ROOM
-0.3010 THE METAL CUP
-0.3010 THE MILK </s>
-0.3010 THE MILO </s>
-0.3010 THE ORIGINAL PRINGLES
-0.3010 THE PAPER CUP
-0.3010 THE RED CUP
-0.3010 THE SEA FOOD
-0.3010 THE SEVEN UP
-0.3010 THE SIDEBOARD </s>
-0.3010 THE SOFA </s>
-0.3010 THE SPOONS </s>
-0.3010 THE STOVE </s>
-0.3010 THE TOILET </s>
-0.3010 THE WATER </s>
-0.3010 THE YOGURT </s>
-0.3010 THIS IS THE
-1.0000 TO THE BATH
-1.0000 TO THE BEDROOM
-1.0000 TO THE DINING
-1.0000 TO THE KITCHEN
-1.0000 TO THE LIVING
-0.3010 TURN LEFT </s>
-0.3010 TURN OFF </s>
-0.3010 TURN ON THE
-0.3010 TURN RIGHT </s>
-0.3010 WHATS MY NAME
-0.3010 WHO ARE YOU
-0.3010 WITH ME </s>

\end\
