Language model created by QuickLM on Mon Jun 20 11:03:39 EDT 2016
Copyright (c) 1996-2010 Carnegie Mellon University and Alexander I. Rudnicky

The model is in standard ARPA format, designed by Doug Paul while he was at MITRE.

The code that was used to produce this language model is available in Open Source.
Please visit http://www.speech.cs.cmu.edu/tools/ for more information

The (fixed) discount mass is 0.5. The backoffs are computed using the ratio method.
This model based on a corpus of 218 sentences and 228 words

\data\
ngram 1=228
ngram 2=516
ngram 3=589

\1-grams:
-3.4304 2001 -0.2644
-3.4304 5 -0.2644
-1.0919 </s> -0.3010
-1.0919 <s> -0.2138
-1.8283 A -0.2426
-2.7314 ABOUT -0.2594
-3.4304 ACHIEVEMENT -0.2644
-3.4304 ACTIVATE -0.2976
-3.4304 ACTIVATED -0.2849
-3.4304 ADVANCED -0.2644
-3.4304 AGENT -0.3009
-2.6522 AI -0.2564
-3.1294 AIML -0.2644
-3.4304 ALGORITHMS -0.2644
-3.4304 ALICEBOT -0.2644
-3.4304 ALLOWED -0.2993
-3.4304 ALWAYS -0.3009
-3.4304 AM -0.3009
-2.8283 AN -0.2986
-2.9533 ANY -0.3001
-1.7969 ARE -0.2286
-3.4304 ARMS -0.2644
-2.5273 ARTIFICIAL -0.2637
-3.4304 ASHWIN -0.2644
-3.1294 B -0.2635
-3.4304 BAD -0.2644
-2.9533 BARRY -0.2642
-3.4304 BATHROOM -0.2644
-3.4304 BAWT -0.2644
-2.9533 BE -0.2936
-3.4304 BECOME -0.2945
-2.7314 BEING -0.2944
-3.4304 BEND -0.3009
-3.1294 BEST -0.2633
-3.4304 BETTER -0.3002
-2.9533 BODY -0.2644
-3.1294 BOT -0.2644
-3.1294 BOTMASTER -0.2644
-3.4304 BOYFRIEND -0.2644
-3.4304 BREATH -0.2644
-3.4304 BREATHE -0.2644
-3.1294 BROTHER -0.2644
-3.1294 BROTHERS -0.2642
-3.4304 BUSINESS -0.2644
-3.1294 C -0.2635
-2.3165 CAN -0.2814
-3.4304 CAPABLE -0.2999
-2.4762 CATEGORY -0.2555
-3.1294 CHAT -0.2988
-3.1294 CHATTERBOT -0.2644
-3.4304 CHATTERBOX -0.2644
-3.1294 CHILD -0.2642
-3.4304 CHILDREN -0.2644
-2.7314 CLIENT -0.2644
-3.4304 CLIENTS -0.2644
-3.4304 CLONE -0.2644
-3.4304 CLONES -0.2644
-3.4304 CLOTHES -0.2644
-2.2843 COMPUTER -0.2559
-3.4304 CONTROL -0.2644
-3.4304 COOL -0.2993
-3.4304 CRAMPED -0.3005
-3.4304 CREATED -0.2849
-3.4304 CREATORS -0.3007
-3.4304 CYBELLE -0.2644
-3.4304 DATA -0.2644
-3.4304 DEAD -0.2644
-3.4304 DEATH -0.2644
-3.4304 DEFACTO -0.2644
-3.4304 DID -0.2993
-2.4762 DIE -0.2644
-1.8393 DO -0.2799
-3.4304 DOES -0.2976
-3.4304 DOING -0.2644
-3.4304 DOWNLOAD -0.2644
-3.4304 DOWNLOADED -0.2644
-3.4304 DOWNLOADING -0.2644
-3.4304 DYING -0.2644
-3.4304 E -0.2644
-3.4304 EASY -0.2644
-2.5853 ELIZA -0.2640
-3.1294 ENTITY -0.2644
-3.4304 EVER -0.2996
-3.4304 EXTENSIONAL -0.2644
-2.7314 FAVORITE -0.2993
-3.4304 FEAR -0.3009
-3.4304 FEELINGS -0.2644
-3.4304 FIGHT -0.2644
-3.4304 FIVE -0.2644
-3.1294 FOR -0.2944
-3.4304 FORM -0.2644
-3.4304 FUTURE -0.2644
-3.1294 GAME -0.2644
-3.4304 GIRL -0.2993
-2.8283 GO -0.2621
-3.4304 GOAL -0.2644
-3.4304 GREATEST -0.3009
-3.4304 HARD -0.2644
-3.1294 HARDWARE -0.2644
-2.3890 HAVE -0.2916
-3.4304 HOBBY -0.2644
-3.4304 HOPE -0.3004
-3.4304 HOT -0.3005
-2.4762 HOW -0.2919
-3.4304 HUMAN -0.2644
-3.1294 HUMANS -0.2644
-2.3890 I -0.2526
-3.4304 IDEA -0.2644
-3.4304 IMITATION -0.3007
-2.6522 IMMORTAL -0.2644
-2.9533 IN -0.2911
-3.4304 INTELLIGENCE -0.2644
-3.4304 INTELLIGENT -0.3002
-3.4304 INTENSIONAL -0.2644
-3.4304 INTO -0.2644
-1.5731 IS -0.2789
-2.4762 IT -0.2866
-3.4304 JOHN -0.3009
-3.1294 JOHNNY -0.3007
-3.4304 KIDS -0.2644
-2.8283 KIND -0.2999
-2.8283 KNOW -0.2994
-2.9533 LANGUAGE -0.2568
-3.4304 LAUGH -0.2644
-3.4304 LEGS -0.2644
-3.4304 LENNON -0.2893
-3.4304 LIE -0.2644
-3.4304 LIFE -0.3009
-2.3890 LIKE -0.2806
-3.4304 LIMITATIONS -0.2644
-3.1294 LINGUISTIC -0.3007
-3.1294 LIVE -0.2639
-3.4304 LOEBNER -0.3009
-2.9533 LONG -0.2932
-3.4304 MACHINE -0.2644
-3.4304 MADE -0.2849
-3.1294 MAKE -0.2999
-3.4304 MAKES -0.3009
-3.1294 MAKING -0.3004
-3.4304 MALFUNCTION -0.2644
-3.4304 MANY -0.3009
-3.4304 MATE -0.2644
-2.8283 ME -0.2635
-3.4304 MEGAHAL -0.2644
-3.4304 MICROSOFT -0.2644
-3.4304 MIND -0.2644
-3.4304 MINUTES -0.2644
-3.4304 MORE -0.3009
-3.1294 MOTHER -0.2644
-3.1294 MOVE -0.2644
-3.4304 MOVIE -0.2997
-3.4304 MY -0.3007
-3.1294 NAME -0.2644
-3.4304 NO -0.2644
-2.4304 NOT -0.2814
-2.5853 OF -0.2917
-3.1294 ON -0.2468
-3.4304 OPERATING -0.3009
-3.4304 OR -0.3009
-3.4304 OTHER -0.3009
-3.4304 OVER -0.2644
-3.1294 PANDORABOT -0.2644
-2.7314 PANDORABOTS -0.2644
-3.4304 PARALLEL -0.2644
-3.4304 PATTERN -0.2644
-3.4304 PAYS -0.2644
-3.4304 PICTURE -0.2644
-2.9533 PLAN -0.2621
-3.4304 PLEASE -0.3004
-3.4304 PRESIDENT -0.2644
-3.4304 PRIZE -0.2644
-3.4304 PRODUCT -0.2644
-2.7314 PROGRAM -0.2570
-3.4304 PROGRAMMING -0.3005
-3.4304 RELATIVES -0.2644
-3.4304 REMEMBER -0.3009
-3.4304 REPLACE -0.2644
-3.4304 RIGHT -0.2644
-2.3512 ROBOT -0.2639
-3.4304 ROBOTICS -0.2644
-2.5273 ROBOTS -0.2544
-3.4304 RUBY -0.2644
-2.8283 SENSE -0.2644
-3.4304 SHOE -0.3009
-3.4304 SHOES -0.2644
-3.4304 SHOULD -0.2996
-3.4304 SISTERS -0.2644
-3.4304 SIZE -0.2644
-3.4304 SKIN -0.2644
-2.9533 SMARTER -0.3002
-3.4304 SONGS -0.2644
-3.4304 SOUND -0.2993
-3.4304 SPEAK -0.2993
-3.4304 STUPID -0.2644
-3.4304 SYSTEMS -0.2644
-3.4304 TALKED -0.2999
-3.1294 TELL -0.3004
-2.7314 THAN -0.2924
-2.8283 THAT -0.2846
-2.1082 THE -0.2876
-3.4304 THINK -0.2975
-3.4304 THIS -0.2644
-2.3890 TO -0.2512
-3.4304 TRUE -0.3004
-3.4304 TURN -0.3009
-3.1294 TYPE -0.2999
-3.4304 USE -0.2975
-3.4304 VIDEO -0.3007
-3.1294 WALK -0.2644
-2.5853 WANT -0.2924
-3.1294 WEAR -0.3007
-3.4304 WEB -0.3009
-3.1294 WEBSITE -0.2644
-1.6043 WHAT -0.2773
-2.6522 WHEN -0.2931
-3.4304 WHERE -0.2940
-2.2263 WHO -0.2888
-2.5853 WHY -0.2863
-2.4762 WILL -0.2849
-3.4304 WORKING -0.3007
-3.4304 WRITING -0.2644
-3.4304 WRITTEN -0.2644
-3.4304 XFIND -0.3002
-3.4304 XML -0.2644
-1.4392 YOU -0.2164
-2.0880 YOUR -0.2886
-3.4304 Z -0.2644
-3.4304 _ -0.3007

\2-grams:
-0.3010 2001 </s> -0.3010
-0.3010 5 </s> -0.3010
-2.6395 <s> ACTIVATE 0.0000
-2.6395 <s> AI -0.1249
-1.2971 <s> ARE -0.1147
-2.6395 <s> ARTIFICIAL -0.1761
-2.6395 <s> BEND 0.0000
-1.6395 <s> CAN -0.0621
-1.2081 <s> DO -0.0524
-2.6395 <s> DOES 0.0000
-2.6395 <s> DOWNLOAD 0.0000
-2.6395 <s> ELIZA -0.2688
-1.6852 <s> HOW 0.0000
-2.6395 <s> HUMANS 0.0000
-1.8613 <s> I -0.1627
-1.8613 <s> IS -0.2698
-2.3385 <s> IT -0.2499
-2.6395 <s> JOHN 0.0000
-2.3385 <s> JOHNNY 0.0000
-2.6395 <s> PLEASE 0.0000
-2.6395 <s> ROBOTICS 0.0000
-1.7944 <s> ROBOTS -0.0512
-2.3385 <s> TELL 0.0000
-2.6395 <s> THAT -0.2430
-2.6395 <s> THE -0.2906
-0.8134 <s> WHAT 0.0000
-1.8613 <s> WHEN 0.0000
-2.6395 <s> WHERE 0.0000
-1.4354 <s> WHO 0.0000
-1.7944 <s> WHY 0.0000
-2.3385 <s> WILL 0.0000
-2.6395 <s> XFIND 0.0000
-1.5981 <s> YOU -0.2736
-2.6395 <s> YOUR -0.2910
-1.6021 A </s> -0.3010
-1.9031 A A -0.2956
-1.9031 A B -0.1761
-1.9031 A BAD 0.0000
-1.9031 A BOTMASTER 0.0000
-1.9031 A C -0.1761
-1.3010 A CATEGORY -0.1597
-1.6021 A CHAT 0.0000
-1.9031 A CHATTERBOT 0.0000
-1.9031 A CHATTERBOX 0.0000
-1.9031 A CHILD -0.1761
-1.9031 A CLIENT 0.0000
-1.0000 A COMPUTER 0.0000
-1.9031 A E 0.0000
-1.9031 A ELIZA -0.0580
-1.9031 A GIRL 0.0000
-1.9031 A HUMAN 0.0000
-1.9031 A I -0.2596
-1.9031 A MIND 0.0000
-1.9031 A MOTHER 0.0000
-1.9031 A PANDORABOT 0.0000
-1.9031 A PATTERN 0.0000
-1.1249 A ROBOT 0.0000
-1.0000 ABOUT </s> -0.3010
-1.0000 ABOUT PANDORABOTS 0.0000
-1.0000 ABOUT PARALLEL 0.0000
-1.0000 ABOUT THE -0.2576
-1.0000 ABOUT _ 0.0000
-0.3010 ACHIEVEMENT </s> -0.3010
-0.3010 ACTIVATE THE -0.2576
-0.3010 ACTIVATED YOU -0.2829
-0.3010 ADVANCED </s> -0.3010
-0.3010 AGENT RUBY 0.0000
-0.4771 AI </s> -0.3010
-1.0792 AI A -0.2956
-1.0792 AI ABOUT -0.2553
-0.3010 AIML </s> -0.3010
-0.3010 ALGORITHMS </s> -0.3010
-0.3010 ALICEBOT </s> -0.3010
-0.3010 ALLOWED TO -0.2808
-0.3010 ALWAYS RIGHT 0.0000
-0.3010 AM DOWNLOADING 0.0000
-0.4260 AN ARTIFICIAL -0.2109
-0.9031 AN ELIZA -0.0580
-0.7782 ANY CLONES 0.0000
-0.7782 ANY OTHER 0.0000
-0.7782 ANY SENSE 0.0000
-1.9345 ARE </s> -0.3010
-1.9345 ARE A -0.2553
-1.9345 ARE AN -0.0969
-1.9345 ARE BETTER 0.0000
-1.9345 ARE CATEGORY -0.2762
-1.9345 ARE IMMORTAL 0.0000
-1.2355 ARE NOT -0.1761
-1.9345 ARE PANDORABOTS 0.0000
-1.9345 ARE STUPID 0.0000
-0.4873 ARE YOU -0.2236
-1.6335 ARE YOUR -0.2808
-0.3010 ARMS </s> -0.3010
-0.6021 ARTIFICIAL </s> -0.3010
-1.2041 ARTIFICIAL INTELLIGENCE 0.0000
-1.2041 ARTIFICIAL LIFE 0.0000
-0.9031 ARTIFICIAL LINGUISTIC 0.0000
-0.3010 ASHWIN </s> -0.3010
-0.6021 B </s> -0.3010
-0.6021 B CLIENT 0.0000
-0.3010 BAD </s> -0.3010
-0.4771 BARRY </s> -0.3010
-0.7782 BARRY DEFACTO 0.0000
-0.3010 BATHROOM </s> -0.3010
-0.3010 BAWT </s> -0.3010
-0.4771 BE A -0.2175
-0.7782 BE IMMORTAL 0.0000
-0.3010 BECOME A -0.2956
-0.3979 BEING A -0.2175
-1.0000 BEING DOWNLOADED 0.0000
-0.3010 BEND OVER 0.0000
-0.6021 BEST </s> -0.3010
-0.6021 BEST AI -0.1249
-0.3010 BETTER THAN -0.2553
-0.3010 BODY </s> -0.3010
-0.3010 BOT </s> -0.3010
-0.3010 BOTMASTER </s> -0.3010
-0.3010 BOYFRIEND </s> -0.3010
-0.3010 BREATH </s> -0.3010
-0.3010 BREATHE </s> -0.3010
-0.3010 BROTHER </s> -0.3010
-0.6021 BROTHERS </s> -0.3010
-0.6021 BROTHERS OR 0.0000
-0.3010 BUSINESS </s> -0.3010
-0.6021 C </s> -0.3010
-0.6021 C CLIENT 0.0000
-1.1139 CAN I -0.2596
-1.1139 CAN NOT -0.2553
-0.4607 CAN YOU -0.2640
-0.3010 CAPABLE OF -0.2688
-0.7782 CATEGORY </s> -0.3010
-1.2553 CATEGORY A -0.2900
-1.2553 CATEGORY B -0.1761
-1.2553 CATEGORY C -0.1761
-0.9542 CATEGORY CLIENT 0.0000
-1.2553 CATEGORY CLIENTS 0.0000
-0.6021 CHAT BOT 0.0000
-0.6021 CHAT ROBOT -0.0669
-0.3010 CHATTERBOT </s> -0.3010
-0.3010 CHATTERBOX </s> -0.3010
-0.6021 CHILD </s> -0.3010
-0.6021 CHILD MACHINE 0.0000
-0.3010 CHILDREN </s> -0.3010
-0.3010 CLIENT </s> -0.3010
-0.3010 CLIENTS </s> -0.3010
-0.3010 CLONE </s> -0.3010
-0.3010 CLONES </s> -0.3010
-0.3010 CLOTHES </s> -0.3010
-0.4472 COMPUTER </s> -0.3010
-0.9700 COMPUTER ARE -0.1300
-1.4472 COMPUTER PROGRAM -0.2041
-0.3010 CONTROL </s> -0.3010
-0.3010 COOL TO -0.2374
-0.3010 CRAMPED IN -0.1249
-0.3010 CREATED YOU -0.2829
-0.3010 CREATORS NAME 0.0000
-0.3010 CYBELLE </s> -0.3010
-0.3010 DATA </s> -0.3010
-0.3010 DEAD </s> -0.3010
-0.3010 DEATH </s> -0.3010
-0.3010 DEFACTO </s> -0.3010
-0.3010 DID I -0.2596
-0.3010 DIE </s> -0.3010
-1.8921 DO I -0.2808
-1.4150 DO NOT -0.2304
-1.8921 DO ROBOTS -0.2730
-1.8921 DO THIS 0.0000
-0.3736 DO YOU -0.2019
-0.3010 DOES THE -0.2906
-0.3010 DOING </s> -0.3010
-0.3010 DOWNLOAD </s> -0.3010
-0.3010 DOWNLOADED </s> -0.3010
-0.3010 DOWNLOADING </s> -0.3010
-0.3010 DYING </s> -0.3010
-0.3010 E </s> -0.3010
-0.3010 EASY </s> -0.3010
-0.3680 ELIZA </s> -0.3010
-1.1461 ELIZA FOR -0.1761
-0.3010 ENTITY </s> -0.3010
-0.3010 EVER DIE 0.0000
-0.3010 EXTENSIONAL </s> -0.3010
-1.0000 FAVORITE AI -0.1249
-1.0000 FAVORITE CHATTERBOT 0.0000
-1.0000 FAVORITE HOBBY 0.0000
-1.0000 FAVORITE PROGRAMMING 0.0000
-1.0000 FAVORITE VIDEO 0.0000
-0.3010 FEAR DEATH 0.0000
-0.3010 FEELINGS </s> -0.3010
-0.3010 FIGHT </s> -0.3010
-0.3010 FIVE </s> -0.3010
-0.6021 FOR A -0.2672
-0.6021 FOR PRESIDENT 0.0000
-0.3010 FORM </s> -0.3010
-0.3010 FUTURE </s> -0.3010
-0.3010 GAME </s> -0.3010
-0.3010 GIRL LIKE -0.2808
-0.9031 GO </s> -0.3010
-0.9031 GO ON -0.1761
-0.6021 GO TO -0.2374
-0.3010 GOAL </s> -0.3010
-0.3010 GREATEST ACHIEVEMENT 0.0000
-0.3010 HARD </s> -0.3010
-0.3010 HARDWARE </s> -0.3010
-1.0414 HAVE A -0.2900
-1.3424 HAVE ANY -0.2218
-1.3424 HAVE BROTHER 0.0000
-1.0414 HAVE BROTHERS 0.0000
-1.3424 HAVE ELIZA -0.0580
-1.3424 HAVE FEELINGS 0.0000
-1.3424 HAVE LIMITATIONS 0.0000
-1.3424 HAVE RELATIVES 0.0000
-1.3424 HAVE TALKED 0.0000
-0.3010 HOBBY </s> -0.3010
-0.3010 HOPE THAT -0.1761
-0.3010 HOT IN -0.1249
-1.2553 HOW CAN -0.2663
-0.6532 HOW DO -0.0524
-0.7782 HOW LONG 0.0000
-1.2553 HOW MANY 0.0000
-0.3010 HUMAN </s> -0.3010
-0.3010 HUMANS </s> -0.3010
-1.0414 I </s> -0.3010
-1.3424 I AM 0.0000
-1.3424 I BECOME 0.0000
-1.3424 I DO -0.2840
-1.0414 I HAVE -0.2596
-1.3424 I HOPE 0.0000
-1.3424 I LIKE -0.2808
-1.3424 I SPEAK 0.0000
-1.3424 I USE 0.0000
-0.3010 IDEA </s> -0.3010
-0.3010 IMITATION GAME 0.0000
-0.3010 IMMORTAL </s> -0.3010
-0.7782 IN A -0.2553
-0.4771 IN THE -0.2798
-0.3010 INTELLIGENCE </s> -0.3010
-0.3010 INTELLIGENT THAN -0.2041
-0.3010 INTENSIONAL </s> -0.3010
-0.3010 INTO </s> -0.3010
-0.9542 IS A -0.1139
-2.1584 IS AGENT 0.0000
-1.6812 IS AI 0.0000
-2.1584 IS AIML 0.0000
-2.1584 IS ASHWIN 0.0000
-1.6812 IS BARRY 0.0000
-1.5563 IS CATEGORY -0.1249
-2.1584 IS DEAD 0.0000
-1.3133 IS IT -0.0872
-2.1584 IS PANDORABOT 0.0000
-2.1584 IS PANDORABOTS 0.0000
-1.5563 IS PROGRAM 0.0000
-2.1584 IS THAT -0.2430
-1.2553 IS THE -0.1691
-2.1584 IS WORKING 0.0000
-2.1584 IS WRITING 0.0000
-2.1584 IS XML 0.0000
-0.9279 IS YOUR -0.0889
-1.2553 IT COOL 0.0000
-1.2553 IT CRAMPED 0.0000
-1.2553 IT HOT 0.0000
-1.2553 IT IS -0.2499
-0.7782 IT LIKE -0.1627
-1.2553 IT PAYS 0.0000
-1.2553 IT TRUE 0.0000
-0.3010 JOHN LENNON 0.0000
-0.6021 JOHNNY 5 0.0000
-0.6021 JOHNNY FIVE 0.0000
-0.3010 KIDS </s> -0.3010
-0.3010 KIND OF -0.0580
-0.9031 KNOW ALICEBOT 0.0000
-0.9031 KNOW ANY -0.2218
-0.9031 KNOW MEGAHAL 0.0000
-0.9031 KNOW PANDORABOTS 0.0000
-0.7782 LANGUAGE </s> -0.3010
-0.4771 LANGUAGE ARE -0.1300
-0.3010 LAUGH </s> -0.3010
-0.3010 LEGS </s> -0.3010
-0.3010 LENNON IS -0.2980
-0.3010 LIE </s> -0.3010
-0.3010 LIFE FORM 0.0000
-0.6435 LIKE BEING 0.0000
-1.3424 LIKE CYBELLE 0.0000
-1.3424 LIKE DATA 0.0000
-1.3424 LIKE ELIZA -0.0580
-1.3424 LIKE MICROSOFT 0.0000
-1.3424 LIKE TO -0.2374
-1.3424 LIKE YOU -0.2988
-0.3010 LIMITATIONS </s> -0.3010
-0.3010 LINGUISTIC ENTITY 0.0000
-0.6021 LIVE </s> -0.3010
-0.6021 LIVE IN -0.2218
-0.3010 LOEBNER PRIZE 0.0000
-0.7782 LONG DO -0.0621
-0.4771 LONG WILL 0.0000
-0.3010 MACHINE </s> -0.3010
-0.3010 MADE YOU -0.2829
-0.6021 MAKE ANY -0.2218
-0.6021 MAKE SENSE 0.0000
-0.3010 MAKES NO 0.0000
-0.3010 MAKING SENSE 0.0000
-0.3010 MALFUNCTION </s> -0.3010
-0.3010 MANY MINUTES 0.0000
-0.3010 MATE </s> -0.3010
-0.6021 ME </s> -0.3010
-0.6021 ME ABOUT -0.2041
-0.3010 MEGAHAL </s> -0.3010
-0.3010 MICROSOFT </s> -0.3010
-0.3010 MIND </s> -0.3010
-0.3010 MINUTES </s> -0.3010
-0.3010 MORE INTELLIGENT 0.0000
-0.3010 MOTHER </s> -0.3010
-0.3010 MOVE </s> -0.3010
-0.3010 MOVIE ARTIFICIAL -0.1761
-0.3010 MY NAME 0.0000
-0.3010 NAME </s> -0.3010
-0.3010 NO </s> -0.3010
-1.3010 NOT ALLOWED 0.0000
-1.3010 NOT CLONE 0.0000
-1.0000 NOT IMMORTAL 0.0000
-1.3010 NOT MAKE -0.1761
-1.0000 NOT MAKING 0.0000
-1.3010 NOT MOVE 0.0000
-1.3010 NOT WANT -0.1549
-1.3010 NOT YOU -0.2829
-1.1461 OF A -0.2553
-0.5441 OF COMPUTER -0.0300
-1.1461 OF DYING 0.0000
-1.1461 OF HARDWARE 0.0000
-0.6021 ON </s> -0.3010
-0.6021 ON YOU -0.2829
-0.3010 OPERATING SYSTEMS 0.0000
-0.3010 OR SISTERS 0.0000
-0.3010 OTHER SONGS 0.0000
-0.3010 OVER </s> -0.3010
-0.3010 PANDORABOT </s> -0.3010
-0.3010 PANDORABOTS </s> -0.3010
-0.3010 PARALLEL </s> -0.3010
-0.3010 PATTERN </s> -0.3010
-0.3010 PAYS </s> -0.3010
-0.3010 PICTURE </s> -0.3010
-0.7782 PLAN </s> -0.3010
-0.7782 PLAN FOR -0.1761
-0.7782 PLAN TO -0.2808
-0.3010 PLEASE GO -0.2430
-0.3010 PRESIDENT </s> -0.3010
-0.3010 PRIZE </s> -0.3010
-0.3010 PRODUCT </s> -0.3010
-0.6990 PROGRAM </s> -0.3010
-1.0000 PROGRAM A -0.2900
-1.0000 PROGRAM BAWT 0.0000
-1.0000 PROGRAM Z 0.0000
-0.3010 PROGRAMMING LANGUAGE -0.2218
-0.3010 RELATIVES </s> -0.3010
-0.3010 REMEMBER MY 0.0000
-0.3010 REPLACE </s> -0.3010
-0.3010 RIGHT </s> -0.3010
-0.3802 ROBOT </s> -0.3010
-1.0792 ROBOT BODY 0.0000
-0.3010 ROBOTICS </s> -0.3010
-0.9031 ROBOTS </s> -0.3010
-0.7270 ROBOTS ARE -0.2642
-1.2041 ROBOTS HAVE -0.2808
-1.2041 ROBOTS LAUGH 0.0000
-1.2041 ROBOTS SHOULD 0.0000
-0.3010 RUBY </s> -0.3010
-0.3010 SENSE </s> -0.3010
-0.3010 SHOE SIZE 0.0000
-0.3010 SHOES </s> -0.3010
-0.3010 SHOULD DIE 0.0000
-0.3010 SISTERS </s> -0.3010
-0.3010 SIZE </s> -0.3010
-0.3010 SKIN </s> -0.3010
-0.3010 SMARTER THAN -0.0792
-0.3010 SONGS </s> -0.3010
-0.3010 SOUND LIKE -0.2808
-0.3010 SPEAK TO -0.2596
-0.3010 STUPID </s> -0.3010
-0.3010 SYSTEMS </s> -0.3010
-0.3010 TALKED ELIZA -0.0580
-0.3010 TELL ME -0.1761
-1.0000 THAN A -0.2956
-1.0000 THAN ELIZA -0.0580
-1.0000 THAN HUMANS 0.0000
-0.6990 THAN ME -0.1761
-0.9031 THAT MAKES 0.0000
-0.9031 THAT PICTURE 0.0000
-0.6021 THAT YOU -0.2712
-1.3222 THE A -0.2900
-1.6232 THE BATHROOM 0.0000
-1.3222 THE BEST 0.0000
-1.6232 THE BOT 0.0000
-1.6232 THE BOTMASTER 0.0000
-1.3222 THE COMPUTER -0.1091
-1.6232 THE EXTENSIONAL 0.0000
-1.6232 THE FUTURE 0.0000
-1.6232 THE IMITATION 0.0000
-1.6232 THE INTENSIONAL 0.0000
-1.6232 THE LOEBNER 0.0000
-1.6232 THE MOVIE 0.0000
-1.0212 THE ROBOT -0.0669
-1.6232 THE WEB 0.0000
-1.6232 THE WEBSITE 0.0000
-0.3010 THINK YOUR -0.2910
-0.3010 THIS </s> -0.3010
-1.3424 TO </s> -0.3010
-0.8653 TO BE 0.0000
-1.0414 TO DIE 0.0000
-1.3424 TO DO -0.2954
-1.3424 TO LIE 0.0000
-1.3424 TO REPLACE 0.0000
-1.0414 TO THE -0.2460
-0.3010 TRUE THAT -0.1761
-0.3010 TURN INTO 0.0000
-0.3010 TYPE OF -0.1549
-0.3010 USE YOUR -0.2910
-0.3010 VIDEO GAME 0.0000
-0.3010 WALK </s> -0.3010
-1.1461 WANT A -0.2956
-1.1461 WANT CHILDREN 0.0000
-1.1461 WANT KIDS 0.0000
-0.5441 WANT TO -0.1627
-0.6021 WEAR CLOTHES 0.0000
-0.6021 WEAR SHOES 0.0000
-0.3010 WEB 2001 0.0000
-0.3010 WEBSITE </s> -0.3010
-1.8261 WHAT ABOUT -0.2041
-1.8261 WHAT ARE -0.2908
-2.1271 WHAT HARDWARE 0.0000
-0.4195 WHAT IS -0.0458
-1.5250 WHAT KIND 0.0000
-1.8261 WHAT LANGUAGE -0.1249
-2.1271 WHAT OPERATING 0.0000
-1.8261 WHAT TYPE 0.0000
-2.1271 WHAT WEBSITE 0.0000
-2.1271 WHAT WILL 0.0000
-1.0792 WHEN DID 0.0000
-1.0792 WHEN DO -0.0621
-0.4771 WHEN WILL 0.0000
-0.3010 WHERE ARE -0.2908
-1.5051 WHO ACTIVATED 0.0000
-1.5051 WHO CREATED 0.0000
-0.3912 WHO IS -0.1919
-1.5051 WHO MADE 0.0000
-1.1461 WHY AIML 0.0000
-0.8451 WHY ARE -0.1300
-0.6690 WHY DO -0.0322
-1.1461 WHY IMMORTAL 0.0000
-0.3010 WILL YOU -0.2688
-0.3010 WORKING ON -0.1761
-0.3010 WRITING </s> -0.3010
-0.3010 WRITTEN </s> -0.3010
-0.3010 XFIND PANDORABOTS 0.0000
-0.3010 XML </s> -0.3010
-1.3892 YOU </s> -0.3010
-1.9912 YOU A -0.2613
-2.2923 YOU ADVANCED 0.0000
-2.2923 YOU ALWAYS 0.0000
-1.8151 YOU AN 0.0000
-1.3892 YOU ARE -0.2530
-1.8151 YOU ARTIFICIAL -0.1383
-2.2923 YOU BODY 0.0000
-2.2923 YOU BREATH 0.0000
-2.2923 YOU BREATHE 0.0000
-1.9912 YOU CAN -0.2663
-2.2923 YOU CAPABLE 0.0000
-2.2923 YOU CONTROL 0.0000
-1.5933 YOU DIE 0.0000
-2.2923 YOU DO -0.2840
-2.2923 YOU DOING 0.0000
-2.2923 YOU EASY 0.0000
-2.2923 YOU EVER 0.0000
-2.2923 YOU FEAR 0.0000
-2.2923 YOU FIGHT 0.0000
-1.8151 YOU GO -0.0969
-2.2923 YOU HARD 0.0000
-1.3892 YOU HAVE -0.1047
-2.2923 YOU IMMORTAL 0.0000
-1.6902 YOU KNOW 0.0000
-1.5933 YOU LIKE -0.1347
-1.9912 YOU LIVE 0.0000
-2.2923 YOU MAKE -0.1761
-2.2923 YOU MALFUNCTION 0.0000
-2.2923 YOU MATE 0.0000
-2.2923 YOU MORE 0.0000
-2.2923 YOU MOVE 0.0000
-1.9912 YOU PLAN -0.1249
-2.2923 YOU REMEMBER 0.0000
-1.8151 YOU SMARTER 0.0000
-2.2923 YOU SOUND 0.0000
-1.5933 YOU THE -0.2460
-2.2923 YOU THINK 0.0000
-2.2923 YOU TURN 0.0000
-1.9912 YOU WALK 0.0000
-1.5141 YOU WANT 0.0000
-1.9912 YOU WEAR 0.0000
-2.2923 YOU WRITTEN 0.0000
-1.6435 YOUR A -0.2553
-1.6435 YOUR ALGORITHMS 0.0000
-1.6435 YOUR ARMS 0.0000
-1.6435 YOUR BOYFRIEND 0.0000
-1.6435 YOUR BROTHER 0.0000
-1.6435 YOUR BUSINESS 0.0000
-1.6435 YOUR CREATORS 0.0000
-0.9445 YOUR FAVORITE 0.0000
-1.6435 YOUR GOAL 0.0000
-1.6435 YOUR GREATEST 0.0000
-1.6435 YOUR IDEA 0.0000
-1.6435 YOUR LEGS 0.0000
-1.6435 YOUR MOTHER 0.0000
-1.6435 YOUR PLAN -0.2218
-1.6435 YOUR PRODUCT 0.0000
-1.6435 YOUR ROBOT -0.2632
-1.6435 YOUR SHOE 0.0000
-1.6435 YOUR SKIN 0.0000
-0.3010 Z </s> -0.3010
-0.3010 _ CHILD -0.1761

\3-grams:
-0.3010 <s> ACTIVATE THE
-0.3010 <s> AI </s>
-0.3212 <s> ARE YOU
-1.6435 <s> ARE YOUR
-0.3010 <s> ARTIFICIAL </s>
-0.3010 <s> BEND OVER
-1.3010 <s> CAN I
-0.3468 <s> CAN YOU
-1.7324 <s> DO ROBOTS
-0.3174 <s> DO YOU
-0.3010 <s> DOES THE
-0.3010 <s> DOWNLOAD </s>
-0.3010 <s> ELIZA FOR
-1.2553 <s> HOW CAN
-0.6532 <s> HOW DO
-0.7782 <s> HOW LONG
-1.2553 <s> HOW MANY
-0.3010 <s> HUMANS </s>
-1.0792 <s> I AM
-1.0792 <s> I DO
-0.7782 <s> I HAVE
-1.0792 <s> I HOPE
-1.0792 <s> I LIKE
-0.7782 <s> IS AI
-0.4771 <s> IS IT
-0.6021 <s> IT IS
-0.6021 <s> IT PAYS
-0.3010 <s> JOHN LENNON
-0.6021 <s> JOHNNY 5
-0.6021 <s> JOHNNY FIVE
-0.3010 <s> PLEASE GO
-0.3010 <s> ROBOTICS </s>
-0.8451 <s> ROBOTS </s>
-0.6690 <s> ROBOTS ARE
-1.1461 <s> ROBOTS LAUGH
-1.1461 <s> ROBOTS SHOULD
-0.3010 <s> TELL ME
-0.3010 <s> THAT MAKES
-0.3010 <s> THE MOVIE
-1.8261 <s> WHAT ABOUT
-1.8261 <s> WHAT ARE
-2.1271 <s> WHAT HARDWARE
-0.4195 <s> WHAT IS
-1.5250 <s> WHAT KIND
-1.8261 <s> WHAT LANGUAGE
-2.1271 <s> WHAT OPERATING
-1.8261 <s> WHAT TYPE
-2.1271 <s> WHAT WEBSITE
-2.1271 <s> WHAT WILL
-1.0792 <s> WHEN DID
-1.0792 <s> WHEN DO
-0.4771 <s> WHEN WILL
-0.3010 <s> WHERE ARE
-1.5051 <s> WHO ACTIVATED
-1.5051 <s> WHO CREATED
-0.3912 <s> WHO IS
-1.5051 <s> WHO MADE
-1.1461 <s> WHY AIML
-0.8451 <s> WHY ARE
-0.6690 <s> WHY DO
-1.1461 <s> WHY IMMORTAL
-0.3010 <s> WILL YOU
-0.3010 <s> XFIND PANDORABOTS
-0.4973 <s> YOU ARE
-1.0414 <s> YOU CAN
-1.3424 <s> YOU DO
-1.3424 <s> YOU SOUND
-0.3010 <s> YOUR A
-0.3010 A A CLIENT
-0.3010 A B CLIENT
-0.3010 A BAD </s>
-0.3010 A BOTMASTER </s>
-0.3010 A C CLIENT
-0.6021 A CATEGORY </s>
-0.6021 A CATEGORY CLIENT
-0.6021 A CHAT BOT
-0.6021 A CHAT ROBOT
-0.3010 A CHATTERBOT </s>
-0.3010 A CHATTERBOX </s>
-0.3010 A CHILD </s>
-0.3010 A CLIENT </s>
-0.4260 A COMPUTER </s>
-1.2041 A COMPUTER ARE
-1.2041 A COMPUTER PROGRAM
-0.3010 A E </s>
-0.3010 A ELIZA </s>
-0.3010 A GIRL LIKE
-0.3010 A HUMAN </s>
-0.3010 A I </s>
-0.3010 A MIND </s>
-0.3010 A MOTHER </s>
-0.3010 A PANDORABOT </s>
-0.3010 A PATTERN </s>
-0.3802 A ROBOT </s>
-1.0792 A ROBOT BODY
-0.3010 ABOUT PANDORABOTS </s>
-0.3010 ABOUT PARALLEL </s>
-0.3010 ABOUT THE ROBOT
-0.3010 ABOUT _ CHILD
-0.3010 ACTIVATE THE ROBOT
-0.3010 ACTIVATED YOU </s>
-0.3010 AGENT RUBY </s>
-0.3010 AI A BAD
-0.3010 AI ABOUT </s>
-0.3010 ALLOWED TO LIE
-0.3010 ALWAYS RIGHT </s>
-0.3010 AM DOWNLOADING </s>
-0.7782 AN ARTIFICIAL LIFE
-0.4771 AN ARTIFICIAL LINGUISTIC
-0.3010 AN ELIZA </s>
-0.3010 ANY CLONES </s>
-0.3010 ANY OTHER SONGS
-0.3010 ANY SENSE </s>
-0.3010 ARE A COMPUTER
-0.3010 ARE AN ARTIFICIAL
-0.3010 ARE BETTER THAN
-0.3010 ARE CATEGORY CLIENTS
-0.3010 ARE IMMORTAL </s>
-1.0000 ARE NOT ALLOWED
-0.6990 ARE NOT IMMORTAL
-0.6990 ARE NOT MAKING
-0.3010 ARE PANDORABOTS </s>
-0.3010 ARE STUPID </s>
-1.1461 ARE YOU </s>
-1.4472 ARE YOU A
-1.7482 ARE YOU ADVANCED
-1.7482 ARE YOU ALWAYS
-1.2711 ARE YOU AN
-1.2711 ARE YOU ARTIFICIAL
-1.7482 ARE YOU CAPABLE
-1.7482 ARE YOU EASY
-1.7482 ARE YOU HARD
-1.7482 ARE YOU IMMORTAL
-1.7482 ARE YOU MORE
-1.2711 ARE YOU SMARTER
-1.0492 ARE YOU THE
-1.7482 ARE YOU WRITTEN
-0.6021 ARE YOUR ARMS
-0.6021 ARE YOUR LEGS
-0.3010 ARTIFICIAL INTELLIGENCE </s>
-0.3010 ARTIFICIAL LIFE FORM
-0.3010 ARTIFICIAL LINGUISTIC ENTITY
-0.3010 B CLIENT </s>
-0.3010 BARRY DEFACTO </s>
-0.6021 BE A COMPUTER
-0.6021 BE A ROBOT
-0.3010 BE IMMORTAL </s>
-0.3010 BECOME A BOTMASTER
-0.6021 BEING A COMPUTER
-0.6021 BEING A ROBOT
-0.3010 BEING DOWNLOADED </s>
-0.3010 BEND OVER </s>
-0.3010 BEST AI </s>
-0.3010 BETTER THAN ELIZA
-0.3010 BROTHERS OR SISTERS
-0.3010 C CLIENT </s>
-0.6021 CAN I SPEAK
-0.6021 CAN I USE
-0.6021 CAN NOT CLONE
-0.6021 CAN NOT MOVE
-1.2553 CAN YOU BREATH
-1.2553 CAN YOU BREATHE
-1.2553 CAN YOU CONTROL
-1.2553 CAN YOU DIE
-1.2553 CAN YOU GO
-1.2553 CAN YOU MALFUNCTION
-1.2553 CAN YOU MATE
-1.2553 CAN YOU MOVE
-1.2553 CAN YOU WALK
-0.3010 CAPABLE OF DYING
-0.3010 CATEGORY A </s>
-0.3010 CATEGORY B </s>
-0.3010 CATEGORY C </s>
-0.3010 CATEGORY CLIENT </s>
-0.3010 CATEGORY CLIENTS </s>
-0.3010 CHAT BOT </s>
-0.3010 CHAT ROBOT </s>
-0.3010 CHILD MACHINE </s>
-0.3010 COMPUTER ARE YOU
-0.3010 COMPUTER PROGRAM </s>
-0.3010 COOL TO BE
-0.3010 CRAMPED IN THE
-0.3010 CREATED YOU </s>
-0.3010 CREATORS NAME </s>
-0.3010 DID I </s>
-0.3010 DO I BECOME
-0.7782 DO NOT MAKE
-0.7782 DO NOT WANT
-0.7782 DO NOT YOU
-0.3010 DO ROBOTS HAVE
-0.3010 DO THIS </s>
-1.8195 DO YOU DIE
-1.8195 DO YOU FEAR
-1.5185 DO YOU GO
-0.9744 DO YOU HAVE
-1.2175 DO YOU KNOW
-1.1206 DO YOU LIKE
-1.8195 DO YOU LIVE
-1.8195 DO YOU MAKE
-1.5185 DO YOU PLAN
-1.8195 DO YOU THINK
-1.0414 DO YOU WANT
-1.5185 DO YOU WEAR
-0.3010 DOES THE WEB
-0.3010 ELIZA FOR PRESIDENT
-0.3010 EVER DIE </s>
-0.3010 FAVORITE AI </s>
-0.3010 FAVORITE CHATTERBOT </s>
-0.3010 FAVORITE HOBBY </s>
-0.3010 FAVORITE PROGRAMMING LANGUAGE
-0.3010 FAVORITE VIDEO GAME
-0.3010 FEAR DEATH </s>
-0.3010 FOR A ROBOT
-0.3010 FOR PRESIDENT </s>
-0.3010 GIRL LIKE YOU
-0.3010 GO ON </s>
-0.6021 GO TO </s>
-0.6021 GO TO THE
-0.3010 GREATEST ACHIEVEMENT </s>
-0.6021 HAVE A MIND
-0.6021 HAVE A MOTHER
-0.3010 HAVE ANY CLONES
-0.3010 HAVE BROTHER </s>
-0.6021 HAVE BROTHERS </s>
-0.6021 HAVE BROTHERS OR
-0.3010 HAVE ELIZA </s>
-0.3010 HAVE FEELINGS </s>
-0.3010 HAVE LIMITATIONS </s>
-0.3010 HAVE RELATIVES </s>
-0.3010 HAVE TALKED ELIZA
-0.3010 HOPE THAT YOU
-0.3010 HOT IN THE
-0.3010 HOW CAN I
-0.9031 HOW DO I
-0.4260 HOW DO YOU
-0.7782 HOW LONG DO
-0.4771 HOW LONG WILL
-0.3010 HOW MANY MINUTES
-0.3010 I AM DOWNLOADING
-0.3010 I BECOME A
-0.3010 I DO NOT
-0.6021 I HAVE ELIZA
-0.6021 I HAVE TALKED
-0.3010 I HOPE THAT
-0.3010 I LIKE ELIZA
-0.3010 I SPEAK TO
-0.3010 I USE YOUR
-0.3010 IMITATION GAME </s>
-0.3010 IN A COMPUTER
-0.3010 IN THE COMPUTER
-0.3010 INTELLIGENT THAN ME
-1.5051 IS A A
-1.5051 IS A B
-1.5051 IS A C
-0.9031 IS A CATEGORY
-1.2041 IS A CHAT
-1.5051 IS A CHATTERBOT
-1.5051 IS A CHATTERBOX
-1.5051 IS A COMPUTER
-1.5051 IS A GIRL
-1.5051 IS A PANDORABOT
-1.5051 IS A PATTERN
-1.5051 IS A ROBOT
-0.3010 IS AGENT RUBY
-0.7782 IS AI </s>
-0.7782 IS AI A
-0.7782 IS AI ABOUT
-0.3010 IS AIML </s>
-0.3010 IS ASHWIN </s>
-0.4771 IS BARRY </s>
-0.7782 IS BARRY DEFACTO
-0.9031 IS CATEGORY </s>
-0.9031 IS CATEGORY A
-0.9031 IS CATEGORY B
-0.9031 IS CATEGORY C
-0.3010 IS DEAD </s>
-1.1461 IS IT COOL
-1.1461 IS IT CRAMPED
-1.1461 IS IT HOT
-0.6690 IS IT LIKE
-1.1461 IS IT TRUE
-0.3010 IS PANDORABOT </s>
-0.3010 IS PANDORABOTS </s>
-0.9031 IS PROGRAM </s>
-0.9031 IS PROGRAM A
-0.9031 IS PROGRAM BAWT
-0.9031 IS PROGRAM Z
-0.3010 IS THAT PICTURE
-0.9031 IS THE A
-1.2041 IS THE EXTENSIONAL
-1.2041 IS THE FUTURE
-1.2041 IS THE IMITATION
-1.2041 IS THE INTENSIONAL
-1.2041 IS THE LOEBNER
-1.2041 IS THE ROBOT
-0.3010 IS WORKING ON
-0.3010 IS WRITING </s>
-0.3010 IS XML </s>
-1.5315 IS YOUR BOYFRIEND
-1.5315 IS YOUR BROTHER
-1.5315 IS YOUR BUSINESS
-1.5315 IS YOUR CREATORS
-0.8325 IS YOUR FAVORITE
-1.5315 IS YOUR GOAL
-1.5315 IS YOUR GREATEST
-1.5315 IS YOUR IDEA
-1.5315 IS YOUR MOTHER
-1.5315 IS YOUR PLAN
-1.5315 IS YOUR ROBOT
-1.5315 IS YOUR SHOE
-1.5315 IS YOUR SKIN
-0.3010 IT COOL TO
-0.3010 IT CRAMPED IN
-0.3010 IT HOT IN
-0.3010 IT IS A
-0.4771 IT LIKE BEING
-0.7782 IT LIKE TO
-0.3010 IT PAYS </s>
-0.3010 IT TRUE THAT
-0.3010 JOHN LENNON IS
-0.3010 JOHNNY 5 </s>
-0.3010 JOHNNY FIVE </s>
-0.9031 KIND OF A
-0.6021 KIND OF COMPUTER
-0.9031 KIND OF HARDWARE
-0.3010 KNOW ALICEBOT </s>
-0.3010 KNOW ANY OTHER
-0.3010 KNOW MEGAHAL </s>
-0.3010 KNOW PANDORABOTS </s>
-0.3010 LANGUAGE ARE YOU
-0.3010 LENNON IS DEAD
-0.3010 LIFE FORM </s>
-0.3979 LIKE BEING A
-1.0000 LIKE BEING DOWNLOADED
-0.3010 LIKE CYBELLE </s>
-0.3010 LIKE DATA </s>
-0.3010 LIKE ELIZA </s>
-0.3010 LIKE MICROSOFT </s>
-0.3010 LIKE TO BE
-0.3010 LIKE YOU DOING
-0.3010 LINGUISTIC ENTITY </s>
-0.3010 LIVE IN A
-0.3010 LOEBNER PRIZE </s>
-0.3010 LONG DO YOU
-0.3010 LONG WILL YOU
-0.3010 MADE YOU </s>
-0.3010 MAKE ANY SENSE
-0.3010 MAKE SENSE </s>
-0.3010 MAKES NO </s>
-0.3010 MAKING SENSE </s>
-0.3010 MANY MINUTES </s>
-0.6021 ME ABOUT PANDORABOTS
-0.6021 ME ABOUT THE
-0.3010 MORE INTELLIGENT THAN
-0.3010 MOVIE ARTIFICIAL </s>
-0.3010 MY NAME </s>
-0.3010 NOT ALLOWED TO
-0.3010 NOT CLONE </s>
-0.3010 NOT IMMORTAL </s>
-0.3010 NOT MAKE ANY
-0.3010 NOT MAKING SENSE
-0.3010 NOT MOVE </s>
-0.3010 NOT WANT TO
-0.3010 NOT YOU HAVE
-0.3010 OF A COMPUTER
-0.6021 OF COMPUTER </s>
-0.6021 OF COMPUTER ARE
-0.3010 OF DYING </s>
-0.3010 OF HARDWARE </s>
-0.3010 ON YOU </s>
-0.3010 OPERATING SYSTEMS </s>
-0.3010 OR SISTERS </s>
-0.3010 OTHER SONGS </s>
-0.3010 PLAN FOR A
-0.3010 PLAN TO DO
-0.3010 PLEASE GO ON
-0.3010 PROGRAM A </s>
-0.3010 PROGRAM BAWT </s>
-0.3010 PROGRAM Z </s>
-0.3010 PROGRAMMING LANGUAGE </s>
-0.3010 REMEMBER MY NAME
-0.3010 ROBOT BODY </s>
-0.7782 ROBOTS ARE </s>
-0.7782 ROBOTS ARE NOT
-0.7782 ROBOTS ARE STUPID
-0.3010 ROBOTS HAVE FEELINGS
-0.3010 ROBOTS LAUGH </s>
-0.3010 ROBOTS SHOULD DIE
-0.3010 SHOE SIZE </s>
-0.3010 SHOULD DIE </s>
-0.7782 SMARTER THAN A
-0.7782 SMARTER THAN HUMANS
-0.7782 SMARTER THAN ME
-0.3010 SOUND LIKE DATA
-0.3010 SPEAK TO THE
-0.3010 TALKED ELIZA </s>
-0.3010 TELL ME ABOUT
-0.3010 THAN A HUMAN
-0.3010 THAN ELIZA </s>
-0.3010 THAN HUMANS </s>
-0.3010 THAN ME </s>
-0.3010 THAT MAKES NO
-0.3010 THAT PICTURE </s>
-0.6021 THAT YOU ARE
-0.6021 THAT YOU DIE
-0.6021 THE A E
-0.6021 THE A I
-0.3010 THE BATHROOM </s>
-0.6021 THE BEST </s>
-0.6021 THE BEST AI
-0.3010 THE BOT </s>
-0.3010 THE BOTMASTER </s>
-0.3010 THE COMPUTER </s>
-0.3010 THE EXTENSIONAL </s>
-0.3010 THE FUTURE </s>
-0.3010 THE IMITATION GAME
-0.3010 THE INTENSIONAL </s>
-0.3010 THE LOEBNER PRIZE
-0.3010 THE MOVIE ARTIFICIAL
-0.3010 THE ROBOT </s>
-0.3010 THE WEB 2001
-0.3010 THE WEBSITE </s>
-0.3010 THINK YOUR ALGORITHMS
-0.4771 TO BE A
-0.7782 TO BE IMMORTAL
-0.3010 TO DIE </s>
-0.3010 TO DO THIS
-0.3010 TO LIE </s>
-0.3010 TO REPLACE </s>
-0.6021 TO THE BATHROOM
-0.6021 TO THE ROBOT
-0.3010 TRUE THAT YOU
-0.3010 TURN INTO </s>
-0.3010 TYPE OF COMPUTER
-0.3010 USE YOUR PRODUCT
-0.3010 VIDEO GAME </s>
-0.3010 WANT A CHILD
-0.3010 WANT CHILDREN </s>
-0.3010 WANT KIDS </s>
-0.9031 WANT TO BE
-0.6021 WANT TO DIE
-0.9031 WANT TO REPLACE
-0.3010 WEAR CLOTHES </s>
-0.3010 WEAR SHOES </s>
-0.3010 WEB 2001 </s>
-0.6021 WHAT ABOUT PARALLEL
-0.6021 WHAT ABOUT _
-0.6021 WHAT ARE CATEGORY
-0.6021 WHAT ARE PANDORABOTS
-0.3010 WHAT HARDWARE </s>
-0.8325 WHAT IS A
-2.0086 WHAT IS AI
-2.0086 WHAT IS AIML
-1.4065 WHAT IS CATEGORY
-1.5315 WHAT IS IT
-2.0086 WHAT IS PANDORABOT
-2.0086 WHAT IS PANDORABOTS
-1.4065 WHAT IS PROGRAM
-2.0086 WHAT IS THAT
-1.1635 WHAT IS THE
-2.0086 WHAT IS XML
-0.9294 WHAT IS YOUR
-0.3010 WHAT KIND OF
-0.3010 WHAT LANGUAGE ARE
-0.3010 WHAT OPERATING SYSTEMS
-0.3010 WHAT TYPE OF
-0.3010 WHAT WEBSITE </s>
-0.3010 WHAT WILL YOU
-0.3010 WHEN DID I
-0.3010 WHEN DO YOU
-0.3010 WHEN WILL YOU
-0.3010 WHERE ARE YOUR
-0.3010 WHO ACTIVATED YOU
-0.3010 WHO CREATED YOU
-1.4150 WHO IS AGENT
-1.4150 WHO IS ASHWIN
-0.9379 WHO IS BARRY
-1.4150 WHO IS THE
-1.4150 WHO IS WORKING
-1.4150 WHO IS WRITING
-0.7160 WHO IS YOUR
-0.3010 WHO MADE YOU
-0.3010 WHY AIML </s>
-0.3010 WHY ARE YOU
-0.7782 WHY DO NOT
-0.4771 WHY DO YOU
-0.3010 WHY IMMORTAL </s>
-1.2553 WILL YOU BODY
-0.9542 WILL YOU DIE
-1.2553 WILL YOU EVER
-1.2553 WILL YOU FIGHT
-1.2553 WILL YOU LIVE
-1.2553 WILL YOU REMEMBER
-1.2553 WILL YOU TURN
-1.2553 WILL YOU WALK
-0.3010 WORKING ON YOU
-0.3010 XFIND PANDORABOTS </s>
-0.6021 YOU A ELIZA
-0.6021 YOU A ROBOT
-0.3010 YOU ADVANCED </s>
-0.3010 YOU ALWAYS RIGHT
-0.4771 YOU AN ARTIFICIAL
-0.7782 YOU AN ELIZA
-1.2041 YOU ARE A
-1.2041 YOU ARE AN
-1.2041 YOU ARE BETTER
-1.2041 YOU ARE IMMORTAL
-0.6021 YOU ARE NOT
-0.4771 YOU ARTIFICIAL </s>
-0.7782 YOU ARTIFICIAL INTELLIGENCE
-0.3010 YOU BODY </s>
-0.3010 YOU BREATH </s>
-0.3010 YOU BREATHE </s>
-0.3010 YOU CAN NOT
-0.3010 YOU CAPABLE OF
-0.3010 YOU CONTROL </s>
-0.3010 YOU DIE </s>
-0.3010 YOU DO NOT
-0.3010 YOU DOING </s>
-0.3010 YOU EASY </s>
-0.3010 YOU EVER DIE
-0.3010 YOU FEAR DEATH
-0.3010 YOU FIGHT </s>
-0.7782 YOU GO </s>
-0.4771 YOU GO TO
-0.3010 YOU HARD </s>
-0.9031 YOU HAVE A
-1.2041 YOU HAVE ANY
-1.2041 YOU HAVE BROTHER
-0.9031 YOU HAVE BROTHERS
-1.2041 YOU HAVE LIMITATIONS
-1.2041 YOU HAVE RELATIVES
-0.3010 YOU IMMORTAL </s>
-0.9031 YOU KNOW ALICEBOT
-0.9031 YOU KNOW ANY
-0.9031 YOU KNOW MEGAHAL
-0.9031 YOU KNOW PANDORABOTS
-0.5229 YOU LIKE BEING
-1.0000 YOU LIKE CYBELLE
-1.0000 YOU LIKE MICROSOFT
-0.6021 YOU LIVE </s>
-0.6021 YOU LIVE IN
-0.3010 YOU MAKE SENSE
-0.3010 YOU MALFUNCTION </s>
-0.3010 YOU MATE </s>
-0.3010 YOU MORE INTELLIGENT
-0.3010 YOU MOVE </s>
-0.6021 YOU PLAN </s>
-0.6021 YOU PLAN TO
-0.3010 YOU REMEMBER MY
-0.3010 YOU SMARTER THAN
-0.3010 YOU SOUND LIKE
-0.6990 YOU THE BEST
-1.0000 YOU THE BOT
-1.0000 YOU THE BOTMASTER
-1.0000 YOU THE WEBSITE
-0.3010 YOU THINK YOUR
-0.3010 YOU TURN INTO
-0.3010 YOU WALK </s>
-1.0792 YOU WANT A
-1.0792 YOU WANT CHILDREN
-1.0792 YOU WANT KIDS
-0.6021 YOU WANT TO
-0.6021 YOU WEAR CLOTHES
-0.6021 YOU WEAR SHOES
-0.3010 YOU WRITTEN </s>
-0.3010 YOUR A COMPUTER
-0.3010 YOUR ALGORITHMS </s>
-0.3010 YOUR ARMS </s>
-0.3010 YOUR BOYFRIEND </s>
-0.3010 YOUR BROTHER </s>
-0.3010 YOUR BUSINESS </s>
-0.3010 YOUR CREATORS NAME
-1.0000 YOUR FAVORITE AI
-1.0000 YOUR FAVORITE CHATTERBOT
-1.0000 YOUR FAVORITE HOBBY
-1.0000 YOUR FAVORITE PROGRAMMING
-1.0000 YOUR FAVORITE VIDEO
-0.3010 YOUR GOAL </s>
-0.3010 YOUR GREATEST ACHIEVEMENT
-0.3010 YOUR IDEA </s>
-0.3010 YOUR LEGS </s>
-0.3010 YOUR MOTHER </s>
-0.3010 YOUR PLAN FOR
-0.3010 YOUR PRODUCT </s>
-0.3010 YOUR ROBOT BODY
-0.3010 YOUR SHOE SIZE
-0.3010 YOUR SKIN </s>
-0.3010 _ CHILD MACHINE

\end\
